7.178961588596206866e-02
6.756074168195207175e-02
1.818889472206654812e-01
1.603886666773726988e-01
2.495389418944088944e-01
1.418844834505989319e-02
-1.117948311187081795e-01
1.956516360663953791e-01
6.703788988974761220e-02
2.245887239491074772e-01
-1.023020139767148902e-02
-6.261349140544611447e-02
-1.023543180337443820e-01
1.114856271922079339e-01
1.623714403609679557e-01
1.410698960348940323e-01
1.920736139871915549e-01
-1.843711395572582845e-01
2.095372991493641979e-01
1.125322885615952090e-01
4.092728676549477890e-02
8.089116693041137340e-02
2.989411012940326046e-02
1.325136749080730592e-01
9.781601438905839635e-03
-3.184029370044810792e-02
-3.261220892385346404e-01
4.373631904565886824e-03
2.741273169925311226e-01
-1.589878926244058244e-01
7.459249387506984574e-02
9.617737063004913600e-02
7.576114868029573679e-02
1.394188332167039246e-01
2.212397573672400808e-01
1.521731055761639251e-01
-1.220738098375876910e-04
-3.702492563898435868e-02
-1.223499184346183155e-01
5.319608294799615250e-02
-1.327474591931658288e-01
2.340210915099748962e-02
1.317013290192413366e-01
2.790388030789571761e-01
-2.746855478463920419e-01
1.401817682110243282e-02
9.945382940008674899e-02
8.692292771519757877e-02
-6.425630428998641008e-02
-3.594713384064295719e-02
-6.856861676645063797e-02
1.504721584355309116e-01
6.001465516665575178e-02
-4.358114061107049714e-02
-1.487981655034854855e-02
1.284790333887513292e-01
4.884244981015300330e-02
1.192776474148046079e-01
3.908114863915009007e-02
-2.481598769915762392e-01
-1.578859345465166361e-02
-9.090420819749507955e-03
-2.857844638616274888e-03
4.508241610856395659e-02
1.135487409781798518e-01
3.834519767274788965e-02
-2.212985456966862219e-01
2.109180589538990069e-01
2.401418095564725186e-02
8.525783908637492303e-02
-2.682530990248575484e-02
-4.552715199055800549e-02
7.449583278907233319e-02
2.164939464652111123e-01
2.203895401986781244e-01
2.344708587171028258e-01
1.226787315628550118e-01
4.672616106201249453e-02
1.357871097691295825e-01
5.992715469275874951e-02
-1.539789142306873665e-02
1.248974715434075615e-02
1.043659454066164088e-01
-2.069170420674354069e-02
4.755110363951326607e-02
-1.099183831743546363e-02
6.974093498065402075e-02
2.523104655814562697e-02
-8.606627227395466373e-02
1.703277518029846782e-01
-2.605982329314880386e-01
8.073551379431180910e-03
1.333790771036656719e-01
1.301642237752684977e-02
-9.819045807573890949e-02
9.705840607353254795e-03
-9.159888980998062008e-03
-4.854333915586077353e-02
5.684050797221567360e-04
-2.068615452864423776e-01
-3.005288707503329104e-01
-6.736074762393459226e-04
-2.862524593980351750e-01
-1.039653198909701731e-01
5.090401789144630151e-02
6.391264068172866630e-02
4.650987160904731382e-02
1.386285989670504593e-01
2.003777100941049050e-01
1.346145033156777326e-04
1.137601832556454640e-01
-1.307774418143754225e-01
5.737346749327279505e-02
2.333508855253274283e-01
9.370559493989905064e-02
8.599572261602209111e-02
-2.671518629418748875e-02
1.401781927554133222e-01
1.153622544739783262e-01
8.663744690541862192e-02
1.040760212035297949e-01
-1.531921644507609204e-01
8.295923075832728477e-02
-6.256276570398290604e-02
5.263674224431747622e-02
-1.954906715026729844e-02
-2.397897128368341180e-01
1.296963832588672594e-01
