-2.439843148335610334e-02
-2.494785429704491145e-02
6.318780835282328950e-03
1.312915129370198324e-02
1.138651781166195344e-02
1.269468044524307282e-01
3.109139498633379378e-02
-1.695166718767410945e-03
1.096235933315594518e-02
4.529762342914723378e-02
8.611956536899993686e-03
-4.055504721564639342e-03
3.627884642526379294e-02
1.284728273845611168e-01
7.176449679667705472e-02
-2.690092181441321520e-02
3.697662216090500525e-02
-2.633864026316966485e-03
-2.406588920600805787e-02
1.246781569926267569e-02
3.356242681062827915e-02
9.933517489471430095e-02
-8.817688537130637452e-03
-1.243792064362705431e-02
3.795678175999816356e-02
1.588705678232822383e-01
2.470688705786644153e-04
-1.679150148403382812e-03
5.094442364244892996e-02
-1.643885970767141463e-02
1.488297395377094663e-02
7.474925828690658081e-02
-1.971013991662575924e-04
5.067233548490934943e-03
-3.261856923223075549e-02
1.079837414490258107e-01
-2.371296251697770779e-02
7.843180762069205947e-02
7.739412014602391199e-02
6.817180222021457583e-03
4.378732373356170049e-02
7.526474923181751542e-02
-2.574523253261097600e-02
9.490014887272378574e-03
7.852310202455443922e-02
1.034069949445058992e-02
-1.491824491538798697e-04
3.490583430421052846e-02
-3.604215193592766320e-02
4.598371270697838679e-03
-9.882768597826238274e-03
-3.216855691635438219e-02
1.488440356873868553e-01
4.913413149218566478e-03
-6.075791569333212176e-03
2.853948700963403542e-02
2.502262505808855193e-03
2.725238617725013468e-02
2.270094417761328240e-02
9.725142823347160403e-02
5.238973216892212764e-02
1.292255189164370245e-02
1.380399373439618049e-01
-1.838816456416010950e-02
1.339682852856549731e-03
3.607337264693163265e-02
6.979547889186281384e-02
-5.599194156714812354e-02
2.676662133917804068e-02
3.551572772761054514e-02
-2.477500228299224852e-02
2.839831816721510860e-01
-2.615924505693847848e-03
-4.267566890788762612e-03
4.933995702899465069e-02
-3.895226060278174710e-03
4.779243140662350203e-02
3.281199383538810788e-03
2.249680502200085419e-02
7.095754253440400561e-02
-1.233360726736810456e-03
-1.700782963239583223e-02
1.008465502387626000e-01
9.708022701985934838e-03
-1.020967709682253123e-02
3.159335776491640352e-02
1.901272165939569755e-02
1.187273171592829329e-02
1.953991301149182735e-02
3.622592928478349933e-02
9.797370694069978958e-02
2.097550118291948221e-02
-2.317630020491222298e-02
-1.375726420708622095e-03
-4.334296836148449593e-03
-1.528739387313660190e-03
4.816697380482112822e-02
-2.564238051748925218e-02
-1.529313685122329382e-02
2.098389526018597240e-02
-1.318101990247541860e-03
-1.932534044775545065e-02
2.165438449378353017e-02
2.397788752995207856e-02
4.827196318048449647e-02
4.788016311168992456e-03
-5.829541835142065809e-02
8.343680335949368171e-03
-1.710655577184248474e-02
3.126612163241829223e-02
-1.601809669735796814e-03
7.075809503981296544e-02
1.519033134693316134e-01
-3.435842232973750771e-02
1.337756685598895379e-02
1.003857587758811166e-03
-6.475515650555262702e-03
8.877892123078728881e-02
-4.463863101414067454e-03
-1.687720986072894320e-03
-8.675653837683240666e-02
8.946962805438088417e-02
-3.026120171836103705e-03
1.057575378825061779e-01
2.776831221342858022e-02
-5.640840391302748280e-04
2.183073809272189150e-02
3.336689433266361044e-03
