6.533995294164945955e-02
8.760078990724724790e-02
-2.603048074234100007e-01
-2.764670159814513473e-01
-3.706036810353987576e-01
-7.136406204850212487e-02
-1.863789970796643491e-02
-1.806426581508416007e-01
-3.948367403559624456e-03
1.171200423442795846e-01
-2.596469020548184403e-01
2.729961034346511384e-01
-2.373691691173514529e-01
1.221160931315054543e-01
-2.011169921370677474e-02
-1.333827103532913561e-01
-2.395704187608592439e-01
-1.645665342735828374e-01
1.536133847953111420e-01
-2.344248445882420040e-01
-3.856273245646793524e-01
1.932616353905393120e-03
-2.919946307357739607e-02
-5.643380263298944377e-02
-1.135422228429876362e-01
-2.048422910415048301e-02
-8.866103408521848472e-02
-2.431662358529235735e-01
-8.185889697504042384e-02
-1.884722633778217749e-01
2.736187016960034066e-02
-1.883002549347926602e-01
-2.658167173804537042e-01
-5.488386058279638019e-02
-1.432561836884029549e-01
-1.413401034705700499e-01
-2.586231531330566158e-01
-3.844078807560076250e-01
-2.203239846722697057e-02
1.026862567757212547e-01
-7.637902160648848970e-02
1.295326902155617410e-01
1.019427585329791136e-01
-1.401779264153771576e-01
2.689965190256250315e-03
-6.704719534046194029e-02
-4.729517873791240778e-01
2.763729321574852071e-01
-3.588072514791917356e-01
-1.284419045138774640e-01
-3.202839435902356258e-02
-6.395296419931257859e-01
-4.085671286330179452e-02
2.600637759294041063e-01
-5.472213561647808477e-01
-1.819071033630314249e-01
-2.360738390129405451e-01
-5.298730336473178593e-02
2.946391667098630651e-01
-7.850825172143435782e-02
-7.540672029692067901e-02
-2.338276444217704808e-01
3.028325504001119772e-01
-1.852096825744646291e-01
-3.891315141262801092e-01
-8.100736639758293958e-03
5.893207100811839738e-02
-3.083070406891162962e-01
-7.848409488745891616e-02
-8.369062039669687703e-02
1.640890943665080509e-02
1.147706438372706750e-01
-2.055709116097501066e-01
-3.280281404825711178e-01
1.960073528546661392e-01
-2.287418941249659832e-01
-1.051596126384625324e-01
1.121100551535573753e-01
-8.788639692643519796e-02
-4.469346156459851893e-01
7.776152112267302810e-03
-5.564174541515346517e-01
-2.500897518386746565e-01
-1.213025086039648814e-01
1.001862927750799687e-01
4.171334854901636441e-02
-3.362432362031200772e-01
-3.198988025907047450e-01
5.846780442950546414e-02
-4.960272265091877908e-01
-7.687315803875029163e-02
4.263619938627284667e-02
-2.212072957813063234e-01
4.417190039081746872e-02
-1.629254011887033282e-01
-1.681283216158209193e-01
5.319772085236351006e-02
-1.421633485411882836e-01
-4.352429744509231369e-01
-3.332029496413623781e-01
-6.129620817442945485e-02
-2.125520359762539946e-01
-1.838669396245315446e-01
-4.198556941690328448e-01
6.085802428301694683e-02
-3.446878348701611083e-02
1.947421020011745330e-01
-1.575134073836557957e-02
2.231366990313151111e-01
-5.410707916637282899e-01
-3.604266662265347976e-01
-1.044632237766875311e-02
-2.242389875415792266e-01
2.438286653398121992e-02
1.578449235883948587e-01
1.138175459710240728e-01
-9.339096795842202758e-02
-9.220288433363202363e-02
1.491824486429126351e-01
-5.153644593702525478e-01
1.270234342449201026e-01
3.721302673447500209e-01
-1.102299241150855647e+00
4.356058074533877139e-02
-6.209918829851058392e-02
2.775302219011939742e-01
-3.848600096389564462e-01
-1.897273507779902862e-02
