2.331387810632509078e-02 -2.185320047969065704e-01 3.348309250079034016e-01
-6.970381550667259507e-01 -1.113287716678228179e-01 9.436388741338831432e-01
-1.836859462800725928e-01 1.163682493388258216e-01 7.202588532873374638e-02
2.667666547623675499e-01 -5.880908658513047671e-01 2.228751774742197822e-01
3.613890216796850074e-01 -2.458297545361874392e-01 -2.606159327385239033e-01
-5.452015759352399904e-01 2.589389411601080715e-01 1.199980349179069761e-01
3.270228535729896024e-01 1.119597341182150402e-01 -6.274214060997153064e-01
3.627558979028823738e-01 -5.533035572100111210e-01 2.061480317518982475e-01
-2.622721078521887510e-03 3.446797946955832970e-01 -2.235369574047662289e-01
-1.775077673882064500e-01 2.554003212311478088e-01 -1.024372873727847494e-01
1.788748665599172449e-01 4.419793427787560014e-01 -4.996095300013778107e-01
1.119060180561434331e-01 1.410294405890561986e-01 -2.582790568809351095e-01
-1.074833870986475620e-01 -1.259711555970031149e-01 2.477956493904831803e-01
-1.344870927724344245e-01 -2.874690424299826130e-01 3.793558581684243203e-01
7.235995130282256438e-02 4.787127838411480152e-01 -5.997607724529079309e-01
-4.629579108081970373e-01 7.484669119491774159e-02 3.457125208834860852e-01
-3.778780018807089552e-02 2.221898008202247976e-01 -1.187466503582664396e-01
1.329529383767396600e-01 4.833361933996749293e-02 -1.248712640792829232e-01
-1.587406946670116836e-01 -1.694423145376736661e-01 3.782988192438467845e-01
1.256140672156405916e-02 -1.363642490636905180e-01 2.830115272268522997e-01
-5.124902448163183299e-01 2.313148624727020541e-01 7.045978175552632117e-02
-2.401347839010182020e-02 -5.422932386228940249e-01 5.451662128680953012e-01
2.950949714930021228e-01 1.472955456115374318e-01 -5.103977401364483413e-01
1.193907538732730811e-01 -5.244846101195626414e-02 -3.360896559242224774e-02
6.985527313517249093e-01 -7.745582639722630169e-01 1.549923949160871839e-01
-4.345014483899241053e-01 9.076131259729618150e-02 2.395204647140282694e-01
-2.395483195398796870e-03 9.814304222126470079e-02 2.959947834429522279e-02
-1.023512131220327970e-01 -9.446091650614972524e-02 1.055417236544579779e-01
-1.094597355390187349e-01 -1.075917767779727696e-01 3.387689185009098991e-01
1.982912831241631091e-01 -3.327107540787355711e-01 6.339012516816797116e-02
7.742798935246406056e-02 1.640765180572880122e-01 -2.596073971061324537e-01
-5.928033583727077005e-01 2.014976883451399196e-03 3.772361241111196195e-01
4.444621490326335911e-01 -4.507034494699229121e-01 1.140113774160143451e-01
2.783628474271128694e-01 -2.247747578094971277e-01 -7.882278462357919513e-02
-4.919173053344343960e-01 3.109528411685436589e-01 2.553385885275510914e-01
2.731666379888161855e-01 -6.982581452950484824e-01 5.013429015602116623e-01
4.512832828306828081e-01 -1.481887849244828692e-01 -1.194219329492551274e-01
8.725615254228822823e-03 -4.352786031475713857e-01 4.642067368740959155e-01
3.793449944148668540e-01 -8.427791092259171446e-01 4.635344635194083018e-01
4.836322114384408732e-02 9.638784454249885170e-02 -2.004765329121810102e-01
2.571526006316297575e-01 -5.647956021951018313e-01 3.662912722483907535e-01
-9.210266050054691789e-01 3.767004994845513099e-01 4.358316949788054728e-01
3.217689741026040218e-01 2.458860220893770501e-02 -2.945505884198389990e-01
-1.675373172787349152e-01 1.617446709902654045e-01 -1.755505163655953285e-02
4.657454238385760337e-01 -8.054002747524429129e-01 3.966194042006367937e-01
-4.152777700406855010e-01 1.931582289129579744e-01 1.463864946900982345e-01
-2.500357948299678501e-01 -8.274773819064905334e-02 1.702363949127730647e-01
-4.881695211373465737e-02 -2.769502559582621704e-01 1.214873022032113004e-01
4.558435005094298442e-01 -6.512988158549687379e-01 1.703748228627254280e-01
3.189986824281641487e-01 -1.100338907327631371e-01 -2.175204359982159663e-01
1.889527078260750947e-01 8.884407085970866258e-02 -2.570893763415784128e-01
2.093782420594915428e-01 1.636101097367483326e-01 -4.278010727521192602e-01
-2.919232053967811824e-01 -1.905142703869680265e-01 5.608340356131944482e-01
1.772538068910537168e-01 -3.888755973182453363e-01 2.067553128173544308e-01
-2.017239614937925141e-01 5.102545045276969671e-02 2.581170504233686325e-01
-7.867458734844207102e-02 -2.179374940609201949e-01 2.295861710929797128e-01
2.942730632817855060e-02 -5.616340232883262201e-02 1.918730683822683081e-01
-7.760878455873498893e-02 2.278738508539735474e-01 -2.244450787836618777e-01
1.129890053067715006e-01 -2.562786983961058418e-01 1.240607816057706231e-01
3.553836488280364692e-01 -5.693998420711779973e-01 2.812944053186320903e-01
4.439415664855196342e-01 -7.049198029273293087e-02 -4.571836879066250581e-01
4.004212884059257793e-01 -2.037161133992620998e-01 -2.411378880728551055e-01
-1.015032332233967022e-01 -4.602525478483441290e-01 5.310355773837535098e-01
1.271153759860091104e-01 1.952707159929485126e-01 -2.071812687312839241e-01
-1.538712059618118355e-01 2.348748537980274165e-01 -9.623309793870829520e-02
7.915466666144764518e-02 3.908593559376730697e-01 -4.239364550378655894e-01
-2.765258998877039853e-01 -7.967682800556159795e-02 5.000397388330998227e-01
3.031529129199307948e-01 1.645835509190017934e-02 -4.343613287173745952e-01
3.251244398981127381e-01 -7.068947675235632833e-01 3.803759611987363454e-01
-4.535871196555830154e-01 3.302366891953867345e-01 2.850835157399264075e-01
3.498303793476406076e-01 9.187600803456924536e-02 -4.139227972923389398e-01
-5.195392645949693522e-01 -1.481574512242138097e-01 7.446512416267144774e-01
1.320929396621441931e-01 7.301148163885541609e-02 -1.964048505163450142e-02
-1.445294264960792774e-01 4.787891616218690333e-02 -2.153181403715658665e-02
-2.363547315200930504e-02 3.258087647977284673e-01 -3.328984932698834664e-01
2.172177704316122504e-01 3.840144379298946475e-01 -5.237355772147618271e-01
1.466387885089342480e-01 -4.059195253385898261e-01 2.552120328227677204e-01
3.331005500682303611e-01 -4.612593456361101518e-01 8.233197522835197790e-02
2.598385398159492876e-01 -4.578168267478713999e-02 -3.155854819476539563e-01
4.556800474862181538e-01 1.087126185429705544e-01 -5.373781758935046726e-01
1.156725065934853386e-01 1.138781951572576528e-01 -3.115535360254365616e-01
2.344412497945991269e-01 -3.075355119732491871e-01 7.038015618478683788e-02
1.611807459719355740e-01 4.632641886408396803e-01 -6.662105179385628961e-01
-1.746807734866394068e-01 2.762206328296817892e-01 -1.224195021103336167e-01
7.472014700567257417e-02 2.527864515306459392e-01 -1.841221981002850172e-01
2.745223671538534194e-01 -3.721990158679894245e-01 1.929401875853293813e-01
1.813341872427648160e-01 -9.381405064803895189e-02 -7.212664687173807321e-02
-3.581080721941508616e-01 1.821691013761804756e-01 6.151946464560386837e-03
-3.574922560714586250e-01 2.188790368579952572e-01 1.832032668277108756e-01
3.367834839111416567e-01 -5.830791361355803781e-01 3.180967988228204923e-01
-9.666813804829776924e-01 5.481784275613167390e-01 4.470244087348541062e-01
-3.740356372838467558e-01 7.215691562506368339e-02 4.010093329275605800e-01
2.710700988444351700e-01 1.019910683646707422e-01 -2.530017364459108409e-01
3.252398756407907099e-01 -9.894733565713489942e-02 -2.434113455371101908e-01
1.633083568430643839e-01 -2.218873570319080668e-01 1.832705588004762132e-01
-1.343008479575477990e-02 1.901886408347128743e-01 -7.592224557617620329e-02
3.836369121528802051e-01 -6.197122315912504398e-01 4.397239853206000859e-01
3.291858412247076204e-01 -5.680888395446563877e-01 2.348623519103839874e-01
8.584224224071684839e-02 1.087647938393396935e-01 -2.470819354993469275e-01
-3.664195151001611861e-01 2.406600561351612266e-01 2.597771752629485786e-01
6.729078363126048123e-02 8.063251351845378279e-02 1.262490311186792169e-01
1.455642054530577323e-01 -2.699264105165522509e-01 -2.825486769651144175e-02
-2.601525691244112592e-01 -3.769018801372363281e-02 2.934291697922088993e-01
2.279842840267677362e-01 7.599168707827061442e-02 -2.571086800706043340e-01
1.368866242531439348e-01 2.256047217510217529e-01 -4.398313437040260454e-01
-6.012109605116889854e-01 2.941257815697754241e-01 2.388055180253371712e-01
-7.330942506328292918e-01 2.227283143204507876e-01 5.778090652605254451e-01
-4.969720153322521039e-01 1.238575860724836775e-01 3.847299232146416670e-01
-7.023935656438764705e-03 3.675608508840482180e-01 -4.047529521495747407e-01
-1.404180095999130184e-01 2.583019163922523620e-01 -8.977619857253639479e-02
1.853284950625334604e-01 -3.897050890069748696e-01 3.020884133096551349e-01
-3.770970165556976617e-01 9.444487762540862419e-02 2.687631172373578514e-01
-5.768519040878271609e-01 3.654889427537778568e-01 2.570501780330541330e-01
3.469148862269714195e-01 6.940012759273708753e-02 -4.060729632844076176e-01
-3.602495998681867762e-01 9.281122493039536958e-02 1.703021855364450776e-01
2.456050928336328543e-01 -4.530570088367131265e-01 1.655653817571026420e-01
3.078695470356586639e-01 -3.739198991015098561e-01 2.851262302632696088e-01
-6.838290611800958985e-01 2.433235859722042704e-01 3.704497384632294277e-01
3.664307610370258206e-01 -2.949188918409055837e-01 -1.545911389787020807e-01
3.919749234175664010e-01 -5.584849623956411602e-01 1.021964303652510009e-01
2.951808384921491557e-01 9.610733625343910458e-02 -3.484601480459511569e-01
-6.298845699171889967e-01 4.396930934489352572e-01 2.567903679423070296e-01
5.635689927180944636e-01 -3.010580784494546469e-01 -3.884644898291358950e-01
-5.113997459374642895e-01 1.689581746188386357e-01 2.681474064813950120e-01
-2.700627000577550674e-01 3.300534644015327701e-01 2.024730230603724937e-02
2.102559707562775271e-01 1.952084656312367550e-01 -3.028879696224063833e-01
-3.368298309202324287e-02 8.675539277480044664e-02 -1.425395511174439023e-01
5.278194188868375880e-01 -2.404184078514598477e-01 -2.331759261704475783e-01
