-9.364253600049582404e-01 -7.249041101697215050e-02 -7.790247299382174750e-02 -3.673883697041301355e-01 -9.589967605967298497e-04 1.156041297280654412e-01 1.465836276191722909e-01 -7.341722367769942803e-01 4.813580028486297291e-02 -3.212103392800687018e-01 6.237641138973093469e-01 7.448914255674143892e-02 -3.690781786655805141e-01 7.574672668546217347e-02 6.939638314338168745e-02 1.433215546896134396e-01 4.746807561854269886e-01 2.702618912858603673e-01 -1.571535514325862401e-02 3.765155120787715415e-01 -6.017083554118414224e-01 5.869287831837820962e-02 1.562662909540535050e-01 -6.720253393383092411e-02 3.186343978549013856e-02 1.410694857729542957e-02 -1.843828306056373156e-01 -6.441634852682571744e-01 6.055736373794146088e-01 8.904596233078734269e-01 -1.901392780238533170e-02 3.084318640181966664e-01 5.680210473641420510e-01 3.830731828358188013e-02 -3.841506062924288090e-01 4.668069468136817890e-01 -4.030076219411063421e-01 2.263737917806275257e-01 1.949794605814825221e-01 2.799234224267149185e-01 2.585469680370768852e-01 -3.687959659599171491e-01 7.535633356811056727e-01 1.717651867037142122e-01 -7.121406149269451924e-02 -2.343679198096342287e-01 3.711375996928444332e-01 -6.580777976059798418e-01 1.347713111861569557e-01 1.089256776502847829e-01 -4.159031599709689386e-02 3.201620413644914453e-01 3.707710737268733459e-01 -4.216395977848023668e-01 -1.759727447125991606e-01 5.185433600446220925e-01 3.526046738027280303e-01 4.366317821277828498e-02 1.933212406149830975e-01 -3.405447469059744714e-01 4.163342018724000559e-01 -1.989500256960926861e-01 2.194148400456847614e-01 -9.330086237883979117e-02 5.946623231659031728e-01 1.105904867736390851e-01 2.250029450400516662e-01 -3.347583352274685446e-03 -1.222066816464281169e-01 2.808071756479155190e-01 5.613922974486238449e-01 1.964869150003839826e-01 -1.882842560336331350e-01 -2.677852169530018922e-01 -1.042807026356297635e-02 -7.811547904284284194e-02 3.871460123143100930e-03 3.240067517797795005e-01 6.180620819386867248e-01 3.417923801217751523e-01 -3.336185129600684474e-01 -1.422751935814763780e+00 -5.283192697195671084e-01 5.469953031487535533e-01 -5.459479024734237296e-01 1.870746324986052589e-01 -3.325318549425070880e-01 2.185622097850249967e-01 -1.827511727346683712e-01 -7.702844061489531879e-02 4.495973185866845023e-01 1.480399608481247631e-01 2.979550212939379578e-02 -7.925412657618328971e-02 -4.414166340366437180e-01 -2.181450863063310042e-01 -2.699849092614967083e-01 7.561979174109607904e-02 -2.731095836981797809e-02 -6.195359678905437012e-02 2.894880941891591064e-01 8.561447183113303494e-02 1.288557895765768957e-01 -5.145778955745912153e-01 2.255344235764938643e-01 -8.127904852759127233e-03 8.405786496412884223e-02 -9.519233852617672853e-02 -2.839970392633276441e-01 -8.744336569943300663e-02 -2.852058031473090893e-01 7.519913898387994844e-02 -2.296197511375841493e-01 5.140577401748880337e-01 -1.593480601866842927e-01 -6.569602876411237968e-01 -1.590612045451482437e-01 8.965649957960054178e-03 -3.992105990660322345e-01 -3.346836711868705905e-01 -3.968219222550782854e-01 7.895563789595053117e-02 7.676143109185092905e-01 1.541512023081954286e-01 1.462775433129150926e-01 2.052061801952405895e-01 7.667045223360537468e-03 -7.985363558437862108e-02
1.140428504346006289e+00 -7.742404855475638892e-02 5.212114933506671877e-01 -6.075276652838631497e-01 2.984353663942296286e+00 -2.734052337289906709e-01 5.933693666848553067e-02 -4.647801757269261202e-02 -1.538107516386766627e-01 -5.783254443608490947e-01 -4.391515608391334813e-01 -1.271020092736587781e-01 -6.769455675391047311e-01 -1.515054088437767787e-01 -3.304586855005005597e-01 3.249725502048271819e-01 8.749548481046287227e-03 -6.635375703712591278e-02 3.802849217934284320e-02 5.678036848911474088e-01 -5.515840381939970394e-01 -9.045199036574809448e-02 -2.454044200759848693e-01 -4.879676836357651482e-01 -9.799629177321550477e-02 -1.066582208780986474e-01 8.129893213204737457e-01 -1.735725091494778327e-01 -6.533303095560538676e-01 -3.923443873028844009e-01 -3.813488901564304201e-01 2.963673903383651775e-01 -3.729759068170398484e-01 -8.050299541367917922e-01 -1.364450131167462832e-01 -2.380050433911098939e-01 3.056762010474488589e-01 6.367552855094967823e-01 -1.587394947135628287e-01 -2.269915426484733767e-01 -4.436247207423918981e-01 -4.150660807110626571e-01 -4.444801536696901256e-01 5.667284010748845358e-01 1.502434796767089520e-01 -1.917217432253807974e-01 -4.446794993453466738e-01 -3.296877739809186969e-01 2.269674243102438871e-01 -3.416232897255037093e-01 -2.324459875035655154e-01 5.431512291342502907e-01 1.127428284206629661e-01 4.582212143797680104e-02 1.143517885038598109e-01 -4.605880521701412045e-01 2.530561131646184569e-01 -2.953451136848414538e-01 9.407493726511492738e-02 -6.163331429235471837e-02 -1.191621842085434091e+00 4.789893211578740706e-01 -3.824989080728024432e-02 -1.008107475305897172e-01 -7.373075210517264499e-02 -2.012884498144167644e-01 -5.987817240721814149e-02 1.977284929400372482e-01 3.703216739483271985e-02 9.542153559187843692e-02 -2.227461799759934691e-01 -3.339045016501853702e-01 -1.056198758376465097e-01 3.559939615910519273e-02 1.050630165608992111e-01 -1.655079716743614593e-01 -5.543243199212595229e-01 -6.089668018541567474e-01 1.757947240289138291e-01 1.689477379671428192e+00 8.671431801160070507e-02 -2.500941069028692065e-01 -9.807256321354657080e-02 5.254258683466206392e-01 -4.854169509322281972e-01 1.309238224850363674e-01 -6.718815036978278976e-02 5.487981924235477704e-01 -5.955290959564363273e-02 3.645849252599003137e-02 -1.846196636531494573e+00 -3.629903302824747380e-01 -2.635980605935643872e-01 -4.804829584836303735e-02 -4.512248382584693185e-01 5.669757949514142581e-01 -3.262348515646324443e-01 -9.043311412170523811e-02 3.606473865071065377e-01 -1.657356407309473312e+00 6.625967010752122077e-02 -1.841556452381055975e-01 -7.945187568013446500e-01 5.526408565046245780e-01 -3.280391398477471299e-01 4.449195701340771247e-01 1.568742877615990627e-01 -2.082691223871684927e-01 -4.073014076207142065e-01 4.110257407142576813e-01 7.166321934463679710e-01 -6.097699246157857189e-01 -6.913367158973674487e-01 -1.525380231960098976e-01 -8.145941323656033517e-02 2.230937152702589313e-02 -4.104932238851105031e-01 -1.595318438663771710e-01 -4.901904260213217623e-02 -9.357202342113764004e-01 -5.097641571280819850e-01 -5.890208499986843149e-01 2.589852296078537730e+00 -1.069817810218987447e-01 -1.673071235993849049e-01 9.118569921731552175e-04 -3.275455932201193354e-01 5.588193657858226970e-01
1.235770178429408395e-01 2.373842930211940427e-01 -2.786006432242476016e-01 -2.037277640139906476e-01 3.576482709591426445e-01 -6.291000923298962766e-01 -2.451010219696176939e-01 -2.566254344505439766e-01 -8.283402672570419623e-02 -2.387795857354831630e-01 4.881154442569640706e-01 6.569905140703123925e-01 2.255915160050675494e-01 -2.835165567241267892e-01 1.230721315955458500e-01 3.114884686969965344e-01 2.724865052929492104e-01 4.463043811280572593e-01 -5.074854937455598736e-02 2.590154647583087222e-01 3.324832260119479632e-01 -2.725985708702038934e-01 1.278870423633469144e-01 9.224588617684485736e-02 2.965927817279526146e-01 -1.774847744670002836e-01 2.306488875202921951e-01 -1.553277086229009896e-01 -2.074523473370586679e-01 2.401832996119449837e-01 6.493808502212470302e-01 -2.517079523312399369e-01 5.442455189992996267e-01 1.059471006459106635e+00 5.105896624117797211e-01 5.306750604096400759e-01 -7.427780178736064221e-01 3.569185018296640588e-01 2.803589552132499385e-01 3.968270277646224753e-01 -2.151106583998365351e-01 2.599730712431124260e-02 -1.030378366744145180e-01 3.998275384434940016e-01 -4.267028421843637592e-02 4.074602082406525994e-01 2.461755278423369275e-02 -3.069163427344125394e-01 -2.517986426134553035e-01 1.719116048975955768e-01 2.814097993700955813e-01 9.956352022791388201e-01 -5.571869775517369616e-01 2.460206380812112181e-01 -3.637930343186930870e-01 1.563958136234877005e-01 4.753179767588295856e-01 3.251748163879985554e-01 -1.394846112072840871e-01 4.378528028784439696e-01 2.794658948538679133e-01 -2.286692287452318784e-01 2.637626934064787876e-03 1.675640402615429236e-01 9.428868296576397023e-01 -4.511915719181983780e-02 -3.210094992117672463e-01 1.044321130500563133e-01 -7.272776541317574894e-01 -2.817100763462285773e-01 -1.402835637845113899e-02 -1.797596063327762117e-01 -1.040061048480282802e+00 4.680796706273810392e-01 -2.280609405214392149e-01 4.785090093394708255e-01 7.772519512876757686e-01 1.858408106610629773e-01 -2.852022871124292314e-01 1.313416941324646592e-01 2.756442819678945333e-01 4.956117949122804123e-01 -1.460974394882489924e-01 2.988059859646307603e-01 -6.843426076103106270e-01 8.473517612672298166e-03 -5.774753654468371966e-01 6.294983818178186974e-01 5.477397074105767177e-02 -3.453415901946532141e-01 5.059787274306695171e-01 4.684644857201881174e-01 -8.485514520489967349e-02 -1.716532825079619962e-01 -4.900534752732723653e-01 -3.238798091528843903e-01 -2.452172693065692369e-02 1.717745799120724559e-01 -1.073981846900807335e+00 -2.236256783282095928e-01 -2.011726519943110303e-01 -2.999976465635115219e-01 -3.487320060810139566e-01 -5.436586007412864685e-01 7.775421482215773006e-01 -3.880525217809348004e-01 -3.074807616165562418e-01 1.067228028453349881e-01 -1.313957980244427615e-01 -9.903035474378699687e-01 -4.375342992100954564e-01 8.748768905335945201e-01 -3.366558105741991602e-02 -3.853284170412132337e-01 -2.247265774511698899e-01 2.205640785719252817e-01 4.999625172386334970e-01 4.008522372554033653e-01 -5.926208168896427431e-01 -4.664663179112406993e-02 -2.376423571996636730e-01 -4.777374791905644041e-02 5.645371436223889372e-01 -1.821314512271197672e-01 -1.618208155089606581e-01 -7.616889504221205538e-03 5.491645189209228839e-01 1.099197012498660392e-01
1.539468174322648375e+00 1.809760108273391344e-01 4.099454843023015993e-01 -5.389046941970098148e-01 8.247664039778828116e-01 1.258347799470675432e-01 -2.088894375592444674e-01 3.610708080385208740e-01 3.538305535575020921e-01 -2.196494211295971222e-01 7.432639247966361939e-02 -2.525073762063788085e-01 -7.343433585992195090e-01 6.286822252929671201e-03 -1.452793023377677573e-01 1.916702475101811354e-01 -2.150402616818450092e-03 -5.147498769565003046e-02 2.206613800038459139e-01 4.910078705042172365e-01 -1.023260599884594724e+00 1.320462775606856369e-02 -5.942612303569296678e-02 4.238154779681569395e-01 5.543387427681546464e-01 3.797004717409298569e-01 5.567128061569359687e-01 -9.467126264069836150e-01 -7.887769510694876696e-02 5.697016157822016869e-01 -7.273491176281585702e-01 5.645364102128693773e-01 -6.961395504264954182e-02 -8.725666747457648809e-01 -1.441695356068882772e-01 -1.474933515591862476e-01 -3.197498531097602847e-01 -4.852730940228183187e-01 -6.875661277357716372e-01 5.258632275047447902e-02 1.385528985613083131e-01 4.518634103143100988e-01 1.379479149941039984e-01 1.919996129314320843e-01 2.132266412718830106e-01 -3.736881054256054324e-01 -7.042320849499272839e-01 -8.649657525191906116e-02 9.787878591790079019e-01 -1.487956131631994194e-01 6.496093607718814167e-02 4.532127200384967192e-01 -4.507996906212352051e-01 -6.062762682472064846e-01 6.237984624366924580e-01 -1.531493005076741132e-01 -2.852249426822734413e-01 6.672139536295469409e-01 -6.516528228431610337e-02 7.811619174874025184e-02 -3.681350917633151587e-01 2.149946090840582913e-01 -1.919436622094941591e-01 -9.337775765692621355e-02 -1.409348712839973705e-01 -8.008428930336516927e-02 -5.382078730704531466e-02 -5.453497245515219749e-01 1.382206978290327348e-01 -2.111454763207600560e-01 -3.217245208712641857e-01 -2.067662176604977836e-02 5.841105885501616246e-01 -2.539293877958600509e-01 -1.807364223051169949e-01 7.914676134505234106e-01 -6.522944569368674950e-01 2.634799562660417593e-01 -1.240864269648801338e-01 6.181102332278787248e-01 2.019328321118816494e-01 5.829419587921305101e-01 -4.597862424878608467e-02 -3.229421954754436164e-01 -2.662029717841156162e-01 -7.340359140035421226e-02 -3.531210285676215643e-01 2.545722324724820629e-01 -6.733665503822129639e-02 1.350748811825611462e+00 -2.717483169734921100e-01 -9.017671931814607023e-01 -1.490471562450403908e-01 -5.431859873731248456e-01 3.772421835209144314e-01 -2.891349298717178495e-01 3.243946978219037214e-01 -6.101379931147967728e-01 1.162632173942209857e+00 -4.454698304094051875e-01 -3.214110085723499433e-01 -5.643514846319055422e-01 -7.318517915317200861e-01 -7.394600654527184735e-01 4.210607570674332334e-02 -2.493597898632869125e-01 -1.339241943593333928e-01 2.328561110946003876e-01 -1.246897591891232837e-01 -1.819112353723127684e-01 3.392878916568956571e-01 -6.871626314678527248e-01 -4.304899041857691011e-01 -2.971409851351246023e-01 3.973911011707451091e-02 -3.320722656226773872e-01 -7.722788305335652748e-01 -1.610046123738733126e-01 -1.517686878841471576e-01 -9.131902504491362649e-01 -1.645177646371305535e-01 -7.484019773756493514e-03 3.835565978177545854e-01 4.339932327302915838e-02 1.080253274939649705e-01 3.071786783061584286e-02 -4.746953624682679895e-01 2.803553432321052585e-01
-1.416939300561426807e+00 -5.250862733517411840e-01 5.107049614197541887e-01 2.511098468403110129e-01 -2.255863456543195866e+00 1.019327647501806627e-01 1.020394808255484509e-01 3.126156506486194031e-01 -2.512976556470365996e-01 5.336345728401000743e-01 -9.870195542551478407e-02 1.606848341314490447e-01 6.315426483403693836e-02 -6.913908907581754748e-02 1.397803009364036175e-01 -7.934405922468912298e-01 5.993539170485052692e-01 3.332831562090127764e-01 -3.207475613592081221e-01 3.298796693039706129e-01 2.483576918185277996e-02 -3.268508837718754612e-02 -1.523095571872479237e-01 -3.976915544383023415e-01 -9.701269862738023941e-02 -3.899853917411834070e-01 -3.688978991244930006e-01 3.699145473485376256e-01 2.979262114252316240e-01 4.605861829319220502e-01 4.030534475427384744e-01 1.183909491687872989e-01 2.750495067211807809e-01 6.770558200050101894e-01 2.552408177497307862e-01 4.087331004299448733e-01 6.710048582154123920e-02 -5.017256371114894309e-01 6.606969116768827144e-01 -1.511387372232403103e-01 -4.618788707733901405e-02 4.506612783467434658e-01 3.768315013789313994e-01 1.043124070222188338e-01 -4.866912615718709256e-01 2.598421517256621627e-01 2.332367890461601034e-01 -4.720736429461715455e-01 -2.483378253742285213e-01 -9.902380333207562446e-02 -8.585113974322655444e-04 -3.731567190550626467e-01 1.542025278001778188e-01 -4.860724786155734556e-02 -1.280082344987310342e-02 2.546496087681379694e-01 -4.739248545449193939e-01 2.344826825203360776e-01 8.595629751792895068e-02 -5.870242995510481787e-01 6.876954849744336684e-01 4.136873738130131817e-01 -1.459637112993186214e-01 9.255269121942887312e-01 7.406538073610083872e-01 4.738144933988796548e-01 -6.421263361727140573e-02 2.340874451873171669e-01 1.877216124546371712e-01 3.386922259432281201e-01 1.467785069822407917e-01 2.777185942055286350e-01 -1.179296506463221178e-01 8.032315349429555162e-01 1.108673533517596371e-01 -1.612524926396332603e-01 5.459810306681176506e-01 5.327749232071987695e-01 2.784414515152421332e-01 -1.164129867337086566e+00 -6.117811632681725842e-02 -2.460741026669180653e-01 6.838617139591545158e-01 -4.409692612436378334e-01 -5.525888014497705170e-01 1.200942202519443142e-01 -1.098323410533909916e+00 3.926636392084810745e-01 3.907449647650445557e-01 2.453572159815827630e-02 1.549916041361980135e+00 6.826546884170864304e-01 -3.947371635758392672e-01 1.006049310576946076e-01 -2.123656731094258551e-02 3.156006288531496007e-01 4.524321671494655472e-01 3.802794437911461989e-01 -1.557178099188047393e-01 1.368615966717426913e+00 1.168925808482335765e-01 -7.273168639338936647e-02 8.160100956250293525e-01 -2.321635508079790966e-01 1.837183025463319241e-01 -3.818163633945412805e-01 1.815308295095322821e-01 -2.112693433645378149e-01 3.932635670585549192e-01 -5.848223607272021729e-01 -4.186091479607976784e-01 5.559076543094612077e-01 2.715114746753383157e-01 1.044257134631149109e-01 -1.242505766923311800e-01 -2.570225152958091619e-02 4.786809691335168759e-01 4.785654470680201777e-01 -3.062346152575496916e-01 -3.094994963679452704e-01 4.194131370422582994e-01 5.301093372758104438e-01 -2.043460035769158356e+00 1.365928780106657851e-02 -1.820945109557103869e-01 -4.097242728084790619e-02 8.246360203128078048e-01 1.409958361989235576e-01
