-7.899452155940749065e-02 -6.227174601221738270e-02 7.781705242439887482e-02 5.667741358483324721e-02 -1.065196047518990746e-01 -6.120399620157191550e-03 5.162316401590457543e-02 8.779951441125215250e-02 -1.944900032383688887e-02 1.114977793778755000e-01 7.997398405420695633e-02 9.125443174831641968e-02 -4.872695696110673769e-02 1.119157192271504064e-01 9.156835139843276516e-02 2.268698594753606676e-02 1.021493282376013667e-01 -8.702805598279274302e-02 -2.343061168904084571e-02 4.771326759798616424e-02 -6.159213142666688547e-03 1.721206322355333523e-02 2.332331541965899924e-02 7.392690229022248760e-02 -5.800057654322581663e-02 1.087856520565966545e-01 -2.654316014161599638e-02 -1.022011298769157500e-01 8.494408087462762547e-02 -7.212465191346847937e-02 7.483238416199522458e-02 -4.851417653058935284e-03 8.145368687175741362e-02 -2.020265819777269933e-02 -2.952989221310252377e-02 3.829288781263646274e-02 -4.365324351345923476e-02 1.384563678343094136e-02 -6.716849418093017235e-03 -3.664466929853001792e-02 3.760399364377010195e-02 2.482108096643128106e-02 1.819547377582384330e-03 -1.163451913171526832e-02 1.381135161988277793e-01 5.191319932399738463e-02 -5.109167654843537604e-02 6.068834069214532750e-02 -4.935648546456700841e-02 7.913275132815461577e-02 4.683418179110854229e-02 -1.003753438136300302e-01 -6.129843899608162366e-02 8.765333386856234699e-02 -3.463819785509329729e-02 4.148364936301968814e-02 1.390860091883100447e-02 -1.474769620786969999e-02 7.312905813107568875e-02 -6.907190758274833232e-03 -5.455952278071905803e-02 7.229296595945663984e-02 9.616697240421073767e-02 2.101444136728250825e-02 4.589902390702944174e-02 -9.491047953618738514e-03 -4.537646581661840262e-02 6.769276807081245351e-02 6.777632708964813346e-02 -2.207967499594360589e-02 6.282065674137635169e-02 1.322075377728993417e-01 8.458569729195994369e-02 7.079398339020327724e-02 -1.884602003529554579e-02 1.912386671900069557e-02 -6.921451099068154367e-02 4.388972876129328127e-02 2.294644379792767225e-02 6.107803351961878929e-02 -6.825266243385155751e-02 5.149921207890587049e-02 -2.775220929222093139e-02 -5.848242086381395116e-02 -7.883223973009843843e-02 -7.654378030748197614e-02 -2.781522983914684263e-02 1.175516056471251208e-01 -3.627054774791345360e-02 7.460743305563573291e-02 -5.001008386769678626e-02 -3.566930142087278849e-02 -6.851213666663831525e-02 4.074082437648392924e-02 -8.199648142069013157e-02 -5.635716876980298440e-02 -3.795925601094147367e-02 -4.186454267855917871e-02 2.947942763260301760e-02 -2.607690556598635939e-02 -4.240321992642769044e-02 4.282501359555811529e-03 7.631183277275255250e-02 5.369226989324073218e-02 -1.614805942666470637e-02 -1.015100864182439527e-01 -1.879988365413432783e-01 3.168220480701576525e-02 5.018399712211692870e-02 7.870090746356445122e-02 -1.224202681897494926e-01 2.079184725456905206e-02 1.474191746059268227e-01 -1.336978280163057852e-03 4.658718930943071823e-02 -6.292183670931837669e-03 -9.409090114454378428e-03 -7.701966663185981802e-04 4.831737798666935896e-02 6.287692194046617944e-02 5.985009210498090648e-02 -3.487431620721996584e-02 -5.288409107628616601e-02 -8.797929538285717554e-03 -6.071881653335704787e-02 -2.290558822686247081e-02 -7.383628579690762993e-03 -4.405784268334769771e-02
3.631983379268304002e-02 2.107224767877766969e-01 -4.967478966574405581e-03 8.838117059063538283e-02 -1.249252249843052914e-01 7.529750720495149985e-02 -2.087735121880444078e-01 1.190139507515573791e-01 -8.971655014272120199e-02 -8.818024821547115755e-02 3.107511264926122313e-02 -7.518146772160287650e-02 3.309381145292733485e-04 5.144145751124255123e-02 -6.688735070100999824e-02 7.560864909282662139e-02 7.755505477763099953e-02 2.912368705590555329e-02 5.157113058376146947e-02 2.176314048061150225e-02 -7.115105467151053298e-02 -5.016229853304103592e-02 1.456337460449874666e-01 -6.297675007141478876e-02 2.243241663509746436e-02 -3.302914435408549343e-02 6.644130484115466639e-02 1.824717354573606592e-02 9.986424082886367903e-02 1.175267798543318809e-01 -7.934697070610052805e-02 1.482680170653180307e-01 6.769190902766049345e-02 -3.572075948536768825e-02 8.936493704732412224e-02 6.863056586972483830e-02 -1.773704689595140965e-02 -4.593776423449378449e-02 1.448627498851341455e-01 -3.892514742800142619e-02 6.159948354513689744e-02 4.287140246166742420e-03 4.702212114249637587e-02 -5.824815546869314270e-03 5.102854160025433600e-02 -1.419688760565133712e-01 -2.838015631904367703e-02 -7.924250996591272744e-02 -1.798045862206706577e-02 -7.884244082784221119e-02 -1.972408747909500798e-02 -2.495860304162029683e-02 2.805331222862506718e-02 -3.447860640590022507e-02 -7.308201058681848723e-03 -4.025537605445533157e-02 -3.769784644240545962e-02 3.362503485723943725e-02 1.009377515319390822e-01 -2.018297944309760047e-02 -1.654525607884210214e-01 -8.514460401272123946e-02 -7.099104073725784336e-02 1.062909927307841007e-01 5.008958767830877859e-03 1.121970886193014499e-03 1.458952824786465541e-01 -5.629363539338592265e-02 -2.798557406907538694e-02 7.373510655746180753e-02 6.574256701628906907e-02 1.164634537623333299e-01 -3.525461282547522751e-02 -5.426868451044189468e-02 -1.723407394243443858e-02 -9.411067145338217199e-02 1.782584719441199575e-02 -2.595393799172076785e-02 -2.169877807896664242e-03 -1.597834074826614825e-01 7.104858760956342389e-02 -7.687662147171851756e-02 -2.029434112367933807e-01 1.896026554160203798e-02 -8.823627979145642897e-02 8.701548605678754988e-02 7.501545313370627278e-03 6.602119879622880827e-02 -8.823992296964680571e-02 5.700821294404898737e-02 -1.075132914855792265e-01 6.902884148243733364e-02 8.776992104415684559e-02 1.691896499718030522e-01 7.110927490806980000e-02 1.801243735925947683e-03 2.328519184846142981e-02 9.595336097412281162e-02 -4.163327711569284745e-02 -3.365769356430155235e-02 -8.466588475015368598e-02 -6.601611791572487009e-02 1.133747417433356025e-01 -3.711776674423614142e-02 -7.573626971788172124e-02 -6.217388420172735575e-02 -1.700638992681385853e-01 -8.077184803246138800e-02 -1.118034663415194835e-01 -1.657578596998599343e-02 1.489219679856205181e-01 1.315847823854881804e-01 -3.312187481792774196e-02 -3.897143712111305475e-02 2.482536109321915180e-02 -2.172077371186352523e-02 6.143091127147073255e-02 -1.604392922171975211e-01 -1.070793236011992194e-01 4.804865274600276376e-02 1.196214101076812086e-01 -8.608522385239124330e-02 2.712126021492181419e-02 4.233376743792750113e-03 -1.612795634121398924e-01 -3.274663011914645538e-02 1.045209455980728938e-03 -7.733068318123831331e-02
8.299831850475292150e-02 1.803041391634810364e-01 -8.831013918016372699e-02 -2.095910570055650041e-02 -1.058652426337985432e-02 9.330316547703873531e-02 1.494661900175710267e-01 1.511236474891630710e-01 -4.895226549166527275e-02 1.033124665257525304e-02 -1.765289270675080568e-01 -8.488126960476841121e-02 -5.860749880707135512e-02 8.133595367369274298e-02 3.236899307463235453e-02 -1.088798475222974571e-01 -9.575569613859438722e-02 -2.729812815288284664e-02 5.071392393983541885e-02 -4.553416957691396733e-02 1.461423709596311460e-01 9.324317830303405219e-02 4.107151659616176641e-03 -4.480979757850282741e-02 -4.090766862333421877e-02 9.490386777293509379e-02 3.663531776054484296e-02 7.348572249192188155e-02 5.164758157801117855e-02 -8.880570316629096683e-02 -1.172700082153980104e-02 2.062089956277656649e-02 1.471063832507794704e-02 -1.735763628708562531e-02 6.842388725466236332e-02 9.934304545549291210e-02 -1.412265174726818617e-01 5.937379929251614813e-02 -4.608352147430671425e-02 -1.047523517718382396e-01 -1.059107757062553723e-01 1.950689902875433202e-01 -1.595647862777389292e-01 -8.435897386180023216e-02 1.043076951767410304e-01 4.450917810697734706e-02 -6.560988867366834842e-02 7.631712430967632632e-02 6.651272294934194862e-02 7.862537658402354857e-02 3.753573093634440805e-02 -7.135485742674842202e-02 4.842508500411559641e-02 -5.315361911509163678e-02 9.564897625076058951e-02 6.057758498295700428e-02 -7.509715534861026442e-02 6.330003142839462325e-03 1.088361363364837887e-02 2.654134665217149774e-02 5.045625149866369424e-02 1.411601155509868873e-02 8.140524049998916489e-02 8.219117317734281336e-02 1.085307986262325046e-02 -1.360939634700872314e-01 1.354071587389648612e-01 4.014280682811405265e-02 -1.615972816583567118e-01 8.239078591489658321e-02 -4.379450345284868068e-02 3.044982465443790698e-01 8.898627441959655604e-02 9.436268213904823801e-03 -3.759571587274364302e-02 -8.240157125939806537e-02 1.187920635462380997e-01 5.004395348885913239e-03 5.974292903994092574e-02 -1.757913347811222715e-01 -2.106323098595799803e-02 8.632179331360900765e-03 4.696791662633715420e-02 1.273624044599069860e-01 5.744278909164463043e-02 2.172233063705586355e-03 -3.637893581372980689e-02 4.667128666484237492e-02 1.374078902078382236e-01 -6.952819623480270550e-02 1.175797090823841179e-01 9.723434839035197119e-02 -2.051564770469282289e-02 8.355539657360748496e-02 1.079903545967989507e-02 -1.512653258583218641e-02 -2.811076141906923218e-02 1.214216579997713513e-01 -3.541407616724347868e-02 4.767556541339736803e-02 1.389856605328779193e-02 4.141762834345239647e-02 7.335665903582967717e-02 1.508587923513093204e-02 -1.007416372583686964e-01 7.497083058582146298e-02 -5.744277253499727176e-02 -1.101985144216815482e-01 -5.909039927268978226e-02 1.236010634372811390e-01 -9.262368094808476338e-02 -3.559550546353638240e-02 4.517123382234680684e-02 3.923636186190662678e-02 7.443163618195669171e-03 -4.698341812256445760e-02 -4.760926067797121436e-02 6.588557741339849672e-02 -4.178301677366232786e-02 -3.380975186226839457e-02 -8.653271076849469723e-02 1.861915414755554721e-01 -1.138513010489060479e-01 -1.825649193984538524e-02 7.043794473739121986e-02 2.401176255643605595e-02 -7.832540811666449665e-02 7.272982524151270882e-03
-6.275766590212822522e-03 -1.027403187475608298e-01 -6.082896790007662896e-02 7.241181760229808972e-02 8.356874924619343836e-02 1.783734896039848861e-01 1.710287414032216069e-01 -4.563324741573407395e-02 -7.313912971343076996e-02 8.888233475429806185e-02 1.426140328524745093e-01 -1.839606624044749089e-02 -3.437455971657719933e-02 1.105386166692522432e-01 1.829741702707497197e-01 -9.010726502637862734e-02 1.386272753988789241e-01 -1.176752379138225335e-01 -1.539987295614509144e-01 -9.534849125684434490e-02 1.002664292115386900e-02 1.282347297258899232e-01 -5.086165565143622308e-02 -7.172279937968206731e-02 -5.840761486148014076e-02 1.126215327681723832e-01 -1.009073790927983300e-01 -5.973157042217709656e-02 -4.831962152432399404e-02 -1.786812009819058744e-01 -7.387282068903704146e-02 4.259694388816338134e-02 6.884421504456397778e-02 1.177394694700657912e-01 -6.765079058425510321e-03 1.971642564071714177e-01 -5.289835293572616587e-02 5.504810037347087487e-02 1.361897896784990403e-01 5.963719770271407733e-02 -1.102030681836248110e-01 8.085042198810830916e-02 -9.436953890395642294e-03 1.462033305985274700e-01 1.283875139622265849e-01 -5.932368343542835515e-02 1.224558346575101292e-01 5.954355674231863460e-02 -2.196359488921962311e-01 8.421777162815646811e-02 3.582243872991610484e-02 -5.492153917392789825e-02 1.550358942118351957e-01 -5.748979091399909758e-02 -3.803173421535917254e-02 -1.501875103643057242e-02 -2.991096979549295876e-02 8.506283623812357919e-02 -8.363099888332038712e-03 1.057816211842598081e-01 1.524335134144065296e-01 7.411909976923783394e-02 2.560581194417975437e-02 -9.392707388227186649e-02 -1.011206423055137082e-01 4.266487831245891794e-03 9.249012010536657169e-02 2.922614977298899214e-02 -1.533571198209536246e-01 -8.175688341832522410e-02 1.451313769031669643e-01 7.222341561769796137e-02 -9.327549070436370882e-02 -4.454929066926635595e-02 7.858154661897158444e-02 -1.689639814919554825e-02 1.182243905393009879e-02 1.521359397574673644e-01 -5.390134072130609022e-02 1.270907563128173545e-01 -4.618516611733018695e-02 -9.677927064812658076e-02 -5.768024246116428694e-02 4.292400116335476357e-02 -7.047311951724227752e-02 -9.519136329390505413e-03 -8.365726166449928558e-02 -1.852621711707744950e-02 1.728058454181253742e-02 8.156764669321676930e-02 2.530341506374142457e-01 1.806320085671648396e-02 -2.492169990908007365e-03 -1.188234224875960587e-01 1.905377290961735590e-03 -1.348295604086017022e-02 -2.924814129270973673e-03 -1.993897661049494063e-01 -1.214842983956779254e-02 2.190301480525137443e-03 -8.928261871470222211e-02 7.441671884454197083e-02 -4.763791598689898904e-02 -7.265782923079142086e-02 1.906322878192749926e-01 1.202924480837484766e-02 3.134888442996934810e-01 1.143226509838593669e-01 -1.279878686766957596e-01 9.581335694868500785e-02 -2.494808219240617908e-01 6.946416554200850191e-02 3.602661914724167996e-02 -7.132486821569122837e-02 5.724412254994917099e-02 5.687075508702291171e-02 -1.016160596573582042e-01 2.154044202324400525e-01 1.015209447287523242e-01 -1.622867418095895742e-01 6.589936196715998062e-02 1.290993356468510822e-01 1.194831244563713951e-01 1.279101577535695367e-01 2.083261884186944357e-01 -5.437955219391605449e-02 1.350851046276353995e-01 5.935564184033768204e-02
1.257398534691603863e-02 -3.846813022703160501e-01 -1.082826907277031625e-01 -1.015489340844642624e-01 1.039914148637784280e-01 2.909000030021372668e-03 1.269026197438889170e-01 -1.048980184288598738e-01 4.355714105469124867e-04 3.292219621837957216e-02 1.327889484821247745e-01 -4.717607436192543420e-03 -5.101766313074200011e-03 -1.146598294046963229e-01 5.566202729680774092e-02 -1.197511357569807089e-01 6.740408796358655918e-02 6.874726291400048983e-02 4.871724675106174629e-02 -7.603873900594508572e-02 1.319367700467673765e-01 8.696893978323001415e-03 1.841879153558935792e-02 -6.827081435790448294e-02 2.622337595347315475e-01 -4.845166710117210229e-02 -2.400407367057414559e-02 4.393129855141464368e-02 -8.393651886961971120e-02 2.839633515672961017e-02 1.409841468989731783e-01 -2.738807744813874789e-01 9.017291118564797064e-03 7.716583877154281623e-02 -1.653584272020157050e-02 -6.369082226303897365e-02 -3.805708321737270167e-02 -1.812986137218477456e-01 1.029613059716170398e-01 2.105891744719339334e-02 1.392661351838777317e-01 -1.314608224399298371e-02 -2.903894139246525688e-02 6.915959923946075893e-02 -5.236744515257018423e-02 1.193524907863481171e-01 3.220919074711587476e-02 -1.246779864925617598e-01 -2.665838022448603351e-01 2.725734245734007591e-02 -5.033862792028254846e-02 3.072109223893013802e-02 9.515961156086567840e-02 1.041834590032215541e-01 1.092325552824992690e-01 -2.008355795071760028e-03 8.316816778037333657e-02 6.813930031094217465e-02 -1.828378649907849360e-02 -1.101385749571102100e-04 4.916353790597593337e-02 1.549079264639800502e-01 -2.390565413717557486e-01 -1.011303052532042286e-02 -1.402884606007735041e-02 5.789675099224024166e-03 -1.314941777749246629e-02 -4.090834002908569356e-02 2.990493113520472090e-01 1.730077799009922257e-01 9.366936707445826238e-02 4.468439366009004099e-02 -5.345205513500313199e-02 7.836851665758758079e-02 8.336809912073471496e-02 1.288094450220183818e-01 -2.769749744967137453e-02 1.176461930490932534e-01 -1.055541105823884843e-02 2.177459965971497713e-01 -8.817255703088440477e-02 -5.933682198164293153e-02 1.793050819433438248e-01 9.111646659372854562e-02 -1.909276511833212994e-02 3.194614168702765867e-03 -2.662662257993874543e-02 7.327909089619326355e-02 1.326465615784714128e-02 2.002632660535307307e-01 3.915761790529830727e-02 -4.203716548330905557e-03 1.719565587744889892e-02 6.220668129905123495e-02 -7.234218103267556210e-02 -5.599215694654834097e-02 9.798280857746802242e-02 -1.829020067436386010e-01 -3.749078138606862405e-03 1.267488548283242089e-01 -2.001234784316066606e-02 -4.243066124878218381e-02 -1.509461441731164144e-01 1.309923898009592025e-01 1.588169962037772887e-01 6.966601639265285195e-02 -1.219748225304391753e-01 -8.741659012358066194e-02 1.654273392313386840e-02 6.819805975488461847e-02 7.750849124465511442e-02 -9.960617664753940170e-02 9.663159718106370533e-03 2.754571984827151182e-02 8.050981786956769304e-02 7.909050249151183820e-02 9.612904712321092282e-02 -1.611569276091447678e-01 1.295013000987697560e-01 6.368600624296304191e-02 -1.352663831463611910e-01 9.027630388321548904e-02 1.826114488039713712e-01 -2.100056604183053455e-01 -2.485677669292804710e-03 5.851361971734407585e-02 2.556374321460549992e-02 -6.335853910615968365e-02
-1.143459986412053292e-01 4.180493011373133116e-01 -8.658890041577266272e-02 1.656075274444487599e-01 -2.023617633874248006e-02 -1.351061628025942152e-01 2.223789481672092117e-02 1.397522651876628719e-01 -2.979636312185614255e-02 -2.805016444980372448e-02 3.946738407843931179e-02 1.062550503034500049e-01 5.712631837702918797e-02 -2.967200372304370504e-01 -9.760116597049367515e-03 1.873470250417931179e-02 1.106999777303610370e-02 1.392212674738704976e-02 7.592657849339395915e-02 2.276262152509702166e-03 -1.610578925416921159e-01 -1.814299565608403636e-02 -1.930033707652353131e-02 -7.379056744931483669e-02 1.547836918176066778e-01 -5.656553148287104399e-02 -5.405627030955345580e-02 7.880652947553480614e-02 1.982518349758475851e-01 9.741824703163029509e-02 1.350343360744756527e-01 -1.975213457028692776e-01 1.371808879246291246e-01 7.329308011561644354e-02 2.803166841576219467e-02 -2.228639792310891932e-01 9.737896983054779299e-02 -5.850818676677471686e-02 2.102435423894507410e-02 -5.537194245976133355e-02 9.867271829831211760e-02 5.305364352973346645e-03 1.332812287931557926e-01 6.046006503586637965e-02 -4.147642794163494684e-02 -1.775350848844317597e-01 -1.637894886998274638e-02 1.382125474091696130e-02 -4.897176351657409055e-02 -8.769344568137564869e-03 3.347141964237643208e-02 -9.692036468726414333e-02 -2.620894753598707050e-01 1.452862075631734806e-01 -2.407100804917887762e-02 -1.206285047704493685e-01 -4.968566793207600252e-02 -1.520462522124853000e-01 -1.355444702197930798e-02 2.650477335307529700e-02 8.250867713059156783e-02 -3.172108151768479600e-02 -1.340790113888014612e-01 -5.482900702816813354e-02 -5.664558388541798828e-02 9.611284097287940698e-02 -1.305978387599713575e-01 3.199570503439838620e-02 1.629188948724429320e-01 2.262941896064010749e-01 2.134107227339566981e-02 -2.612430124526466391e-01 8.024849008587600641e-02 1.046875950526459376e-01 3.047807649635981761e-02 8.553939844333438569e-02 1.652332029556963233e-01 8.390973176919026832e-02 -3.413487795073395087e-02 -1.315061938570170341e-01 -7.562434059074514547e-02 6.676224887605704261e-02 7.863196178701195582e-02 1.450038873437880238e-01 -8.988834058549572542e-03 3.191822205778500204e-02 7.462755692565134491e-02 -1.868122452015510138e-01 7.552715367429017890e-02 1.019710978538604235e-01 1.398000708289591498e-01 1.357057625572477277e-01 -1.729341576591007096e-02 4.801020788612315321e-02 9.330586903340988558e-02 -1.080218849182222052e-01 7.442984967294698218e-02 -3.201849274464985129e-02 -3.749039129929825770e-02 -1.791428698879541093e-01 1.046811635731915574e-01 8.566899351624749064e-04 3.429051261911676609e-03 -1.990163361567985709e-03 3.181706835356087198e-02 -1.237621087924800356e-01 3.050030274641164774e-02 1.573967233329809645e-01 2.361187648261423109e-04 -4.332434695913346678e-02 5.765794067585305882e-02 -2.979489083377086234e-02 -2.046190467602613527e-01 8.548445104789496873e-02 -3.945080859226145903e-02 8.669530091749730327e-02 1.409526848642592978e-01 3.491616865184055812e-02 3.076411018789353483e-02 -1.192408926079864366e-02 6.647726657883736012e-02 1.380077245900498267e-02 1.773309454164402610e-01 -2.885004725211502974e-01 -1.213692827808712793e-02 8.627316105065591101e-02 1.023590199728822703e-01 3.413998540577439095e-02
4.970533248184232089e-02 -2.134974816890622684e-01 -8.822871586983038750e-02 5.941396399132636494e-03 1.594855051120558365e-02 1.018379358221827187e-02 -1.505505210000001280e-02 2.278738319187923189e-01 -9.924036903459450276e-02 -7.069905809070670122e-02 2.426363391495814717e-02 -2.084451685088001271e-02 -7.422191835546726457e-02 1.806474437151879275e-01 -1.125875414173483913e-01 -5.429671282862134213e-02 -1.129242831285297843e-01 -1.956509615548042424e-02 2.962036712899538890e-02 5.613371776568912980e-02 -1.469569546536735605e-01 -2.046010487063790184e-02 3.143829626032127594e-02 7.531252175063814225e-02 -1.500568653381340323e-01 6.820390502733304772e-02 -3.857552779002007635e-03 -1.014188592797050925e-01 2.134843689237539421e-02 9.972834959721451481e-03 1.269987595633564892e-01 1.511658970612785383e-02 1.362042560867335328e-01 -9.840344586331568888e-02 2.852907897883926180e-01 -9.200561480772624645e-02 1.498758122923069813e-01 -1.800939378547669611e-01 2.316242222994945310e-01 6.676318086835274224e-02 -1.760024679072440257e-01 -2.987224066328704741e-01 -4.370374401393154612e-02 -3.732098658741347941e-02 8.536918149778782716e-02 -1.324284147494320107e-01 1.559831031530360124e-01 6.214928987289412149e-02 2.817980706411668534e-01 9.606839718964485866e-03 8.298546786975320808e-04 -2.097309338131507928e-03 -1.975389710537152621e-01 2.148379480045887677e-02 6.445747400012377670e-02 1.153755554584646459e-01 1.481366379787574933e-02 7.562197982152111045e-03 -6.246919722348452664e-02 -2.099098596076580392e-01 -1.127681473996749589e-01 3.187250564699552202e-02 -1.320228365318847907e-01 -1.196780990156173785e-01 1.202899378153954486e-02 -1.547764231421048520e-01 1.077803389574390897e-02 -4.895939295007153969e-02 -2.087432068033812371e-01 -3.684781925385750001e-01 -5.961625239760179329e-02 -3.051092086593879538e-01 2.593590684002480135e-02 -1.753714629047090426e-02 -7.945139058577685431e-02 3.768389045099377471e-02 1.674011506433968621e-02 4.571949426958478446e-02 -1.955095670775380476e-02 1.407527881365420661e-02 -9.260814905193912039e-02 6.593672728245007775e-02 -9.128766156679790633e-02 -2.251394251562346682e-01 2.286586661996453315e-02 -1.541173473780107495e-01 6.397998999432703490e-03 5.159939503555691608e-03 -1.233552828001949486e-01 -1.699535352364156260e-01 -5.471727235657566357e-01 -1.381334145361474697e-01 6.906475981428164546e-02 -5.996761364716376996e-02 1.110239029647115266e-01 2.080047454508261555e-03 -1.167682705022902029e-01 1.902640157268731258e-01 4.471794713686352146e-02 -3.217648554155731477e-01 5.160080397388859715e-03 1.651823330725396555e-01 -3.790327323082918077e-03 -1.827616681701371426e-01 -1.265441094887415074e-01 -1.985847295062454498e-01 -2.878650589373581148e-02 7.487359603872904834e-02 5.597826410806681918e-02 -2.044914712932944245e-01 -9.547564047889510463e-02 -1.214807967531409127e-01 -6.807852240242212583e-02 1.026249512108416348e-02 -1.758689618570630775e-01 1.242124627563733485e-01 7.539525341207331532e-02 3.313323666714357296e-02 9.704595491324798442e-03 3.013774780500388939e-02 1.024678798731504803e-01 -3.079504246643270937e-01 2.120385049343864042e-02 1.329494489088595133e-01 -9.955494389816531980e-03 -3.314382066221419065e-02 -1.278205182189174893e-01 -2.426320715749240992e-02
-1.273800663222446339e-01 -2.143519440779159124e-01 -1.085102349293739638e-01 -4.439947995888983770e-03 -1.666025992852916346e-02 2.919437902499031900e-01 8.315647943619491889e-02 -1.077082811302180754e-01 1.592713150345083650e-01 1.330862663363686638e-01 1.282575587531866734e-01 6.285430226602953686e-04 -5.130182728590357288e-02 1.533970930161415447e-01 2.625989496222612130e-01 -1.301791374616147190e-01 1.338662940103052257e-01 -5.646392943363623407e-02 -3.033781781811729916e-02 4.715215349766246206e-02 1.046010265837134107e-01 5.388774860291407898e-02 1.077485098064920599e-01 5.122404389807171457e-03 4.227225497389576758e-01 1.746225154384166700e-01 -5.630012804735708837e-02 8.809859421022230713e-03 9.349228970462045152e-02 1.781485421139752251e-02 1.085174022345581080e-01 8.643714603234749216e-02 1.950588449724437734e-01 5.790546143185106714e-02 -1.277999242537465330e-01 1.880598737339920778e-01 3.157883164661931530e-02 1.924794992255665985e-02 8.951893586835103778e-02 3.003215472406554551e-02 1.391224251718217175e-01 -1.359829284625636847e-01 6.124855521246649892e-02 1.280570029250631681e-01 3.993562746847872935e-02 -9.328629936946131185e-02 3.544550788706489486e-02 1.650176706377005226e-02 -2.322984685816339989e-01 -3.043875426282569366e-02 -7.935943801748128468e-02 1.465681861822293319e-02 2.866872044341932102e-01 -1.918302698536646089e-02 -2.808462327591199417e-02 7.052509493590197742e-02 1.017744232598671028e-01 8.650929109195508449e-02 6.474613195784173492e-02 9.194918221731938901e-02 2.636350968522957472e-01 5.952473827362103620e-02 2.249526293752472372e-01 1.968134953881859814e-02 -9.280507010301733417e-02 1.177899453574395711e-01 1.643676238371212239e-01 5.086586122670958693e-02 1.943923727838321458e-01 5.559432929503391879e-02 -3.404172848948733981e-02 3.171441470062080215e-01 -7.099542875408094977e-02 -8.303823206545475621e-02 2.594446889391525679e-01 1.379575592558185751e-02 3.091664031611501828e-02 1.247743731662693256e-01 1.086881702118499549e-01 -1.032699326797542339e-01 5.569175225096100607e-02 -1.324954025825729464e-01 -4.401804754369943729e-02 -7.849204839770691777e-02 1.064907124398688787e-01 9.866779178186264876e-02 -1.178973215508438005e-02 2.259687775290768544e-02 3.247758933966140432e-02 4.835537702646815206e-02 -8.517197491079794847e-02 3.609918796268931501e-02 -1.132140661994497782e-01 2.428061476787044676e-02 -5.155556245005524924e-02 1.002991987280709846e-01 1.690866116454835949e-02 -2.047002989136272044e-01 -1.013351439898089734e-01 8.883453568720714455e-02 -3.981404909759659466e-02 -4.678939449863758759e-02 1.210073315779903735e-01 1.374224186349196075e-01 1.307700641339468173e-01 -1.908567850288768811e-02 -2.429248788087443045e-01 -1.610188131701689729e-02 -8.710279188826595964e-02 2.348760620169181024e-02 -1.353804937522050562e-02 1.832249492935232038e-01 2.168038494295377039e-01 1.183882009189494988e-01 1.137955708635151192e-01 1.764650701708324679e-02 -5.632799407626064292e-02 2.717708195788297587e-01 -2.085921811519131086e-01 2.573918983639550961e-01 -6.189245109860707023e-04 9.653010833804107418e-03 -9.596401920826268250e-02 1.793599397495856673e-01 4.517224104231569448e-02 -5.269364252096141177e-03 5.523722975838817745e-02 -9.551095746949637977e-02
-6.751934899206335494e-02 -9.608586506519592452e-03 3.690635846539558340e-03 -2.685382603192661491e-02 -3.761202929045236176e-02 2.252626689435724416e-01 -1.169491933736935829e-01 -3.582479591291570092e-02 1.577303198468327228e-02 -1.105324015066759188e-02 8.638761416003025440e-02 1.015126959483482472e-01 -6.036492452229599848e-02 3.891493520961915309e-02 2.800213468102535908e-02 -1.593345615135470794e-01 -2.481146390969982563e-03 6.540593955796984715e-02 5.202013240590485504e-02 1.405256024965023942e-01 -1.865664745049089301e-01 -2.424440029566602914e-02 -7.118375950281835562e-02 9.031449515292583330e-02 1.263693349251613085e-01 2.806797436244073962e-01 8.378996945651052963e-02 -1.011766484077364914e-01 5.858473916000191822e-02 2.792553507407350213e-02 4.699436553026366259e-02 -3.459319862904398912e-02 1.619734054321851635e-01 5.479433564409889879e-02 5.281235082063474168e-02 3.825336524606750416e-02 2.224060637856571654e-02 1.136182882453682930e-01 9.500068250033981768e-03 -3.577454260059546691e-03 6.023291115122031414e-02 -2.874448921543459323e-01 7.187687357536838573e-02 -1.061183942188863132e-02 1.116619343747434490e-01 7.844312116843173144e-03 7.692760959275903032e-02 -4.120703710171870482e-02 7.656556183320904763e-02 8.467406963470383574e-02 7.192309732711446579e-02 -5.477238521630030561e-03 1.935345555682985441e-01 -4.368951279781758956e-02 -1.408642816655391039e-01 1.035383153025929912e-02 1.361296696262542620e-02 -1.115933207985381065e-01 1.204718590713380333e-01 1.856358936116566938e-01 9.238068735907403739e-02 5.823393597912635000e-02 1.516823860815110780e-01 9.479636997211073057e-02 2.400516078328678027e-02 -2.408531164015416393e-02 1.455559583303442373e-01 7.677716736797102204e-02 8.049869295744747563e-03 -1.966485586629181659e-01 -1.145040241045905544e-01 3.579034276034818163e-01 5.321845365099514558e-02 7.213217397770216137e-03 2.689203298805642808e-02 6.049940373776978991e-02 5.187953330332614743e-02 1.184090159112038687e-01 1.961099986607885981e-01 -1.723420476801351686e-02 -5.155008368133018326e-02 -1.980049649527410374e-02 1.154845838399928548e-01 -1.010053370148934204e-01 -2.639010112581121129e-02 1.259629767164769931e-01 -9.450177250025494635e-02 1.859603464122426900e-02 -7.279317065967279288e-02 1.078605455667777796e-01 -1.959751108195789682e-01 4.908242603859863662e-02 -3.228768250121086258e-02 1.963813972079862524e-01 3.388480889554373876e-03 -9.776587567965787373e-02 1.086636921406413658e-01 3.082082451431191958e-02 -6.831903276842066219e-02 -4.195920132232521665e-02 -8.876958410334291616e-02 1.954588085766805483e-01 1.430308606311782305e-01 -1.304137316574297163e-02 1.232113436373590137e-01 1.918299621060732402e-02 -1.091729718141755956e-01 9.386276234205656599e-02 -1.041480802280437407e-01 2.333524705149275097e-02 -1.671069112203093371e-02 2.122946919469614335e-01 1.463970150156619909e-01 4.669050899940756227e-02 -5.925634943649099595e-02 7.119680941209793890e-02 -5.574395579535369044e-02 2.164562754911724396e-01 -1.000396301745445637e-01 3.405590787908105432e-02 2.591059091737705697e-02 -5.197483971228664124e-02 1.093143275532565822e-01 2.387258945202032079e-01 -6.048940131484406959e-04 -7.020378661247167994e-03 9.788486217787981114e-02 4.938504260383039940e-02
-1.410625455641154047e-01 -2.271710896116319323e-01 -5.356932153819478348e-02 2.282818952374430707e-02 -5.875498141517073586e-02 2.824327165758835356e-01 -8.604696241757590902e-02 6.690342948248712137e-04 1.017491042204124105e-02 1.472942525566399985e-01 8.441477008540627588e-03 9.617446525441724833e-03 7.393263901346633360e-02 9.532855536110773631e-02 2.520423978451433733e-01 -1.790802142143184394e-01 2.132897514662514815e-01 -5.476698442697219144e-02 -1.558271411838415277e-01 -1.030481558310106516e-01 -4.155468840026613209e-02 2.679250411875497839e-01 3.842120640257244701e-02 9.126734111038899144e-02 2.346634671448519782e-01 8.104638878508381439e-02 -6.916868900249154017e-02 -9.195782111286646132e-02 -6.877360157701697951e-02 9.683856536257381964e-02 3.669748084676454497e-02 5.523924896198231793e-02 4.405527733304825250e-02 1.047206971063015801e-01 -1.808095879703191522e-01 9.752843539594571731e-02 -1.227802572957353844e-01 1.787413474331049357e-01 1.181375068575428872e-01 -2.417597668730448943e-02 1.006214085540645398e-01 7.713116915592720113e-02 1.861595735324813802e-02 -4.771601238993786187e-02 2.128087265478225409e-01 -8.068839100460990788e-02 -3.890249589859969687e-02 -6.327344570334006435e-02 -1.685550681828809627e-01 1.346017211823705984e-01 9.499722975986286955e-02 -6.041520525731706309e-02 1.449840450990547702e-01 -4.269504815615199345e-02 -8.481994236273457388e-02 4.804165077632990832e-02 4.727851766549466539e-02 1.881414261209132244e-01 -7.965843972252816679e-03 1.271157396331949463e-01 8.595683534531804726e-02 5.538571470430960625e-02 1.659635380151948947e-01 -2.426750462822175811e-02 -8.886395489115118951e-02 1.448307291385216300e-01 8.485356484703995839e-02 -9.236399872271043587e-02 1.584147539712553454e-01 4.534744193820552938e-02 1.681610726544287560e-01 1.469661443916248922e-01 -1.580988083033632585e-02 -2.584263048293504450e-02 2.790158114747435802e-01 -1.138927421002332019e-01 -6.637042583927199590e-02 1.306307825063558470e-01 -3.046797197930595918e-02 9.876472840019430433e-02 -3.203762766340124968e-02 -7.494386568848495668e-03 6.973990999482404529e-02 -8.846610750618137675e-02 1.504589110689594222e-01 -7.646755913331331443e-03 2.524271972552570228e-02 -2.749342931633688702e-02 1.928969854590686928e-02 2.183061346702662442e-01 5.568810696003187455e-02 -1.377163138219625153e-02 -9.040436689179671970e-02 -9.187970040393771826e-03 -1.140791254418030559e-01 3.311907165270306513e-02 8.868607989907695277e-02 -2.533062373482519170e-01 -8.712483409997198724e-02 7.243864625563729842e-02 -7.944310281649590022e-02 -5.841903570351194425e-02 1.193468711589841802e-01 1.837830101328996046e-01 1.691146521848365114e-01 -1.582181247859443807e-01 -1.251845704613475940e-01 -2.064102339580433099e-01 1.275205042035870706e-01 1.471619165106295146e-01 -9.117780101709689611e-02 1.897879016498733862e-01 2.243259928824142546e-01 1.027118345526262522e-01 3.828188508854901001e-02 -6.317777450453045118e-02 -1.380243656829691634e-01 2.042561718331489251e-01 -1.684011116939320707e-01 1.004788585792272537e-01 3.105399299418625664e-02 5.616422317368519740e-02 -2.298767513584343558e-01 1.236210685139816773e-01 1.575056944639760537e-02 -1.085316637090872338e-01 -2.369977650038539510e-02 -9.012850830215110576e-02
5.933452695949982536e-02 8.919553983489367233e-02 -2.629733114133168612e-02 5.579736641875555382e-03 -7.394618757720244906e-02 1.595972758234935618e-01 -5.093746407515133134e-02 -2.513427136116067051e-01 1.681973375673453119e-01 2.076525339208220022e-01 3.218233664151395890e-01 4.849326166676827532e-02 -1.664149860645250389e-02 1.283237773810373128e-01 1.651185357405828835e-01 -4.269062958810958958e-02 2.098336060659260205e-01 6.866366846238741890e-03 -2.952477946636018757e-02 -1.133711810355626792e-01 1.254320027198684573e-01 -1.537206620707155802e-01 8.178649654746096564e-02 -6.006044857958539596e-02 4.692274086517109893e-02 4.546918268712087097e-02 2.545362957835628753e-03 7.293447139375765220e-02 1.227272617888315875e-01 -1.176824368260742382e-01 1.656534869593762616e-01 2.297454833947116803e-01 -2.001593227737722136e-01 9.217510426013587888e-02 1.280958924612240479e-01 8.418264260906221930e-02 -5.636403790730772773e-02 2.391679833976642910e-01 -2.245391977879801493e-01 -3.313914898951152155e-02 -3.600360463272969658e-01 1.943600077488525091e-01 -1.832725334716458487e-01 7.824668189188077605e-02 -4.208996585112693284e-02 -7.690813520487271848e-02 1.106175049807092414e-01 -1.252798846883576289e-01 -2.903920792367238879e-01 -6.812932327493158302e-02 -1.090871381977893129e-01 3.960477294405568421e-02 2.598154868017990005e-01 -2.532731184554387616e-01 -1.426677292999685778e-02 -7.527038799588543772e-02 -9.647881511710028335e-02 1.361044293470311251e-01 -8.202682576392790470e-03 2.320733435009045276e-01 -8.117049430673413390e-02 -5.326435978895090184e-02 9.147401333203560025e-02 -6.988823380508889238e-02 4.694040248762774981e-02 8.874239862443733529e-02 2.135320971251444822e-02 -5.023533149189352703e-02 -2.583230954927364098e-01 1.595974454189549030e-01 -1.222061002863582824e-01 5.269123561956799012e-02 6.768732553279999120e-02 -6.630788347589920695e-02 1.376690409525166969e-01 5.750988703863538914e-02 -5.043281831454325681e-02 1.724220172572358059e-02 1.200714923024205627e-02 4.350125104098525458e-02 -6.236532733132522932e-02 -2.154663057865396913e-02 1.298562498868222614e-01 3.813535315729732564e-03 2.483245213128740594e-02 -8.909010726351809795e-02 -1.150360441523922417e-01 1.972184943383236411e-01 1.873276507484755160e-01 -1.572713713772961042e-01 1.670858987269242812e-01 -8.512409256836111701e-03 4.863287691737164242e-02 -1.594276759546520705e-01 -1.497152492773603794e-01 -6.392992949526225821e-02 -1.441837347925756241e-01 -1.508479028222996510e-01 -3.795645694138145843e-02 6.169522304734999935e-02 -1.445862075731677368e-02 -1.705388843597229268e-02 -1.317645967172965428e-02 -8.026263305378857071e-02 2.084025081287234089e-03 1.201208081276931017e-01 1.742577865291751738e-01 1.863156907270724361e-01 -9.026523203546882312e-02 5.439757715197963278e-02 -2.077071335461430912e-01 1.084478888810219872e-02 7.943390920546121448e-02 2.165854069540922543e-03 5.505153019829637367e-02 7.361826877916530232e-02 -1.718799317566376827e-01 -4.693877042986876330e-02 -1.522168752049637150e-03 -1.838765540196117820e-01 -1.206070421422423405e-01 1.021592649421553325e-02 1.832003496338079629e-01 6.396620431621115321e-02 3.304057816650179946e-01 -5.220134486523160533e-02 7.208338301529694514e-02 -2.421663515431712599e-01
4.310580786203083853e-02 4.033247812937859611e-02 6.331942798011579165e-02 -9.774048142933493277e-02 -1.362772289361261213e-01 1.932181219230941563e-02 -9.435139774365025600e-02 6.039711966406872273e-02 -5.157773594098150755e-02 7.918955282135423102e-02 -2.547127990091809235e-01 -1.724322152128451024e-01 1.168076763115282329e-01 -6.611877920019104682e-02 -1.724947874965727379e-01 7.208061502867715853e-02 4.656929795010510825e-02 8.124531425066652823e-02 9.280226024990735623e-02 -2.656360293756037175e-02 5.275054736103668845e-03 1.129798658317241189e-01 -1.803217599627452150e-01 -2.334657398904108755e-02 -2.417024714456518508e-01 3.362609211713796925e-02 -6.555228712963585835e-02 -9.464449340960608137e-02 7.383731682252278605e-02 -6.966633521681452057e-02 -6.331080682981338192e-02 9.241335516869930711e-02 -1.234491756616046126e-01 -3.124195160343956612e-02 5.141525236709355851e-02 9.396763731600490943e-02 6.145006930012977125e-02 2.409092893181207298e-02 -1.296444555213158711e-01 -7.515131357708856874e-02 -1.606170559984921309e-01 6.226460670060820352e-02 -2.132862662936373666e-01 -5.547858003424149809e-02 -1.217663544582204410e-01 7.799109434196624391e-02 -1.038008569287416326e-02 -6.265663029068394702e-03 3.367336458335728339e-02 -1.212830205055549782e-01 7.635563717252814853e-02 -1.254451804866061060e-01 9.428464903824819790e-03 -2.336429410679471130e-01 -2.342528531894211806e-03 1.008627939540817642e-01 -2.013587189006181208e-03 3.495131508900455042e-02 -4.609434745817326401e-02 2.743348628478700126e-03 -1.485486971136799339e-01 -1.953663133325933832e-01 1.724121869765938286e-01 1.586697497727923567e-01 7.436937205433734321e-02 -1.294526611820986505e-03 -9.891505258751706608e-02 1.090625501013240545e-01 -1.099253001717607897e-01 2.375690536728965532e-02 3.674467488395311010e-02 2.576813159720313384e-02 3.034685500038497574e-02 -3.607711709402655620e-02 -1.077427775725275580e-02 -1.607466403637784480e-01 -7.350459286822229321e-02 -1.238063287380625349e-01 -2.130465125859240527e-01 -8.176318260576083408e-02 -5.449800695953759683e-02 -2.455318498848169106e-02 -9.073546937442651672e-02 1.089195852185240315e-01 -1.563407256962257852e-01 2.268703445988631481e-02 -8.142545374298678154e-03 2.165217702947783845e-02 6.637301745449576684e-02 -7.118572549533319638e-02 1.863119991931070085e-01 -5.996271952009035733e-02 -2.412556007226261331e-02 -1.815332709184101501e-01 4.650642312992431943e-02 9.451927902961133887e-02 -9.402601002518259921e-02 8.845536487303780337e-02 -7.781626852115940129e-02 -3.468170401148720078e-02 9.181120943089396413e-02 -1.177817356762211332e-01 -8.510203043908134979e-02 -1.374762128369615699e-01 -3.410512263892879203e-01 5.921621190210523723e-03 1.201586055334894904e-01 1.501229909578230548e-01 8.836921143046407023e-02 -2.559724520357645194e-02 -6.597285853909215514e-02 7.878699507395401161e-03 -5.647814277437620406e-02 -1.078177710178253035e-01 7.912637278337326940e-02 -1.417853605375764825e-01 -1.635182696833888394e-01 -5.420859025156938432e-02 1.284062194642687227e-01 -3.072619078089136591e-01 -6.116347245706301589e-02 1.092708007433976086e-01 -1.478704498128685096e-01 3.675317408138042453e-03 1.338572153058498471e-01 4.784362500739578611e-02 6.961453783435472831e-02 -1.466410004892821639e-01
2.902833472984540225e-02 6.472937115969604194e-02 3.390704829964402700e-02 -4.514376427656104779e-02 -1.892866154505304099e-01 -1.524628213099847975e-03 -9.627799945945074434e-02 6.918223029014911041e-02 -3.223715540146065983e-02 1.582103252894300621e-02 -3.396836315897459602e-01 -1.991388512045028647e-01 4.507501334933616127e-03 1.207491346844671021e-01 7.315786467723094100e-04 9.262244560747844024e-02 -7.903588926574671436e-02 -9.136095460054691197e-02 -3.075504907749830943e-02 1.202924538566062934e-01 -1.111073015360477118e-01 1.345124389371925022e-01 -6.362250508013564398e-02 5.886229178141540869e-02 -2.190100777416969791e-01 5.193567847536649518e-02 5.656778462131148780e-03 1.083551277257775204e-02 -1.019257169053753298e-01 -3.494286725955909195e-02 -5.069136635217186271e-02 -2.768988130698052212e-03 -4.645085571951400316e-02 3.103043087806231851e-02 -8.972111504618704436e-02 -4.390871850041188490e-02 -2.885257438229816770e-02 -7.363675070352819485e-02 1.078674818502326285e-02 -6.531950587485300941e-02 -1.575683164000039604e-01 1.521924032865948073e-01 -9.656475920442600391e-02 -3.770830252629567281e-02 -4.312592401914861623e-02 -1.617793307789383017e-01 5.468751889056366194e-02 -9.892517082350106572e-02 2.044404899025259736e-01 -2.835999476678144685e-02 -4.538713783346930847e-02 2.037308214969857645e-01 5.421384820392269321e-02 1.524289741824347288e-01 -1.111134684383587035e-02 -1.829117310499877788e-02 9.410310279719473481e-02 8.101274652089113931e-03 -3.208180791856925923e-02 6.624331695719562485e-03 -1.427448825837533686e-01 -4.480128651569171422e-02 4.138398240372685721e-02 5.234673053800696987e-03 -8.329154951520098549e-02 -2.933327400775561089e-01 -3.769068270822820317e-03 1.235083860230349329e-01 -9.348259047405869937e-02 -4.902856364623672802e-02 4.081015743026707165e-02 -9.413670824207999444e-03 -1.027366450396893921e-01 -3.705162128685602491e-02 4.675445740193121674e-02 -1.342365323418364190e-02 7.047372462532874859e-02 -1.032694143724851160e-01 -1.068326858010864300e-01 -2.036624255160406349e-01 -1.149970242827007966e-01 8.707457386961510448e-02 -2.520727176947911152e-01 -4.027715620188689755e-02 -1.941521210436955025e-01 -6.147424925370553045e-02 2.516709736528890615e-02 -2.695585015516280963e-02 -2.029200702954388549e-02 3.058299656680587425e-02 1.941131611492831754e-01 2.925617700642861585e-02 -5.272975515079925818e-02 -3.008277816283253525e-01 1.165842022614662910e-01 3.221096928173959595e-02 7.374181797989459719e-02 1.352586747105463394e-01 -6.002183250874141424e-02 -5.318545605525924064e-02 -8.410577484298979722e-02 -2.166963945227450353e-02 4.024211285286712070e-02 -3.436470054571881538e-02 -7.760482669234103348e-02 4.760377054978637973e-02 3.834226315761448539e-02 -3.345509571636213347e-02 1.411136176916285012e-01 6.558979013460468355e-02 1.413804664149945489e-01 -3.227418280774050491e-02 -2.002080584147752917e-01 -2.026215070752309111e-01 -1.153866300152998486e-01 1.919110151503112399e-02 1.575333211357755614e-01 -1.004826510203842838e-01 1.214371328605756833e-01 -3.557602096491571664e-01 -1.472221287306448023e-02 1.689184161329960188e-01 -5.017534154314599176e-02 -6.375512219645756984e-02 1.101683347899488769e-01 -9.700025882110457909e-02 -4.330926927607778310e-02 -1.348850117459391151e-01
1.183791406870975393e-01 -9.712222873494311126e-02 -9.505823212734788863e-02 1.957460620028559084e-01 -7.399318014791134157e-02 3.940929024416790771e-02 -1.598708860325129266e-02 1.867545512595934765e-01 2.791066686820748745e-03 -1.802166174405198662e-01 -2.529668974697430253e-02 1.183684091290230535e-02 6.710833876245417273e-02 1.756713753695999247e-01 -2.707484191232670812e-01 -1.159122658766528410e-02 -3.065244541432036660e-02 -5.150251536278010328e-02 2.083777613594678391e-02 2.955279133868043279e-03 -5.300204753870901148e-02 1.486069729731482603e-01 -2.334810835931162842e-02 -6.188491784533463325e-02 5.529022599456101528e-02 1.503425436519788827e-01 8.668472344502697879e-02 -4.863425487497935462e-02 4.662031493313009006e-02 7.449042835943486644e-03 -3.517684344896003512e-02 -8.810784518820213851e-02 1.149334191132798666e-01 -8.192660723194031269e-02 -6.676206715299703998e-02 6.622499263784001333e-02 6.630383632235101188e-02 4.870888394580518560e-02 1.119771611914061465e-01 5.777746315522354348e-02 8.766403629450449098e-02 2.514803915923127797e-02 8.141664297708336995e-02 -1.015932018694980232e-01 5.181500862805809432e-02 3.007780939391627682e-03 -1.426421901338701705e-02 1.898032509029996123e-02 1.086238067903212423e-01 -3.357659925987072774e-02 -1.004282962002964880e-01 -6.773312859136257358e-02 6.642856963819869509e-02 6.380309189918462187e-02 4.736819114799679237e-02 1.051079648235431069e-01 -8.334779426744998165e-02 -1.030079226502674528e-01 7.278627840271773355e-03 1.099896781457086470e-01 -1.311715388847053132e-01 -6.948895736384976506e-03 -3.306387245651940671e-03 -9.338751431094029221e-02 5.061037243712643297e-02 -1.865819101938141211e-01 -1.907194852824633906e-03 3.647233618481429684e-02 1.019309680658475187e-01 -1.158519839082380182e-01 9.033033496772521764e-03 1.525822037709445023e-01 -1.482517064926619672e-02 7.736390654410714093e-03 -1.971045008908352547e-01 -1.474299321406702945e-01 7.210878905667551797e-02 1.644289874463452988e-03 2.976410582588731937e-02 -5.690491593913618584e-02 1.723626421029510192e-02 1.181836009425235035e-01 -1.108928151441771065e-01 -2.246646765756211625e-02 1.730772156270379489e-02 6.088329285835437227e-02 -1.129545077772388523e-01 -3.318846861913628266e-02 -9.948152670796855945e-02 6.692315288341749158e-02 -2.381080351056077959e-02 4.985201454769142698e-02 8.763333070343151676e-02 1.080661730834707873e-01 1.198833155669180306e-01 -5.731008725776941953e-02 4.526687088615302668e-02 1.493839112107042677e-01 -5.986664532838154723e-02 -4.702228750016350378e-02 -9.695004856548100625e-02 4.298261358989713399e-02 3.624415195091795772e-03 -1.100675786343370821e-01 -6.430312698140629168e-02 1.751510763601813597e-02 1.024752755666071963e-01 6.509148574722466163e-02 -3.440373623759181848e-02 -4.985852561269316779e-02 1.438643361936292608e-02 5.094344400071682682e-02 -8.271993440878723514e-02 2.067118155959172046e-02 1.385708386821494706e-02 4.494178438596468754e-03 -2.218861968363839213e-02 1.414723240030767160e-02 1.131114316991543856e-02 7.632695244030304749e-02 1.255814563408231277e-01 -9.902283256701091552e-02 1.548065191746814673e-01 6.286952307386614591e-02 -1.773080042690195202e-01 1.482055543995297077e-02 -4.984980003705684337e-02 -7.811995702241945894e-02
-7.589979512311721688e-02 9.128004360347659329e-02 2.118872190336959851e-02 -8.240969074747960324e-03 -1.747730323677940956e-01 8.603634221897905887e-02 -1.449608128860888356e-01 1.163988923050527369e-01 1.454591041226139525e-01 7.436637535560999823e-02 8.236938166388464710e-02 -2.798102848529175971e-02 -3.482956645630398002e-02 1.931684671252965890e-02 2.464695300313904103e-01 -9.271707824362594372e-03 1.254374938023441743e-01 3.548561376828011232e-02 -4.009529746384115495e-02 -1.809866562622320860e-02 7.981871893742231716e-02 5.053770619405838910e-02 -9.736027534189381494e-02 6.218878084116614274e-02 -4.375249946041958049e-01 1.195217255437244913e-01 -7.101530608697489977e-02 5.846355094468537461e-02 1.035888846963840676e-01 -2.247455712095268177e-01 -6.140983300148272067e-02 -5.982689452781760758e-02 -1.055864475739017733e-01 -1.537255219812960760e-01 -1.025340902911023450e-01 1.213242059415603480e-01 -1.447582332444872777e-01 -4.125147013919201050e-02 5.715847811697796071e-02 -1.391427678432168372e-02 -2.642719876379732713e-01 2.542353282502661863e-02 -1.757289413696267733e-01 7.322939839961112307e-02 -1.311486281827617950e-01 -2.772527522923765031e-02 2.825224033781858352e-02 2.794293771623775936e-04 -1.066224180689256812e-01 -8.282408592253177881e-02 9.982318616225820118e-02 -2.169180069077806250e-01 7.570279924037003061e-02 -6.565002956463261707e-02 -1.042597742713724518e-01 7.903684582144626658e-02 1.617355856689070906e-02 8.982868420408490762e-02 -4.274028096601355242e-02 -4.559324366557435115e-02 -1.893616910838233913e-01 -2.927859906438018411e-01 2.366035715779039178e-02 -6.155398881419012896e-02 2.252734033358234911e-02 2.192278431785036341e-01 -1.379410291051798299e-02 -1.243284853594828904e-01 -3.283286677829524991e-01 8.018661244274130628e-02 5.362690472279786277e-03 1.420856990581045864e-01 3.307341465791927004e-02 6.612763900827788033e-02 1.632020480602877910e-01 -1.450650598363862065e-01 7.681074290308406629e-04 -2.664109586372056734e-02 3.147589736694778040e-02 -2.000460790174778958e-01 1.861387220279971111e-02 5.955128671315365607e-02 5.387307214657417742e-02 1.336229532020047628e-01 3.950738083452631777e-02 9.591394797095594005e-03 -3.671031110559849764e-02 1.326486828438333265e-01 3.269876813257163728e-02 -1.293744960002967959e-01 3.237449132874100632e-01 1.130281557841588680e-01 -8.615642605899336004e-02 -2.389538659286450928e-01 2.208214114140267560e-03 -7.327530172618149096e-02 1.278367225623732728e-01 -8.371220597104278571e-02 -6.210126855178087213e-02 9.517482814625814747e-02 7.191704560086652209e-02 -1.500171362128016328e-01 6.165062283255438869e-02 1.061639844040951006e-02 -1.346414770300846386e-01 2.628327534197200804e-02 1.308500366034550666e-01 1.512920840337901307e-01 7.300684865784020858e-03 4.305886486696040155e-02 8.404079999117863853e-02 1.662674536486032917e-01 1.999846704836281963e-01 -3.598125308733486349e-01 1.972554500894060925e-02 -1.460227914125250548e-01 2.842876965267369244e-02 1.626240592609655422e-01 -2.059841720274563914e-01 -1.330171618365646458e-01 -2.916184022662692346e-02 1.979094833127861552e-01 -9.929238649505736647e-02 3.344862581220978820e-02 2.193058064873255331e-01 -4.458197396334221546e-02 -1.564675956331885304e-02 -1.548655021179023428e-01
-3.111378236410279607e-02 -4.749917301558821692e-02 5.911412363916378372e-03 -8.626602887633194952e-03 -3.975128744406347669e-02 5.396161913054316889e-02 1.920067719888774588e-02 2.727309492047850164e-05 -2.937428846763080401e-02 2.240716501545692713e-02 -2.104649159488818436e-02 2.065324548782089889e-02 8.645951072739058163e-02 3.418507328004954677e-03 2.645386789773990568e-03 -1.058200201164502356e-02 -6.095658835878228765e-02 -5.727077740548643797e-02 4.729696767247322520e-02 -1.152379331609208746e-02 -7.554042079202354099e-02 -1.689341850655114510e-02 6.270083754191879688e-02 4.350950457169657642e-02 -8.580869873318177840e-03 4.225571369532861443e-02 -3.142828515961043276e-03 -5.562496562200187206e-02 2.657508062676631339e-02 3.894609203611711784e-02 -5.302325656703276574e-02 -6.517423758981186199e-02 -8.784132337893837961e-02 7.792796718375560872e-02 1.075715515787552812e-01 2.613075088486802380e-02 9.523556733569328581e-02 1.268605992343685776e-02 -3.497670646682935619e-02 1.292274265488363785e-02 -7.037483609172147381e-03 9.720334409343907300e-02 -6.661068451342762667e-03 6.395403370938770871e-02 3.343203350263727891e-02 2.008399833260685746e-02 2.913563569772629688e-02 9.705486676833427473e-02 -6.611398552569328069e-02 -6.505187843525866986e-02 -8.281775878733046992e-02 4.215275253541925227e-02 1.537960491970093158e-01 -1.251184939617392550e-02 3.172689830987271420e-02 1.247503693169202009e-03 -3.975801160250227312e-02 -8.950659834206316223e-02 9.110233202252087173e-03 7.214875276992643860e-02 -9.109518538937087795e-02 8.284618792091998085e-02 -6.576867538257695489e-02 -9.183410318179742460e-02 9.471168136511809443e-02 -2.012598299157363629e-02 6.177797088803058806e-02 -6.556418060640836765e-02 3.272935547076415846e-02 1.371433940940198493e-01 8.235193120902531416e-02 1.360068621477435458e-01 -4.296454213392956328e-02 8.026856864955835003e-02 -5.682563425082612363e-02 -1.706361731832951034e-01 9.114342816203188646e-02 -2.389853473435453110e-02 -7.424215309997375667e-02 3.604137666234295042e-03 1.536224626638987975e-03 9.461616574573367133e-02 -9.441975734254322294e-02 9.657547239006403911e-03 2.560780975233686863e-02 5.369755619062159535e-02 7.384004294289781001e-02 7.476108959248543850e-02 -2.354929041529944117e-02 -2.854300896513441502e-02 4.119018143944949695e-02 -1.592683414647549575e-02 1.287035311241401317e-02 -2.025980140779334165e-02 -8.789769410946118855e-02 4.124218911227581046e-03 -5.018707008059026392e-02 -9.293093651799175237e-02 -3.551236216748663438e-03 -3.460465846433545545e-02 -3.623074457402929854e-02 -6.403351595046538614e-02 5.726309098776477188e-03 -5.875524768828199740e-02 -1.523506515793505711e-01 1.426672571272383783e-01 -8.146728883007105237e-02 -3.493712135016777132e-02 7.045854645472862665e-02 -1.755883866811627086e-02 3.206282092266798944e-02 1.144203697222951829e-02 8.129590919551848982e-02 5.835030140146641592e-02 -1.665543887527022940e-02 1.159050881111408889e-03 -8.758513904794366922e-02 -7.575310898558264283e-02 -1.110972651845540948e-01 5.447833411653717900e-02 -7.185225546116941545e-03 4.072363338985362374e-02 -5.255537677839748102e-03 -1.791543010481448000e-03 9.572431009050519357e-02 -4.637277048725274228e-03 3.680843147241799618e-02 6.502527977784564039e-02
-5.249096167170303612e-02 -7.147474155033221865e-02 1.982640094476320961e-02 1.335949150998716473e-01 8.159101558251447006e-02 8.524728682395378565e-02 2.488572846846609510e-02 -1.024354293128415874e-02 9.152743958408747493e-02 9.906122950140737460e-02 6.467036415346953671e-02 -4.104476603150078451e-02 1.168829964383350656e-01 1.426909108319643626e-01 -1.086083485817231631e-01 -5.330229055613783934e-02 -8.745877850681467447e-02 -7.378693998250719643e-02 -1.231394792431067253e-01 8.893190670372425055e-02 -5.618358874902496664e-02 1.561525702581502695e-01 6.147679036664892294e-02 6.167345551152429023e-02 1.351098598590914357e-01 1.132313803396907820e-01 -4.043285418162868849e-02 8.228415667939369127e-02 9.627642053795620880e-02 2.156760576054280593e-02 -5.107569784934515994e-02 1.184460669795626003e-01 3.682814962483885179e-02 1.990597269979192327e-02 -6.669216972327017545e-02 2.268050305917226617e-01 7.547665368387569684e-02 -4.606110153130035800e-02 4.003354402993264949e-01 1.112686883293194547e-02 1.230124372907668295e-01 -2.035549115865799563e-01 2.256881385370154702e-02 7.757255624812979533e-02 2.315310058974169860e-01 -8.031140143027094835e-02 -1.402203391575984268e-02 -2.213168766031006762e-02 6.381723857188172089e-02 1.063829485424091781e-01 -4.578912946599458106e-02 7.669013207159001977e-02 1.469793615824700750e-01 9.687027915217359675e-02 1.300832776125770973e-02 8.869683198060678009e-02 -4.942528116535595956e-02 -2.815297422156370216e-02 -5.167124995430025930e-02 6.882820544535005192e-02 1.833160328936458972e-01 1.145325870822987979e-01 -3.433500525856764823e-02 -6.984921631957190236e-02 1.217356932664193092e-01 -2.718888942040711618e-02 7.765232105039780730e-02 2.628563473079178689e-03 1.501111713042937168e-01 -1.726513982135078895e-01 -1.095954039086866894e-01 1.655308433977531191e-01 6.800806516705835969e-02 -3.743712114041431588e-02 -9.852066736949728620e-02 -1.325084230995117185e-01 2.681372481765216878e-02 -3.642143753284533131e-02 2.343953600507680396e-02 2.273562162082793658e-01 9.590570339561893531e-02 -2.040121040510794667e-02 1.919282348526061832e-01 6.358952396443642852e-02 -1.035556794036851802e-01 8.868561744487848952e-02 2.679168368499231651e-02 6.292500689505484135e-02 -2.799587719621284693e-02 1.327505023707540588e-01 -2.251627187672463060e-01 -2.955433816981900552e-02 3.044179152312687445e-02 2.358482473720634881e-02 7.245522881945164195e-02 -8.758399030040305011e-02 2.142753309533662609e-01 2.701981153697261689e-02 -8.657965368327036337e-02 1.455917527069456284e-02 -3.138082503473398760e-02 5.112455573009757476e-02 -4.077191305352924344e-02 -8.435600251733360588e-02 1.847571846198735046e-01 -2.223976156545206390e-02 -4.488012158576402261e-02 -3.978284957670517874e-02 4.299868216974227914e-02 -4.939414719058548425e-02 6.404091328232321134e-02 8.381453429994568938e-02 1.599044920605045828e-01 6.855128909764819645e-02 -5.510355859466403716e-02 1.953596975972985567e-02 1.367479700650428287e-01 -3.489044927866079282e-02 -7.255014188235295314e-02 1.944789979060551621e-01 4.258158801947989347e-02 -9.982584714375020152e-02 6.313445802391336181e-02 -4.329183222105550261e-02 8.995998646599667747e-02 -1.244421503778680299e-01 -9.601325044764932176e-03 1.494069282453268643e-01
1.015244771931279599e-01 -1.357455815298669322e-03 -4.018329262496043996e-02 7.452116337965458692e-02 1.446899052415004730e-02 -5.742498787324298859e-02 -2.161287096705458710e-01 -2.435882851368407001e-02 -1.300653001390187358e-01 -2.355174520923355649e-02 9.400019364859503457e-02 8.814341598188339677e-02 -8.398234864047761372e-02 -8.006635236893677732e-02 7.866713173473120768e-02 -4.287162140650896403e-02 5.178244034637378285e-02 -6.911670350739465563e-02 1.327808837298960210e-01 5.130773512800654301e-02 -9.128095101761259100e-02 -1.394489132309552071e-01 -2.854069668743904054e-02 4.172048982929425082e-02 -1.312729808731895320e-01 -1.062064479160125530e-02 8.905697887621573383e-02 -1.664516575651503114e-02 5.281677821020533056e-03 -4.646506658307519161e-02 -4.524460744816310998e-02 2.032148275898187223e-02 -5.612954651723774807e-02 -2.082385084602566758e-02 7.768630455173286542e-02 -2.185159297621868113e-01 -9.529883002994843366e-03 -1.033049925736573005e-01 2.593982083891007567e-02 9.561641085686457125e-03 -1.661109084471385985e-02 -1.598433668472979963e-01 -2.381681287010865497e-02 1.729917734935472462e-02 -1.504630410074777602e-01 -3.718182833620128219e-03 9.879527899948460645e-02 -1.473385062353810004e-01 2.889086296355964853e-02 -8.719045049501705780e-02 3.509219222066598670e-03 -8.456370755998912636e-02 -3.194638905107542726e-02 -6.750010323955561026e-03 -4.666882839221199453e-02 -7.195321846795389720e-02 7.434667227083704109e-03 -4.725785544406810312e-02 -3.177045411456734525e-02 -2.743791078369586800e-02 9.053819589392060607e-03 -1.436582563259155010e-01 -5.123962227765845034e-02 -2.850980685689169167e-02 -5.210528166319859655e-02 1.080455396612870628e-01 -1.495460377698028531e-01 3.987062998442431755e-02 6.021686328963517937e-02 -1.259167242536200215e-01 -2.266081986773082341e-02 -2.616339735994638871e-01 -1.813963587699092550e-02 -2.391469305899390427e-02 9.457326268427998506e-02 -2.605559036043938320e-02 -1.634255826525469676e-02 -9.653646200122113774e-02 -9.345711454943210483e-02 -2.825104292416001917e-01 4.797811234312458761e-02 5.780079516233402326e-02 -2.784094272056967245e-01 4.533902903959173558e-02 1.073376677801945733e-01 -1.056880515903366458e-01 -1.265772641807946797e-01 -1.076394599514828576e-01 4.289204956316883949e-02 -3.852012015639558196e-02 -3.194549396436870831e-02 -5.375010604034928530e-02 8.431275969079164712e-02 -4.502458737443335718e-02 -2.558950511122614485e-02 -9.504893370000597197e-02 2.024320429449644534e-02 -1.371619395957098531e-01 7.863935167569351126e-02 4.270595264641300487e-02 3.357486632878827620e-02 1.987915052973345323e-02 -5.019478955873907938e-02 -1.259481025884285135e-02 -7.244128080027380234e-02 -4.985668929279439554e-02 2.677659860162082128e-01 9.730221370754130183e-02 -4.069362379849845307e-02 -8.836674372009907519e-02 -5.394523113863845115e-02 -6.528770122043338342e-02 -1.744309063529402015e-01 1.290961771748818515e-02 -1.201057740420399395e-01 -3.908895587471528793e-02 8.596962848776658339e-02 1.108512368368584078e-01 -5.065037608713945233e-03 2.103811690459091860e-02 1.649376664140219939e-01 -6.924909338598887742e-02 -3.179830617984590740e-02 1.826329650599959817e-02 6.626465074862171456e-02 1.529394286717357734e-02 -1.203303667204052088e-02 -1.085981879092654256e-01
1.124128020138304151e-01 -7.272732824742819679e-02 -7.239801047977381665e-02 -2.661442547662202784e-01 1.970436856032992956e-01 -2.195240367270883883e-02 1.647270026864809667e-01 -3.672178697574135509e-02 3.077275847431944558e-02 9.863622106709582504e-02 1.077912065765843780e-01 -1.173015305161759746e-02 -1.107064876774402767e-01 -2.965322756470403082e-02 1.898092975497161772e-01 -8.748431869218255275e-02 1.356924005782171871e-01 -7.313489811277719410e-02 -1.102176704136823560e-01 -8.705925110374654330e-02 -3.694384483099452665e-02 -1.337365646227837157e-01 4.704504015641623738e-02 -4.721500832865428016e-02 1.819746509974497495e-01 -4.271042489755332017e-02 -6.144478074945306650e-02 -8.906238726330917288e-02 5.849843195804121238e-02 2.064241213296287014e-01 2.949282322184418673e-02 -6.470482104915681321e-02 1.520394475612335539e-01 5.248863849385973501e-02 -1.372801132854334187e-02 -2.221639849026851854e-01 -1.151826597917813243e-03 -1.330055317855255437e-01 -1.411044429073063100e-01 -3.046821889284805421e-02 2.478415058502247414e-01 -1.039727387115608609e-01 8.160951030941888951e-02 -7.063183409462142626e-02 -1.172956989288320012e-01 -1.972019833283181547e-02 -1.221975147648190346e-01 -1.850270262148160164e-02 -1.408420224371051133e-01 1.152731423962581880e-01 8.940185412943038937e-03 2.574568708896176825e-02 9.973489765726549494e-02 9.404016356366447921e-03 -4.800072139373897512e-02 -2.000908184185484218e-01 -6.741183966599460786e-02 -2.423494727792238970e-02 -1.264835576308438458e-01 -2.985608204918958897e-02 1.532302594659979977e-01 1.591027889547722007e-02 -1.823733279043372180e-01 -5.575542820521259268e-02 -1.653440366785828911e-02 1.474635298496799196e-01 -4.016823877294962986e-02 -1.396447406370414090e-01 2.223591687167940922e-01 3.187086623641083860e-01 1.488524660134820932e-01 -1.770138637731912077e-03 -6.600971844649353160e-02 6.458513371615938470e-02 1.449412160446229836e-01 1.108674290308939506e-02 1.187565998086433398e-03 6.252899980870056662e-02 4.733933044045252753e-02 2.076975217375363059e-01 -2.433862509018003273e-02 -5.026934152954230794e-02 1.540718472276322304e-01 9.779771973764463111e-02 1.530916632752206408e-01 4.822126453713230371e-02 6.337117316769268205e-02 -3.862640444544974960e-02 2.036830893883555260e-01 -8.366462889506309786e-02 2.716022609022605838e-01 1.670080848490564929e-01 -1.836437254648864504e-03 1.944193393269105230e-01 -3.598529784257267078e-02 -5.023420306148582148e-02 -1.040253701150182092e-01 -2.074407222685763497e-01 -5.089827059443568016e-03 -7.449812304311667632e-02 -1.146359978919182648e-01 5.205391942663185889e-02 5.194275591897095506e-02 7.845134277930050637e-02 9.595959775340479059e-02 1.475244003997437658e-01 -5.891060253954225751e-02 -1.317102912016101801e-01 1.026029497068120175e-02 6.252344820060920516e-02 8.291723326240162117e-02 -1.006689467180896941e-01 -2.320489511413227277e-02 -7.845122481684070614e-03 -3.424630521695179453e-02 2.025209695434656079e-02 -6.434258155354186104e-02 -1.627169200711002794e-01 1.407348368199693063e-02 1.476205227444547519e-01 -1.425971899965010614e-01 3.024274107705240966e-01 -1.154043653985641939e-02 -1.967815647080264629e-01 2.071053588200287010e-01 1.690817922316111832e-01 6.178230763277315317e-03 -9.452295084561958272e-02
2.873645798417322206e-02 -3.355890268026337497e-02 -5.483633391306266119e-02 -9.504357828370549321e-02 -1.206090042737937955e-02 1.726686723089812248e-01 1.179072498918608686e-01 2.666813286832368513e-01 -3.598602100189737113e-02 1.134278804778253019e-01 -5.059657793180949263e-03 -5.448296520104321805e-02 1.334115710297683645e-02 -4.307942223944543486e-02 2.130317230069601608e-01 -9.748882471902209357e-02 1.169663426121200361e-01 6.537564302053219811e-02 -3.842275282787393359e-02 -2.071256369805186612e-02 1.834889651067865279e-01 -1.938084618579114515e-01 2.784446565229214271e-02 -1.107051765841984663e-02 -2.609259791187797384e-01 2.036635433885523039e-01 6.226881205459885993e-02 -7.864206171062763928e-02 7.958357125018589162e-02 -6.845938090325490340e-03 -4.762872989744280222e-02 1.040055537155598203e-01 -1.176862228982856612e-01 -2.550732166048966590e-02 1.454901406197415398e-02 -5.249044886091233653e-02 -3.979281957397944741e-02 2.086263690188680173e-02 -4.304416835163449306e-02 -8.709189503625949097e-03 1.362545713550863437e-02 1.766949316066334374e-01 7.656204361124577945e-03 6.391135193663770309e-02 3.498439468238507405e-02 9.950379997717391511e-02 -4.740667369569373513e-02 1.091238280146553385e-01 1.348561570035101964e-01 4.436703154725347292e-02 5.951394697253696228e-03 3.720656368645938739e-02 1.634662304556100954e-01 9.834082699869550748e-02 -5.244302965171172143e-02 -1.768376288159049722e-02 4.371942162826766842e-02 8.975391729431451970e-02 1.182627559022363106e-01 4.200139804796443332e-02 9.755118556747106873e-02 -2.165359934012691112e-01 -3.609966956784052550e-02 4.900764473975222774e-02 4.759167772352144304e-02 9.226256820449553475e-02 6.481256175063764002e-02 8.901856288183512822e-02 -1.917299234736473956e-01 -2.482435198732108050e-02 -1.870437799442765392e-01 2.080185451956841347e-01 6.930241137567140497e-02 -3.128852274732176614e-02 9.874996255023182901e-02 3.617107247359013095e-02 7.021702804917122342e-02 -1.050618234043581012e-01 -5.375483714001986352e-03 -2.047110999897127359e-01 -1.003767791396200509e-01 7.433783306904881427e-02 -1.323463451186467077e-02 7.494160995716662478e-03 1.123570021612317789e-02 -4.721253349534083182e-02 3.272647331428901046e-02 8.014000010124967821e-02 5.725723561754027247e-02 -2.285333450002681177e-01 2.271393362443259178e-01 1.023736290263714127e-01 -2.001763608662440186e-01 -1.686265189151172905e-01 -4.346499840172578233e-02 -4.583355654093344139e-02 8.752630392111160340e-03 1.089620665890658618e-01 3.239284289493998825e-02 7.092665860100000330e-02 8.059556011027434186e-02 -1.407151153137234899e-02 1.022518303281761409e-01 1.151096591743548531e-01 1.460946183866011494e-01 1.966499404967395337e-01 1.714609289782645651e-01 9.938767234054235455e-02 -8.128344491399681904e-02 1.739576120187265318e-01 -3.778121281797547359e-02 -4.449494316100279651e-02 1.643860922872697750e-01 -1.408751168074336979e-01 1.182926290395403396e-01 -1.316464009040951497e-02 7.995940037708162973e-02 7.490768215684409648e-02 -1.242112675090246143e-01 -1.313626241326216471e-01 -1.990930062368006376e-02 1.944885672459781278e-01 -2.405772250547387470e-01 1.197783766224777696e-01 2.358573793725886325e-01 -1.013281865304629381e-01 6.389349776551317417e-02 1.253719919500803082e-01
-2.180957108448723647e-02 3.042110779827186112e-02 -1.332858178694915907e-01 -4.646679444728687991e-02 -7.289068016026176156e-02 -2.744704924516502137e-02 3.434649914366687262e-02 5.256510679379121365e-02 -7.640116139760842751e-02 -6.690830190908208337e-04 -5.516809334325143213e-03 5.029896358555072805e-02 -1.380092526920420094e-02 8.757967557983449558e-02 -1.755409580721051591e-02 -3.697966416893806729e-02 -3.340614513918977596e-02 -4.308342399730043237e-02 -5.504325892684350241e-02 -6.753290437135290973e-03 9.902775196576328598e-02 4.395137148704956337e-02 -4.434907265732489917e-03 2.559847446440064594e-02 8.787227514013573344e-05 8.196372884721156438e-02 -9.485353180261675565e-02 -6.794130202256754535e-03 1.262018293476028230e-01 -2.835664237239264238e-02 2.756985920836699244e-02 -3.673597949475695956e-02 -9.613017538968050488e-03 -3.171876044582087883e-02 -3.983995077260898965e-02 6.019249342267558173e-02 1.830951949599852191e-01 7.928886756800880564e-02 -5.232077574382604235e-02 2.421155065135333073e-02 8.781381113995412324e-02 2.922549107344346239e-02 3.147599962050493666e-02 -7.294084096602722334e-02 -1.336195768354803484e-02 2.391397430450032183e-02 -9.052088426439974800e-02 -5.770276128242608771e-02 -4.265176301581657947e-02 2.443479182030961622e-02 2.340442719792769702e-02 6.662289351236388990e-02 -2.855862985698011738e-02 -1.570165008372624016e-01 -3.466010617000862999e-03 -3.403043045850644155e-02 -1.369854349646240123e-02 -1.120618987315448803e-02 5.649656903185915763e-02 3.968595586530902775e-02 1.429963177645858508e-01 -3.140714113613080755e-02 5.851740303488096179e-02 1.788684299897970410e-03 1.881116052208501102e-02 -2.462445373711749999e-02 8.069943701455978280e-02 5.003415216052289199e-02 3.901833966645866514e-02 9.280227917421023098e-02 1.758632021704556736e-01 1.942724528162020625e-01 2.297137700622949030e-02 -8.638890622503436756e-02 1.452111962747667795e-01 -1.897794942466834167e-01 -3.301122388678256331e-02 2.260790334920239827e-02 -8.425698851241239518e-02 -1.252071154047153800e-01 7.390760437568658081e-02 4.461127391727810754e-02 8.708861122808764232e-02 -4.941512772654177432e-02 -1.773520200674369440e-01 -9.658115457914102572e-03 -6.960349673747043275e-02 -3.048463308908449989e-03 3.194234387732129005e-02 -1.340880724251575749e-02 1.420819045086152699e-01 1.271382162793345816e-01 -5.017072878991291063e-02 -3.496397289189608071e-02 8.224129646287585416e-02 -8.739115219225297715e-02 7.686928030998727013e-02 -3.575927967820681681e-03 1.261567657117460863e-02 -5.953186277481949812e-02 -9.964497513341172286e-02 -8.017068963388690461e-02 1.218045556234614579e-01 3.651984317262802014e-03 -4.556583388412122765e-02 -5.527670253861547561e-02 6.359665533375671864e-02 1.093918388354679222e-01 3.753103028222248144e-02 2.595346847260131956e-02 -3.697797855570195830e-02 1.145562876314404344e-02 1.981881072599694094e-01 1.135546510476253407e-01 -2.265029023343450784e-02 -7.771951368286977857e-02 4.293650763511432794e-02 1.526656909006827711e-01 1.114965823157885311e-01 -9.968886112039804237e-02 -3.034661170085877629e-02 -9.726797994097365063e-02 -2.377705088404226744e-02 1.686194832926554352e-02 8.512711809533196616e-02 -6.553902303141549528e-03 8.190254045247641335e-02 5.846216931619554330e-02
-8.855351279125191211e-02 1.066421430444090823e-01 -9.507666425609656580e-02 2.077659402876100014e-01 3.024053872520234831e-01 5.247257738821937967e-02 4.098451718128773291e-01 -4.046703262209774832e-02 -1.320205412646863474e-01 -1.422247514038312566e-01 -2.474852884772503481e-01 -3.921105062090215164e-03 8.743583977617698511e-02 8.551655001555549807e-02 -9.186079697450798276e-02 8.773564097724698141e-02 -5.129188036232744385e-02 -4.375445838143248584e-02 -1.662703639602513064e-02 1.296762498086710680e-01 -2.644321472481682943e-03 -4.848295923078896341e-02 -2.352651101765475539e-01 -4.622538217442449283e-03 1.354256060425129138e-01 1.523708559716648037e-01 -7.737381588514971598e-02 -1.466885409848594883e-02 3.356644843623699664e-02 1.095171943816245635e-01 -6.910429483604026146e-02 1.445465263875774231e-01 1.693474913894834066e-01 1.101522253012807845e-01 -2.098095957565527386e-02 6.620902847190270057e-02 3.121876027417499685e-02 1.288427095899652430e-01 2.745050580909909055e-01 -8.852480252660903381e-02 3.315604430465172309e-02 1.351261958040151090e-01 8.503084131083216146e-02 -7.747904926517096280e-02 1.354069384484123395e-01 -7.261944017619519076e-02 7.564113143383491278e-02 1.247775998025721887e-02 3.027633805518339383e-01 -8.156702939882898989e-03 -1.600984661657054720e-01 -1.765499484582813694e-01 -4.583320184904912664e-02 7.374099669946289348e-02 5.725829525218938815e-02 2.261323937606000978e-02 6.922611457401632584e-02 -3.924981167709281488e-02 9.053920537160488335e-02 1.576428147623138432e-01 7.602162620825880790e-02 1.924669615798690198e-03 9.113985434998374269e-02 -1.487547182507992782e-01 -1.792646983356092558e-02 4.153702156709992988e-02 -8.079431943853584985e-02 -1.858042677935160814e-01 4.250822692325199187e-02 2.406380619579308669e-02 -5.225205991641283798e-02 8.476071612787057508e-02 9.494193640809863236e-03 -3.291564396369160705e-02 -2.064427351488136719e-01 -1.764969857008363840e-02 7.072150441348082350e-02 6.148232373643400944e-02 -9.283558687109563778e-02 2.806818212555914349e-02 -8.622206651818759005e-02 1.284620553630048401e-01 2.364531501115216261e-01 -1.103366620314611413e-01 7.794417861478337983e-02 4.633027214773549618e-02 -5.186372042074013228e-02 2.395788921096835694e-02 4.862661604149770556e-02 2.525558707410769516e-02 4.547238487966977216e-02 8.772059134006256198e-02 -8.505985854045719496e-02 1.364424164128152928e-02 1.498598179183539825e-01 1.064859632931186850e-01 -3.603840385922880279e-02 9.930598063469446568e-02 -9.113528843488523379e-02 -4.496025396320042604e-03 2.008462506423642699e-02 1.084556988442289260e-01 -9.418934127725051009e-02 2.212802094957365059e-02 2.187838413378731806e-01 -2.439244693267883513e-02 1.987140842879800418e-01 1.758865664666107165e-01 -1.534135147115914255e-01 7.938939333839467594e-02 4.223692885742635211e-02 6.298215636100430725e-02 -4.967376524732863841e-02 -1.406240150543386358e-01 -5.724373923580076962e-02 6.392452963511392749e-02 1.044782510788052482e-01 -9.294452886463644425e-02 9.795068883308841179e-02 8.139786581888820705e-02 -1.153256548586454600e-01 -5.078930465467907523e-02 2.284123391752962071e-02 2.235047225604726295e-01 -1.008116283048003103e-01 -4.262708759011546444e-02 3.710068397925796874e-02 2.236494356751480284e-01
6.587127301379316902e-02 -1.389466471387862390e-01 7.428922959192553466e-02 1.123293980214729593e-01 -1.385478338103233176e-01 -8.075029769395189461e-02 -1.224698530117979273e-01 8.437418807950794464e-02 -2.942642092430888812e-02 6.444928669685497102e-02 4.170412868923803473e-02 -4.224956393571759061e-02 2.881122202528166656e-02 1.144210761345070826e-01 -2.413518475222617976e-01 4.294207922246010001e-02 -5.611598530793511508e-02 2.962203701611606003e-04 -1.082829890690919020e-02 -7.127966336580245088e-02 1.077775529791870496e-01 1.275266323935111967e-01 -4.690421017046391555e-02 -1.119786601859972322e-02 7.518513437780523223e-02 -9.991019248540625869e-03 2.936475383268701000e-02 -6.438982057452346044e-03 -1.272711914268810918e-01 8.768140153072787046e-02 -5.322570220869116825e-02 9.558934046944922436e-02 1.313650248549614041e-01 -2.354087228326425668e-02 -2.513756173431988886e-02 2.303406056487867781e-01 6.978052204405162107e-02 5.359400232686098442e-02 1.752797918022770129e-01 2.355341695093545254e-02 8.856024917502432203e-02 3.037133073440987860e-02 3.672128662014557954e-02 2.463634775424421858e-02 1.469114669667037354e-01 5.385430653638018789e-02 -6.549742361596308515e-02 -7.776552793347223103e-02 -7.721834348540532189e-02 -7.125633087901379892e-02 1.154283634348349519e-01 -8.265539143701669533e-02 3.946350555644256158e-02 1.224790078537928567e-01 -3.849907573837445945e-02 -4.260143585016710338e-02 -1.565011796077362544e-02 5.349679710221178289e-03 -8.429374873278312752e-02 1.069360528093946244e-01 -1.267029408031476179e-01 8.760044613935220187e-03 3.505576466927620011e-02 -3.486249114497717155e-02 -1.585557264311899649e-03 -8.082804764628617744e-02 -3.523217385800414547e-02 -4.626105949527149763e-02 8.208944982367909204e-02 -1.978445604351181109e-02 3.124428669797049349e-02 5.212564377823959011e-02 -8.398288930959690868e-02 1.378272261557995579e-02 -2.465387239056415075e-02 3.672971740312248184e-02 -3.058571772036023512e-02 1.422719058012998361e-01 3.867410212326784572e-03 7.136618720056739362e-02 -7.018768142460037052e-02 1.934836155990746556e-02 -1.892166833920447822e-01 6.612267038215202675e-02 4.870897369280251937e-02 -4.570268199570754614e-02 -7.865927747174329340e-03 -5.798972680632057813e-02 -8.026628432828278314e-02 -3.492581178224100913e-02 -1.861073489298608885e-01 2.826240216613013639e-02 1.430389153179119910e-01 -4.280392916444186041e-02 -6.429737515764294593e-03 7.542927115487546574e-02 1.170433444069026163e-01 -9.610072290192904487e-02 -8.517824232721057931e-02 -1.307551702376409837e-02 -3.359096713875854567e-02 -9.675035414526624196e-04 -9.471492187066412466e-03 -1.644632482396539697e-01 -2.628441919763667076e-02 -2.851908656247726173e-02 -2.007038215282035132e-01 4.691192428508628165e-02 1.296064227845644123e-01 6.035871849404135514e-02 1.021306780320737073e-01 -8.373378777838498543e-02 1.265448758975729338e-01 1.243215801874344301e-01 6.366531954042611852e-02 7.931462789676242686e-02 1.059511156231452839e-01 -1.406162589567857280e-01 -1.324909630232614342e-03 -4.941528939036029383e-02 1.267045363896169285e-01 1.017536879545488659e-01 1.458837900719915821e-02 4.736656594841220230e-02 -1.397168205829091292e-01 -9.660864464461459133e-02 -7.492112760988942077e-02 -1.665071626667942103e-02
-1.387896160460700967e-01 -2.085975054404061169e-01 8.385740732735198766e-02 1.180935747562552318e-01 -8.525732300230813576e-02 6.976189381727920802e-02 2.064691871749110147e-02 -7.229275027576979873e-02 4.653751800676778072e-02 -4.490526340858139176e-02 -4.767436654653480627e-02 3.984286390043872278e-02 4.220424323664318661e-02 1.410867437048196893e-01 1.701682083024641245e-01 -7.019448451904822250e-02 2.653874115509996523e-02 4.544485991356912724e-02 -1.147447504313636596e-01 -5.446917970454522029e-02 -8.827670365202873459e-02 1.106742425062717944e-01 3.881935509963518188e-02 -7.871993852554222404e-02 8.381776563482130904e-02 1.469504670004931624e-01 -5.501724949576009688e-02 -2.747311627985554380e-02 -1.742962652889371716e-02 1.529014518806094507e-02 1.296905405744921969e-01 1.210544819468634958e-01 1.484520471566995736e-01 4.157006809076799897e-02 9.922890695378444592e-02 1.775016542649603124e-01 -5.235977689382887573e-02 2.215885759599508023e-02 5.041572105926789282e-02 -4.610606007388266814e-02 5.575792523981914356e-02 -1.246126209156346865e-01 1.482348306145953587e-01 -1.093300459563663896e-01 9.769377032325099464e-02 -1.745973691517605300e-02 -6.627922630869158283e-02 -5.142940520467774446e-02 -1.049861388148491843e-02 5.704493370216824621e-02 -3.188192753875734864e-02 -1.103717393619690762e-01 7.817358186970366218e-03 -4.615896704140393103e-02 2.628603904362911484e-02 7.814169994636382954e-02 7.177309699795754450e-02 6.926748792440182156e-02 -8.897903202927448518e-02 -1.411198953303569037e-02 -1.138414961063330122e-01 4.618663431155681232e-02 1.273249808740405387e-01 -4.462997513211028160e-03 -1.018048184530323669e-01 -3.156280569499483879e-02 2.558962964565069526e-02 -5.657954571215155493e-02 1.257223065057750389e-01 7.173474347483337066e-02 1.946432390664888309e-02 1.305888593989338320e-01 -9.583493867264110400e-02 3.327036614737762660e-02 7.061059872936550907e-02 7.754712586114707873e-02 1.095890099041065963e-01 3.386829518224739738e-02 -1.603808753235736947e-02 5.400261735345989779e-03 5.463120398344002010e-02 -6.952557541637638394e-02 1.319634836904697295e-01 1.301942559734369995e-02 -7.820744959555982201e-02 -6.945035180898014027e-02 -5.395485513505614977e-02 9.359676511086256756e-02 1.134823995071037976e-02 1.492462514380926697e-01 -3.025198220304876062e-01 6.830919720610478807e-02 -4.709246152045700731e-04 1.231590681353427093e-02 -2.544433967942235850e-02 3.481786427895271208e-02 -2.287241552554516305e-02 2.585991698210849538e-02 6.136808457066008499e-02 8.453976764298948288e-02 -3.510930542818488376e-02 -5.428638148753223841e-02 6.477193190510917298e-02 6.294792524248492283e-02 6.197056541604868685e-02 -1.485351183213517445e-01 -2.222722590366342232e-01 -2.375164280568387715e-02 -3.709190022230180600e-02 2.306970277329126531e-02 -6.560988989895841228e-02 8.755687216431901065e-02 1.594387955042877725e-01 9.882558003159358506e-02 -6.695251864404165587e-02 -9.514778427689971063e-02 -1.276420618368371840e-01 -7.444256479137756344e-02 1.104496561077732975e-01 1.206383287034181774e-02 -1.130264982968977039e-01 -3.566352518203214084e-02 1.160688842055627723e-01 -1.212481317915396241e-02 -1.389679766138529060e-01 3.991776318569115883e-02 2.104196145345565636e-02 6.392342917344186193e-02
4.105921551494113447e-02 1.240061405425902374e-01 -7.336595833691737789e-02 1.166565968274307780e-01 3.894979567625777434e-02 1.876569359582846291e-02 -1.576927470229293193e-01 -5.175389181479218143e-02 -5.303441706485456653e-02 -1.003455589681307020e-01 -5.739529578429616863e-03 9.569634766352329291e-02 -1.852334887584090872e-01 7.609166865516209244e-02 -2.210199362541434738e-03 -4.114105393065381477e-02 2.711617587359940393e-02 5.121910071376491180e-02 -4.232416785500274330e-03 -7.851397051439425179e-02 -2.803103188929844114e-01 -1.216313831984431604e-01 1.454133910642771768e-02 1.454737441345206606e-02 -1.002061944797462828e-01 -1.062548325943088456e-02 3.611905985488803039e-02 -4.140675808445430650e-02 -7.896607965586432964e-02 2.662626323571708458e-03 7.701896600588617470e-02 -2.409410369649041539e-01 4.920714134945636947e-02 -8.238902433977696171e-02 2.693344559667987595e-02 -1.778848645369685705e-02 7.929385655675097455e-02 1.602825036481064780e-02 -4.854514539815673463e-02 1.719168798014597543e-02 3.229931333632300033e-02 -1.336871647863695223e-01 6.381230849725294356e-03 -7.719465393891959681e-02 6.649605712127847068e-02 -1.900206634668342998e-01 -8.310317604100819766e-02 -1.479664165979200502e-02 2.146700486446465050e-01 4.371526253995901973e-02 8.781694497420150514e-02 8.760685654973204839e-02 -4.689238319860717513e-02 5.556397351674321333e-02 1.632702580470158510e-02 -1.123687144127153287e-01 -7.200728396097963446e-02 -8.898599939876311593e-02 6.294168172201500266e-02 9.541090696731273357e-02 -1.188063053646940537e-01 -2.061938869728088472e-02 -1.028632462499084743e-01 -2.163227085526747695e-02 2.793625214383514341e-02 -9.683480661528874600e-02 -1.225917519301073372e-01 5.447888562515617455e-02 1.074392412434028998e-01 1.750934116645641581e-02 -1.114363000250177954e-01 -1.469208105014067067e-01 -2.198307527744321893e-02 -7.587294026273965278e-03 -8.085781449264391185e-02 2.471887623250315635e-01 4.010196079702933736e-02 -7.461267833072426914e-02 2.205739013690012976e-02 1.068236926343648779e-01 -6.471601996606658747e-02 1.286698517260943808e-01 -1.122338394113752032e-02 -4.850586619811574074e-02 1.717443061552470784e-01 -6.936090411015852220e-02 -9.112978034732727162e-02 -1.427660512478758914e-01 1.094972175257447472e-01 9.453769679599893783e-02 -3.982391103044968794e-02 4.769508911542857943e-02 9.584718847018232346e-02 1.497608154403438641e-01 1.311105816770476717e-01 8.488307342149548768e-03 -9.353759365575188556e-02 1.613831473203892752e-01 8.207902788659647564e-03 -1.394344087050398695e-01 6.090115965135382142e-02 4.813699323912285616e-04 1.250534429218161103e-01 8.316531775640932656e-02 -9.734746915478539875e-02 -2.753396688246242258e-02 -1.400086960400796082e-02 1.614583059829537148e-01 -3.308634544715099990e-02 -1.297965921108328313e-01 -1.113577297577427426e-02 9.092629401826009261e-02 -7.569327204725484481e-02 -1.277986367603771260e-02 -2.021345794824480624e-02 6.826629799666360243e-02 1.409056514916476044e-01 2.981858642220798841e-02 8.724130327727234319e-03 -1.917798043048306745e-03 1.886031033291220077e-03 -2.335857389831192121e-01 4.728375431074888224e-02 4.960015329439172727e-02 2.062892270780939882e-02 2.239997871751496505e-02 -3.348523912969782190e-02 1.424616988665494410e-01
-3.671120539319935872e-02 2.551467203284852325e-01 -5.192783247270333497e-02 1.224864261272070598e-01 2.136653337061180102e-01 1.143410403262194314e-01 1.616467014418270232e-01 -1.369375096341620135e-01 9.393291668878916978e-02 2.314625566729544559e-02 -1.304228635642160072e-01 7.342909647151277253e-02 -3.641743237622412088e-02 3.006661705204664511e-02 -1.481618956338482396e-01 -6.462313466932328651e-03 -5.000546442121513863e-02 2.917974607661591446e-02 1.256503606766302406e-01 2.441466621118476912e-02 -1.357653898514392388e-01 7.149262705091999348e-02 -8.824267407490232751e-02 7.982581818353794156e-02 3.290318055336032693e-02 1.449284550280863504e-01 -5.528488222335187219e-02 -4.999544852497310454e-02 9.139874082276143452e-02 1.455978990771814030e-01 9.098167820848665835e-03 -2.118399931607502784e-01 8.440191304369623615e-02 9.644730953132904516e-02 -2.087612784019659273e-01 1.461111701937537477e-01 4.603427580408671338e-02 -6.283241924456953176e-02 6.695640067152047736e-02 4.430461363727481588e-02 -2.966219501943590832e-03 -2.032489723589400166e-01 1.347619800932833567e-01 8.006187869175279692e-02 -2.715425549114179604e-02 -6.879462678104118767e-02 -8.710737327749089320e-02 9.768370355865704791e-02 -5.171830446480268212e-02 1.148861153339430091e-01 -7.490877386452671205e-02 -5.351428727122610474e-02 4.045410443964128633e-02 1.471334595424702851e-01 -1.783392672072799112e-02 -1.367349843107313334e-01 3.815049604466816402e-02 3.929718021563553820e-02 2.901965717997895267e-02 1.579543802821324894e-01 1.048300430215526741e-01 -2.098996447876748730e-02 1.317351446998060553e-02 -8.079274991517348958e-02 2.516943202001426655e-02 -1.318936397789253201e-01 -5.740637993582682098e-03 -8.996885076062996478e-02 1.655567065911269509e-01 -6.877683556418714983e-02 6.525918851332317139e-02 -1.762359700569641162e-03 1.129188943614999052e-02 -2.164515202688848186e-02 -5.567978685180973580e-02 1.657774184312414412e-01 9.758324339402853209e-02 1.928818238104618860e-02 8.607575190936296583e-02 1.759443409627287763e-02 1.077459336566382805e-02 -1.269146783038865856e-01 1.654939361748625493e-01 4.751882369853072802e-02 1.182989368605775332e-01 -4.451407614232273657e-03 -3.455371844228247863e-02 4.312058249063424956e-03 6.519017387684102049e-02 1.049003377059723463e-01 -8.834898571906169007e-03 3.785061991477120524e-02 2.388123981279612756e-02 1.153259824332805855e-01 -3.272034757859755907e-03 9.168205852177585893e-03 -1.693546829848459334e-02 1.310759528436138653e-02 -2.904459253321764814e-02 -1.476998660927436036e-01 2.599374470464836662e-02 6.051861612222694115e-02 6.913768860931453208e-02 -5.881651882354278077e-02 8.534579660263359735e-02 -7.842829914994488977e-03 2.267791248336488985e-01 -4.569427877552254685e-02 9.629527283769002965e-02 -3.807389340748777024e-02 8.725741550221678688e-02 1.241259182454156895e-01 -8.996954776965609968e-02 1.187223930505129643e-01 -1.503333917250657126e-02 -2.498183959506782709e-02 6.084202864477789019e-02 -8.153491148382378817e-02 2.707430450685691797e-02 2.076692986593566270e-01 -7.351629444924273615e-02 -1.334117546727327797e-01 -3.681299198966126590e-02 -1.842257869015416216e-01 -5.286133779378340142e-02 5.186347332364894813e-02 -5.095950081808232890e-02 1.658105082480264003e-01
4.601917089941130051e-02 -6.069498773979239425e-01 3.059483986485004095e-02 2.698937327880628761e-02 3.156049064302671181e-02 -2.507478313072140086e-01 2.379179663073584250e-02 9.125118992611697122e-02 1.161263117151088986e-01 1.990323596919833446e-02 9.562827622554033458e-02 1.364167854756066223e-01 -5.158356445422666858e-02 -1.834862350359978828e-02 -1.779086452568788279e-01 -1.232256683699008010e-01 -1.850091219216152064e-02 3.151012561728495226e-02 -3.241934260106342502e-02 -1.273538372073797498e-01 2.320245968089275634e-01 -1.001353075012354973e-02 -9.545072962872148264e-03 2.619062622348436800e-02 1.287758887071148439e-01 3.960553550180721111e-02 -6.887303902121282018e-02 -1.180411329180167113e-01 -1.674193322326742173e-01 2.232042618950415003e-01 -4.763555312198929775e-02 -2.614844513007465454e-01 1.659347067126005215e-01 -7.373704817904512543e-02 -1.345728417318488579e-01 -2.224385403399952998e-01 6.323294270145196627e-02 -1.564763200627840578e-01 -1.081368883707246181e-01 -1.040328928414000764e-01 5.362155180650143849e-02 3.967545121237646411e-02 1.845508521632848176e-01 -4.339239262849019924e-02 -2.624306600435585834e-01 1.309998888819769169e-01 -2.355683534826433917e-02 -2.656932648716301207e-02 8.504063010523775501e-03 2.386641536596752927e-04 -6.913483393712210878e-02 5.261244399857793741e-02 -7.767151666518486153e-02 -2.149070375547741316e-02 7.973546951109479475e-02 -6.529639153122114570e-02 -6.602199231089295184e-02 5.718828481102131850e-02 8.554626543918955606e-02 -1.024094499616322318e-01 -8.324391512698096907e-02 3.906263941213990176e-02 -7.882526908901929530e-02 7.076724573680726049e-02 1.049980062165039169e-01 -1.255658338814490405e-01 8.122672882122111693e-02 6.952395036891563518e-02 1.841400520466389412e-01 -8.963542883151200125e-02 9.593534747171970911e-02 -3.261125871965573492e-02 4.775621901569024330e-02 -7.257637390158223900e-02 -1.046773976633127989e-02 2.323641845003117032e-02 4.798896982719969180e-03 1.849154170389713803e-01 4.374774882372743125e-03 2.089074756988844664e-02 1.052630229007482793e-01 -4.652679365699755910e-03 -2.332031819962183949e-02 -2.004632887978440026e-03 1.384392841879861780e-01 4.695793017306129635e-02 -4.694978574871994798e-02 1.014729887385265178e-01 1.095818516756690425e-01 3.972164764241346152e-02 -1.770792085581998354e-01 -2.882122992125427663e-01 6.799315425543590863e-02 1.648671589276805571e-01 -7.477965125741090069e-02 -1.069245743137466204e-01 6.046746514160583619e-02 4.115142234847816299e-02 -2.263668502521370626e-02 5.706390924974542173e-02 3.819038470077541075e-02 6.886446132970568124e-02 -2.047506404277290304e-01 -1.783465087920976192e-03 5.582182875046341058e-02 -8.771339661271375376e-02 -1.459928971037093536e-02 -3.030152988518973189e-01 2.218567966737192143e-02 6.997938453442659190e-02 -1.521054159481869950e-01 -1.686535200522417122e-01 2.523239493577299208e-02 1.384516559161435845e-01 -7.147230265916885983e-02 -1.376465709508462032e-01 -6.464486668798517799e-02 -4.460153388306543204e-02 -5.884822360287814830e-02 1.165542266195916943e-01 1.621184132537213662e-01 1.926264886689509070e-01 2.972165175949733132e-02 -8.148484238522790690e-02 1.879161473602128651e-01 4.859203595598861336e-02 -1.044130016658807898e-04 -5.885727228050634252e-03
-9.503899286027242543e-02 1.989247919769016298e-04 6.278416274068260305e-02 3.784458189255922311e-02 2.316037700752942782e-02 1.155085750185419757e-01 3.745538438397151559e-02 1.151351470535306731e-01 4.959728349646348733e-02 -1.604741327679403546e-04 1.294358210894955008e-01 1.350357425821509527e-01 5.296699849974988161e-02 9.424754483475189515e-02 2.381047011155315932e-02 2.385782179983071682e-02 7.214376483427473175e-02 6.586585381377545699e-03 -1.784574381111269162e-02 2.992907852632202548e-02 -9.877388624506197590e-02 -1.064364565414103840e-02 4.126398402255070097e-02 7.817838788240401293e-02 6.895569494479442119e-02 -5.018176296357881178e-02 -4.186397441336153769e-02 -9.281233391678674061e-02 -6.668017435173316521e-02 -1.740215816357379083e-02 2.629207837798832118e-02 9.944792827611632913e-03 8.477283493715455365e-02 8.412778940121794224e-02 1.909407974718966769e-02 1.590331865312926210e-02 4.450332944810690694e-02 -1.260593473524840857e-01 1.251748606572396227e-01 1.350521709455522468e-02 -3.822216992486232590e-02 -2.367397888130438888e-01 9.771989090862272243e-02 2.055748397173174855e-02 2.461368239772306760e-02 7.201949936184690038e-02 2.560388371361904322e-02 7.133195497314824551e-02 9.942569691290828460e-03 4.971577859243151917e-03 8.202529114315716685e-02 -5.342227178751385308e-02 7.604604806083395396e-02 5.311135352649835883e-02 -2.502074578466492033e-02 -1.032241871941856903e-01 -5.740751867351727433e-02 4.953627248713924486e-02 3.960662031457996141e-03 -5.862622664843260972e-02 1.283480828390851924e-01 7.763378498544566686e-02 -3.805537071626422657e-02 2.524784891518289109e-02 1.119187740591887081e-01 4.465545712048408535e-03 1.220585622044428192e-02 -2.767771867542562908e-02 1.363115714201588724e-01 -1.065360903109338619e-01 1.216461160527255586e-01 -9.219673311849718722e-02 -6.843920395662152212e-02 -6.705267798055315753e-02 -5.152070530545146271e-02 1.539647691381006503e-02 1.179480967676764108e-01 1.308024345528224497e-01 -1.723887029647154512e-02 1.854894639547942370e-02 -2.826091098686630415e-02 3.289536073140138933e-03 9.157604783029335560e-02 -5.999237882894129653e-02 1.403089994221230763e-01 7.163664014857612679e-04 2.819003083938032006e-02 1.009609438859451896e-01 -4.433162377914563052e-02 9.381379671291109612e-02 -3.373226124868658471e-01 -6.397818417853483319e-02 -4.888350810305400196e-02 1.550701895308505551e-01 -6.819869571756344284e-02 -7.814382370588679461e-02 7.192642768427517930e-02 3.388426195233742305e-02 -1.021403182148024474e-01 -2.813799851077726163e-02 -2.243300523440582353e-02 1.614639586853242742e-02 -4.856287585572516968e-02 1.190454280599514830e-01 5.927220956295947696e-02 -1.318670108991013834e-01 -1.567050552000299191e-01 -5.939483175275719895e-02 8.236317090329416113e-02 -6.733403930910682178e-02 -3.181698402567038203e-02 9.610023498996210500e-02 4.444930599300875307e-02 2.950420087952783724e-02 -4.177110159835611958e-02 8.644811974854718639e-02 2.826288906454123631e-02 -9.735133223991385143e-02 -2.035640209830680974e-02 2.061622940601737508e-01 -7.825566078343530740e-02 -2.063202395796210065e-01 -2.882486787884363036e-02 -6.391466489008341967e-02 -3.378853995447721192e-02 -2.106143818468836706e-02 2.811928035326685324e-02 5.351501920342202623e-02
-2.658867778663710421e-02 -5.114592884559439334e-02 -7.030342848886959872e-02 9.510294860557523544e-02 3.877254116171418435e-02 1.046502642607827216e-01 -4.233543649301536177e-02 -2.478527480866423230e-02 -1.397654986802941701e-01 7.235770632454217866e-02 2.566543669466767597e-01 1.197086417940920328e-01 1.160667467143865553e-02 -1.273914668501911068e-02 1.003530109223548239e-01 -4.839396074449346143e-03 4.859879925640170351e-02 -3.829463984182041730e-02 -1.796250076575456323e-01 -3.044941442622588548e-02 1.418963656752155744e-01 -1.062108061206848281e-01 -2.138210295159962415e-01 6.463389415107324842e-02 -3.564703580248922143e-02 1.169664670576026355e-01 -6.134408128818745476e-02 -9.336476154315170861e-02 1.555343734986323334e-01 -9.260417264572397278e-02 3.028372891361174463e-02 5.001425865919824354e-02 -4.187611441518226951e-02 1.470853254899943648e-03 -1.216294801769562950e-01 1.182267296054686778e-01 1.165377918026859055e-01 1.198480051433775950e-01 2.167907298936359306e-01 -7.036222335131041804e-03 -1.931600300767235823e-01 2.815415518935143191e-01 1.312947929729160745e-02 8.521670460184176121e-02 7.068668943573876151e-02 1.135692764916351599e-01 -7.561142195860157122e-02 1.277817946718721454e-01 9.608036979700068604e-04 -6.069251405917503589e-02 -1.893853465884526993e-02 -1.689255908096669312e-01 2.808752581130598558e-01 1.695104602603235075e-02 -8.201310207341130920e-02 5.288866802048977633e-02 -9.273982443308835533e-02 9.354566456756324699e-02 1.352015319812769345e-01 1.125703613230961825e-01 5.885648708782311583e-02 -9.932504251664428518e-02 9.379295243600006826e-02 -6.633177876535742423e-02 -9.949334483181181132e-02 5.751630747466855015e-02 -4.986762137409980582e-03 -1.065156279677206691e-01 -1.349970180102171846e-01 5.799939401918725868e-02 9.614290237275949919e-03 2.049501645185874965e-01 5.581418739583962098e-03 1.564456843766045407e-02 1.183978854502849565e-01 2.216024641199920708e-02 1.094989760247642441e-01 4.465431235298050056e-02 -2.069120815193983831e-01 1.243085134885975884e-01 4.925940176179027796e-02 -1.339759479792531141e-02 2.524993584276792880e-01 1.222066614984197858e-01 -2.496909745242152645e-02 1.307350474429694320e-01 -8.232571947973515991e-02 1.159815856864438582e-01 1.078404833953704872e-01 1.088898049709200871e-01 3.843587164240017673e-01 2.210221353115308582e-02 9.372286375228375266e-02 -1.666016668729321526e-01 -1.270532266761454851e-02 2.536834365282285286e-02 1.907855979648237776e-01 1.637711426341535714e-02 6.154781783166129831e-03 3.647554705971311345e-02 6.095320166681735680e-03 8.331037339047648801e-03 -1.530845378157457207e-02 -1.048277891925685906e-01 -1.666461721703996549e-02 6.502257245200059044e-02 -1.850856691478698079e-01 4.621171592745790951e-02 -1.741652189914020404e-02 1.336956286516825798e-02 -1.624591518994999984e-01 2.304059841090598873e-02 1.978044087219479052e-01 -1.745496539398011804e-01 7.947674028337171903e-02 6.688321841142207125e-02 -2.151317752362588015e-02 1.151671451466175326e-02 2.179841877988661913e-01 -1.842286124998934738e-01 3.597398772504695197e-02 2.247344614405616947e-01 2.941581842972695870e-02 1.286703621259265018e-01 2.147597212559667901e-01 -2.198346571416418815e-01 5.469684507540791343e-03 2.244335215814604115e-02
-7.693316900095466433e-03 5.943242483901666207e-01 1.014567890518443954e-02 1.926023661546010651e-02 -5.605340292483986658e-02 -6.672122625901999449e-02 -5.027450776352658524e-02 -1.004238290609547890e-01 -6.540006060677500122e-02 1.940435983211288018e-01 9.399035485113840793e-02 -3.088293782116160319e-02 5.354066298930019313e-02 -2.605726933046053073e-01 9.152116696655478167e-02 -2.729488300556495023e-02 2.057357374546769924e-01 2.972935485958346294e-02 1.907597626536830238e-01 2.384912071080007301e-02 2.376567827167732488e-02 5.098899941396345392e-02 -9.526140006607390631e-02 2.141967427371497742e-02 -3.154050129846443229e-02 -1.285040859182594586e-01 -5.873294082154736917e-02 7.317770158041507489e-02 -3.602346232032548057e-02 -2.140689287963824516e-01 -3.512367359664822497e-02 7.742865819280139728e-02 -1.039102841948257722e-01 1.675576552152880511e-02 7.008701844772617651e-02 4.238761303797156099e-02 -3.833822490860094856e-02 -2.799932093411293121e-01 -6.624499224184247914e-02 -1.299057269676089262e-02 -8.822839455834835531e-02 -1.284733943000488654e-01 -6.042927980374956237e-02 8.125330938515455681e-02 6.201227871797992258e-02 1.898749174935831022e-02 1.359636808700021293e-01 5.991245420505293857e-03 -1.344590859252946247e-01 -6.232898947020171915e-02 8.330612645118180837e-02 -7.729078572353963172e-03 -4.245557431571632678e-01 -3.472943782704037557e-02 1.352624625950969994e-01 -1.413059668202709673e-01 5.276374319815520936e-02 1.149685356463726327e-01 -2.080654401264222381e-02 -2.404757759201184009e-01 4.649399054788211361e-02 -8.864133647501055979e-02 -1.430699566645708964e-01 1.878896380674878464e-02 1.238820777677909594e-02 1.282339342133487518e-03 1.702165989353153150e-02 8.699867003807597310e-02 -6.867919042684776654e-02 -1.233119817337599983e-01 1.300873623903741894e-01 -5.115115688644110703e-01 6.329112043285059497e-02 4.557770352157945043e-02 2.054141875610592805e-01 8.227237240752406644e-02 -3.110698985043964734e-02 -1.084577842048913172e-02 -7.271787864118754718e-02 -1.268969025904490532e-02 -1.603282368054983684e-02 -8.232384227866171300e-02 3.945833500182066578e-02 -8.276534706496455410e-03 -5.295395978830591543e-02 -4.106542487005390013e-02 -1.597470564825881345e-02 1.410458182645930036e-01 -3.835438162105468674e-02 -2.133903075906041710e-02 -8.391980157854068978e-02 -1.046824166404460021e-01 2.783812577756631171e-02 -4.378423671446730892e-02 4.122031040702113514e-02 -2.034737533142327859e-02 1.641379620216633015e-02 -1.135697566049060914e-01 4.196157895168334262e-03 -9.583851225938866403e-02 4.797363799182412930e-02 -2.977805060330188450e-02 4.009486382086399625e-02 -4.089141686173755619e-02 8.476747966129831446e-02 9.325792423174650292e-02 6.836671531426934123e-02 -9.730513553125540172e-02 2.083371593718260917e-01 1.688517429664126712e-01 1.455754459884061880e-01 6.621163758997179738e-02 -2.475508647628999470e-01 3.509865799058943525e-02 -4.911190064358737783e-02 1.002782597123403757e-01 1.644498022740914500e-02 -2.418614914482399847e-01 -1.548437621687515364e-01 -1.655586857664341216e-01 9.153257148148155609e-02 -1.530324870649143743e-01 -3.013013276545568886e-02 -1.062757251474877179e-01 1.596860610946027881e-01 -5.931614446489810732e-02 2.805909893764597929e-02 -4.747521104425829475e-02
