6.501341445226222968e-03 3.237462212445045562e-02 2.044827321488413840e-01 -1.000500423933295413e-01 -6.216619545847157022e-03 6.705197249112329616e-02 -3.126962296357807709e-03 -1.444599157906343578e-01 -1.597177494794178865e-01 -1.299280541823520999e-02 -2.497698145484020804e-01 4.379486664568782994e-01 -8.849924644950971434e-03 9.334157853360082469e-02 -2.460674927796028810e-01 1.253482928787217066e-01 1.916940181999312875e-01 -1.687381400246855401e-01 -1.092223494097913500e-01 1.999374960573218618e-01 1.230152152121408576e-01 -1.092285701409618087e-01 3.497193470664462511e-01 -1.746006265152197090e-01 8.827478971658174467e-02 -2.197646196841470390e-01 -3.729105264450085500e-01 -3.398833422658043002e-01 6.070555068045719871e-01 -3.532866757401383895e-01 -9.639117487803126882e-02 -2.200023002668596017e-01 1.459147979722066890e-01 6.747243484149559323e-02 2.579179039345434465e-01 3.092331106617081105e-01 -7.005220560383225437e-02 1.610615538627286625e-01 -8.584250442667488989e-02 -2.496340967847396619e-01 -3.794900055704520381e-01 -1.601039308960478802e-01 3.111778004512718576e-01 -8.843614036711236470e-02 -7.171868537153339163e-02 2.838788568433336934e-01 -1.401650661967221156e-01 1.198083255440281075e-01 -2.132809340053337943e-01 -5.331784058884202898e-02 -4.437386139763535575e-02 -1.751004827506976724e-01 -2.776217329935254385e-01 1.768172892295066245e-01 5.655750453658900390e-02 -5.204258785776907370e-01 -2.210662690870419111e-01 1.224112214861696191e-01 -1.311553797722922188e-01 2.222876513688558202e-03 -7.643228008169467014e-02 -5.506386994451670791e-01 -3.518029406856094943e-02 -2.170335462695467330e-02 3.434907835559817268e-01 4.396154931774673424e-02 -7.791440582621328437e-02 -2.885479859200592093e-02 -2.289832575542384840e-01 -3.652870395707755180e-01 7.627156391033651506e-02 -3.452367079935629857e-01 2.545908137025611473e-01 -8.490751514520155085e-01 -3.922066215471177175e-01 6.767104261931149167e-02 -4.068198686438516676e-01 4.441393933227261170e-02 6.117809595814371199e-02 -6.689874330458990548e-02 2.128287325967122626e-03 1.221395071029774820e-01 -7.104804428512473402e-02 -8.199975637259883376e-02 -5.499150066004755005e-02 2.953641672543907415e-01 -5.646711678389552957e-02 2.004358366814502079e-01 1.413687001260164888e-01 -1.879258152628648371e-01 -6.872893508035604615e-02 -1.183771910257006982e-01 3.750157531595260663e-01 -3.625263900565736663e-02 -1.725361510546609065e-02 1.582377562646993530e-01 -1.769343234458097824e-01 -2.548591473142637343e-01 -2.722922336489161377e-01 1.692247172848850359e-02 4.179916588388295495e-01 -1.869359159215795430e-01 -1.792016295151570293e-01 7.001694607831132622e-02 9.462017968943513269e-02 -2.793821520560885174e-01 -1.479951677723337702e-02 9.989684824686155540e-02 1.701782108495280277e-01 -6.890923761692721583e-02 -3.281663099866747313e-01 4.028668093274023754e-02 1.058351990680661131e-01 7.071778776933566879e-03 -5.276974088643860972e-01 2.912354124241088860e-01 -5.489457632893603167e-02 8.123961028253675609e-01 1.600286014818091962e-02 -2.750120569853803931e-01 5.286542060166680990e-02 -6.340661266553597741e-01 1.172933529510967604e-01 2.677483892157022094e-01 4.735528798378665222e-02 -5.321068214193695745e-03 -1.660735068040416207e-01 -2.891037367121150337e-01
2.888830143221454705e-02 -5.106147074961418786e-02 7.279904935924594311e-02 2.169776910697502337e-01 1.222542424999590038e-01 7.068822863217995300e-02 9.391791577505563537e-02 2.105032675181167379e-01 4.054695444927765985e-02 2.409646477177342094e-01 -7.703448839223494410e-03 -2.134277621357263607e-02 -1.627698074816187890e-01 1.881637777551159463e-01 -3.637325762710863497e-02 -3.037911260318842954e-02 3.826292408833217862e-02 -7.183411791319310735e-02 8.375407809710970486e-02 -4.077311199089794780e-02 7.473146966907601163e-02 1.213641494436439872e-01 -1.276914432490496021e-01 -3.563857450113166320e-02 -1.469443189563844065e-01 -1.665785977568567389e-01 -2.188273369096505883e-01 3.220672748584153811e-02 1.762440423162339176e-01 5.625101542235151630e-02 8.399224307912066256e-02 1.229477685332501791e-01 1.056119800724584779e-01 1.351875348231651730e-01 1.113289559004544405e-01 -2.546562205908736165e-01 -6.533799296225685505e-02 1.312290200853617472e-01 -1.496131643407488110e-01 1.196505940127437356e-01 1.265746304051973969e-01 -2.283542217345828004e-02 1.017771761812740899e-01 -2.300542688689103180e-02 7.678059329357481144e-02 -7.594745904631763564e-03 -8.124057550387334126e-02 -1.331064337774348107e-02 -1.643481700348072283e-01 -1.012264037301238012e-02 -1.099947706211727161e-01 9.601215989226549730e-02 3.529938753086209191e-02 1.016877311065405090e-02 -1.907972157864164936e-02 2.318917425490626960e-01 2.467754088668088278e-02 1.200658223182424073e-01 -6.731143156448846088e-02 -1.644415500721295720e-01 2.701586582982009807e-02 7.647532976799115145e-02 -4.437020955555631002e-02 1.081639375250429830e-01 -1.218581441771646734e-01 6.044285844271141128e-02 -2.323157652068420786e-01 1.134724082164543790e-01 -4.043106896217021212e-02 -1.266711235060936913e-01 -8.657322063703527804e-02 -2.664126786069193412e-02 -4.692004878957951181e-02 1.252795338413283943e-01 -9.113498448193559087e-02 8.479404007127343268e-03 8.954618817522840002e-02 4.070223661366567658e-02 -2.431469002406456414e-01 -1.357605284684717251e-01 5.195699548110466887e-02 -1.466654672002314641e-01 5.060546062283403229e-02 -3.380910252899781403e-03 -1.169131811721633163e-01 4.990326091458167912e-02 1.574919218669846854e-01 2.196600178770402589e-01 7.298704011723074377e-03 2.335310365423158563e-02 -7.165437269522786923e-02 -3.228082973778048648e-02 6.969958353704605591e-02 4.992148610505397349e-02 -4.654959805737260425e-02 1.270039802513010969e-02 -6.127476351081325573e-02 9.873560958551765715e-03 4.894752249648583881e-02 6.618549230964047847e-03 -1.124920544011467349e-01 3.551740993198619634e-02 -2.893141221725137324e-02 -3.424734857085894729e-02 6.233967033554999038e-02 6.655334917239015546e-02 6.306688810910844600e-02 1.918741163813789119e-02 1.599271918580886728e-02 4.271489231446776863e-02 -1.219755436353519955e-02 -1.918168314086133586e-01 -4.534991519183849407e-02 8.046297145712379140e-02 4.315005566403322390e-02 5.795396526080194566e-02 8.597293002588959898e-02 1.422353048874187009e-01 1.069613711024292174e-01 3.254539994863957231e-02 -3.292603906685622611e-02 -6.272586672021052134e-02 6.835498029898458283e-02 -1.203373355279038423e-02 -2.138401650050746616e-01 -8.978296709032168588e-02 -9.930883701625078941e-02 1.766611598815319706e-01
7.180441547926365298e-02 -8.467731767846625734e-02 -1.088394462478768920e-01 9.460650971689191224e-02 -4.599915980420136163e-01 2.940798732178594443e-01 1.462074472904653921e-01 -1.409982290931532933e-01 -1.341281599371636768e-01 -4.450749143862554880e-02 1.812583546062789541e-01 1.938306854359951870e-01 -3.321511961410061192e-02 2.067841704658692978e-02 -7.017459482675553195e-02 -9.390656889625802195e-02 -4.229034666485178423e-02 1.384109464024595171e-01 -2.604506294192820426e-01 -4.707763079158041458e-02 1.113750720707300523e-01 1.037764532235333353e-01 -1.774522339201156478e-03 -1.387122301483778852e-01 6.654917431114151793e-02 -1.664388308396927696e-01 5.961927603804628717e-02 -1.411185566087388987e-01 1.539810538466982182e-01 -3.126876812817286355e-01 5.142254655553760156e-02 -2.780807158736155194e-02 8.704061966325976618e-02 -1.991648079544089955e-01 1.825590758100598468e-02 -4.425062038461702874e-01 -6.169922360450987714e-02 1.766294316837621337e-01 6.702599978599772454e-03 1.815877331011896481e-02 1.494967978350205950e-01 -1.334200760282452380e-01 1.904923729623362871e-01 1.501489243847579924e-01 -2.327364876390678461e-01 -5.430227012915227192e-02 5.730815039381009779e-02 3.507041144240850838e-02 -1.924473193096085666e-01 3.568974288424133900e-03 -6.768618827104089242e-02 1.564169630891384388e-01 -1.473861911358523846e-01 -2.004173145451255134e-01 1.234530374117586843e-01 -2.822185212470275095e-01 -3.292730681508148627e-01 4.218910800493467367e-02 -1.387473807741380349e-01 1.528410080968213292e-01 -4.278504719772113080e-02 1.036514015852595255e-01 8.078000120520463512e-02 9.223340951785960820e-03 5.157224536329330783e-02 8.585253588986678508e-02 1.935930370906855380e-01 -2.861979106018329722e-01 9.611029347811769763e-02 -4.171484947471813115e-02 5.719668334346154209e-02 1.203154841968920724e-01 6.425602145897431339e-02 -1.716790420635309067e-01 -3.931980153246303900e-01 -3.607536015986403943e-01 -3.109473694858073678e-01 -5.033132205760225408e-02 -4.089198724894063108e-01 -2.826444452743300251e-01 4.987027628507013227e-02 -7.348988924474071822e-03 -5.527113944119705496e-02 -9.736253222335597424e-02 -2.649352857811517747e-01 -3.657533503299333771e-02 1.282684690215535050e-01 -2.964653485714519587e-01 5.414500147295641524e-02 5.353454491588451741e-02 2.251608371318888080e-01 -1.255925181151035241e-01 -2.766363541107157153e-02 -2.879573837003885500e-02 7.646403320036673779e-02 -1.736283050695535887e-02 -1.029132702962122919e-01 -2.699391951212376864e-02 -1.479192972188270172e-01 -7.738116053405860728e-02 -9.963808088503831040e-02 5.590496509177723256e-02 2.753782716135522168e-01 2.187768688009292806e-01 3.523250326308390717e-02 -1.267502146133845375e-01 -5.218638459259024309e-02 -2.942205614531796520e-01 1.985666265305993106e-01 5.663225228707589182e-02 -2.444900351036860819e-01 3.587437393153121157e-01 -1.881239991272945500e-02 1.482662815899042814e-02 -1.958272584897386703e-01 1.323953352488468072e-01 5.865612714993881371e-02 8.208211746839151612e-02 -3.194790773378794468e-02 -1.102969367910654197e-01 4.037458184672116507e-02 1.135331363961541995e-02 4.264868226288605346e-02 -9.937245942122378828e-02 -2.499209446731554818e-01 -1.096688451306569306e-01 2.907826011693417922e-01 -1.850194534174938732e-01
-3.169154627736510410e-02 5.532911140470338218e-02 -1.394814961390057617e-01 7.379332733499256725e-02 1.503772455321294998e-01 -1.301051226101212488e-01 -1.905283514982621385e-01 -5.304362553501655586e-02 1.781462166642769004e-02 7.306514319183061990e-02 -2.576085408666630716e-01 1.697927910052842576e-02 2.240134516314986890e-01 3.329144369884915605e-02 -8.579555587657841653e-02 -5.676501688688072311e-02 1.322633310625070946e-01 1.434895991649492164e-01 4.677799716471831709e-02 -1.877201660454410129e-02 -3.650590459350814112e-04 -1.934700835779427641e-01 3.025998446172164721e-02 3.631788237270983100e-02 -1.493053121131037997e-01 -1.112403132556740240e-02 1.922928256891417997e-01 2.277903088929619790e-02 -4.471492225903349327e-02 9.018096806202267890e-02 3.353959219102833900e-02 9.025112033660281658e-04 -2.054801318465422910e-01 -2.678626377810790909e-02 2.580091145981209047e-02 -2.755427660260476586e-01 -9.117763387331351277e-02 2.135788772528985635e-01 1.400368280230189673e-02 -8.839299105375568455e-02 -3.443876089349760805e-02 -2.903552233807556865e-02 3.963756227745933447e-02 -2.890581875346059371e-01 4.020630247005105296e-01 6.155113991047771876e-02 -4.998290244504033364e-02 -3.390855567914097170e-03 -1.078329284842285615e-02 -4.111432637200260198e-02 7.599184882221386717e-02 -1.154225032913079457e-01 -9.359991952025641104e-02 2.621112498455027001e-02 -1.073177072497245171e-01 -1.771463013227517203e-01 7.518982501278609343e-02 1.025035905177512779e-01 -3.346605221001214270e-02 9.178910091423453377e-02 -5.584706912852364230e-02 -2.200093910243890519e-02 4.333928735936597165e-03 -1.475362865043944038e-01 1.727280510584131290e-01 1.160255599497160561e-01 2.060817719913582979e-01 -3.724720489722308653e-03 1.460464277153829260e-01 2.841246029278814839e-02 1.529278905614225303e-01 -1.875682298299384543e-02 1.088748846763821707e-02 -8.762254617968733006e-02 -1.201027770824283358e-01 -2.442561540966842748e-01 -3.118098868206687913e-01 1.364257316090329852e-01 -2.902042701500134880e-01 -8.461045328705892044e-02 -1.002244873114391810e-01 3.412880408579907487e-02 4.451381786680658204e-02 -1.192552377752367776e-01 1.041955493804017363e-01 2.029959333988967662e-02 2.481411683189951520e-02 -2.835648429422294586e-02 3.471204700429246504e-02 -6.066718512362705845e-02 -1.341139396635964987e-01 9.344047108779419963e-02 -2.253201300674400887e-01 8.747615336775975414e-02 5.210237932099680280e-02 -4.778236716093465369e-02 -1.135693859443914211e-01 -9.334703951874118166e-02 8.497155968332627263e-02 -2.850475427403999229e-03 3.020756181324827927e-01 -1.310721584015546448e-01 -5.156068295644683497e-02 -1.392234048668544201e-02 -8.562108475823394793e-02 -2.274109273738934567e-01 -7.139024738122021208e-02 -2.768963029491542382e-01 4.778500294650542962e-02 2.664947112304360752e-02 -1.096214462843435183e-01 -8.651344471166629024e-02 2.864420616182036805e-02 1.630602862469835435e-01 -3.483476228005989717e-02 3.704716255579318385e-02 1.852028442786621612e-02 2.120294886374899102e-01 -1.039283131475140787e-01 -2.843848295532308557e-01 -2.531964507116948315e-01 -1.229322672730714522e-01 -1.546578059275216521e-01 1.383638219527395241e-01 -1.018351185221388483e-01 -8.483379750366818253e-03 -1.352544034688233331e-02 -2.520427733556723227e-01
-2.764699260687892776e-02 -3.682306384138172572e-01 6.596622133914491204e-02 4.102443926784780648e-01 -2.718370488058516887e-01 -1.635118735307513615e-01 1.699583344168317522e-01 2.805992593421862691e-01 3.058617083855506569e-01 1.233953302007724517e-01 -1.729305232267575876e-01 4.735715802403250331e-03 2.400157332091402418e-01 -1.080834296673974931e-01 -2.512754532372100669e-01 -1.565863431657102955e-01 3.956711006854730928e-02 -7.448272274413758609e-02 -5.405136605668363625e-01 4.608936208119834843e-01 1.995918808148184342e-01 3.924606183483575483e-02 9.215521227940308424e-02 -1.793600446292067385e-01 6.297616776728788557e-02 1.335250853421370565e-01 1.236471818858075333e-01 -6.831882786622490988e-02 1.419298449997418998e-01 1.233185485777255896e-01 -1.369114015016675012e-01 -6.276262167599471198e-01 1.267579843458980504e-01 1.283605676857713096e-01 2.926112668649115678e-01 -2.062852540781258126e-01 -3.975849627127299446e-02 -5.780127847923937079e-01 -3.428771840938530935e-01 2.172144503679118988e-01 -2.287569488236703696e-01 -5.751528612087354331e-01 -5.086587949083216237e-02 -2.259358760851223058e-01 4.817606914411773356e-01 -2.598771841852985376e-01 -1.922208284288851260e-03 1.061338167446087832e-01 3.563703244848741292e-02 2.572231352972122534e-02 -2.424867577620756776e-01 -5.971600997341658390e-01 -9.988601064254568063e-02 -2.786097853450474338e-01 1.833778987973334329e-01 -8.016836906202233770e-01 -2.021109164430655580e-01 2.155660501567353837e-01 -5.083583054728679773e-02 -1.473982998693319779e-01 -5.864336484299615543e-03 -2.985367433219406341e-01 -6.883912291825315666e-02 -2.041755330660430801e-01 -1.771329152676193452e-01 2.671744375979495656e-02 -3.485403518554738844e-01 2.651887744632775434e-01 5.794638023163662527e-02 1.363383293683844144e-01 -2.198283644959852789e-01 -2.123747004096716295e-01 -5.210053442354552200e-02 -1.751616490818088123e-01 -2.326923301453044934e-01 2.821286998130332832e-02 -2.881462393363256602e-01 -1.913160328501457841e-01 2.902130294008222200e-01 -9.079404876739302632e-02 -7.205738462172418812e-02 3.150471809657556799e-02 1.075716863455783157e-01 -7.259863933050954288e-02 1.150369556527700704e-03 -1.191424033314927716e-01 1.444239679414830169e-01 -3.490358570161541246e-02 -8.083743385596817155e-02 -6.388452353656275395e-01 7.988091368896244049e-02 -1.175460019885562618e-01 1.368398434546895248e-01 -7.421272399233172501e-02 2.897317291808404471e-01 -8.404372053607588045e-02 1.868296483932858076e-01 -3.916463194427572958e-01 -3.094582935527814133e-02 2.293635052251178155e-02 1.667697844225022319e-01 -2.676165232625589141e-01 -1.643091741971874215e-02 -5.093015109583866329e-02 9.781843412641971769e-02 1.724606929779948783e-01 1.866729377276925006e-01 -8.557614950376911667e-01 -2.942744721687666209e-01 -8.457125416303734600e-02 -2.763510581916898134e-01 -7.461867980699166125e-01 -2.025248145436078437e-02 7.029315933324717380e-02 -7.861207588473250185e-01 -3.558204086126253579e-02 -4.330759997501175407e-02 -2.317966406943907254e-03 -5.977626790453793859e-02 -4.815823550433125377e-01 4.474847657282897406e-02 1.907272544572880812e-01 1.914983417270071930e-02 5.108165361652720199e-02 1.144300905094757931e-01 2.310759559489645315e-02 -3.119087038654447808e-01 -5.956663580674257386e-01
-7.738056223241562837e-02 -2.077193623598477812e-02 -9.597508412653858734e-02 1.382699596259422403e-01 -1.030764539890558218e-01 -1.595827279072100091e-01 -1.920278267651714388e-01 -2.682411521111837879e-02 -1.142322485218524447e-01 -8.378646512414170133e-02 2.039438126657028838e-01 -1.551059798643059616e-02 3.175120231248657610e-01 3.689887326468730550e-02 -1.935480185913740769e-01 -7.814646054217848359e-02 2.725600222030796216e-01 7.575794125468578166e-02 -2.648321674734780973e-01 -1.434867260673481637e-01 -6.011835795088031620e-02 2.033326354247268763e-01 -4.218507529515718585e-02 -1.050245114841145688e-01 -2.260966866098395311e-01 1.855857897498969511e-01 2.763874746303304764e-01 -1.840124185463828943e-02 -2.021843606857767206e-01 -4.409264389148385282e-02 3.888253116060558928e-02 1.703203045111291170e-01 9.397271943729125498e-02 -3.924449025205616060e-02 -1.234444895585823897e-02 1.381421793351249316e-01 -7.163639758901796384e-02 -2.116797966178490809e-01 1.829337751227255449e-01 -9.447374855311733988e-02 -1.245848807012131937e-01 -9.853985971399822907e-02 -1.772746690897891442e-01 -3.808549524530163016e-02 5.831560489924667023e-02 2.838256995378625122e-02 9.679005475811530701e-02 -5.517774439472961784e-02 -6.911327688056985441e-02 5.383528530740164762e-03 -2.093104243609058279e-01 1.055872343950842313e-01 -4.859849800723570201e-02 -2.240225155866250872e-01 6.952889441547666083e-02 1.839281004674280240e-01 -4.636885009692039844e-02 -8.035594901466794338e-02 1.230720408227023721e-01 -1.187163307001346951e-01 3.529650069569990195e-02 -4.173920292068390714e-02 -1.432831490185543233e-01 1.664252205719898847e-01 -1.735879009669679882e-02 8.025683993253329707e-02 -4.854699819405179639e-02 -5.623795825672848331e-02 -9.608412334500274210e-02 2.193597821364135503e-01 2.966809957082856136e-02 -1.633794200671821739e-01 3.279449923241254533e-02 -2.824828827307337975e-02 8.275484951737097084e-02 -1.834246173710337713e-01 -7.411320054008975478e-02 1.111908342478444695e-01 3.479497317246280086e-01 8.330859363497604420e-02 -1.746902266144692295e-01 -2.206276605464901064e-01 -3.146990251506213976e-02 -8.558863483003927020e-02 8.142070752037938730e-02 -1.917334827278796283e-01 2.021313288499342400e-02 8.601443919091690538e-02 -7.263544915736169783e-02 9.873581833135561259e-02 -3.571244464404833840e-02 8.666241780492545121e-02 -3.264378937920238422e-02 8.627927008195401815e-02 -1.574266204806510638e-01 6.331032216794883760e-02 -8.033507828989101818e-03 1.300895075275283197e-01 1.461470805064790934e-01 6.723952164629848815e-05 -1.235059265671962503e-01 1.385773874545216111e-01 -2.077105172578277703e-01 -7.988188707605133054e-02 -8.137924288392144045e-02 -4.344243230731516942e-02 -1.272991725933397267e-01 -1.905027490648589505e-01 1.012216381859734398e-03 4.870554185183498253e-02 3.471604847186971626e-02 1.382965097090225748e-01 2.110087479628547091e-01 1.122597652856087980e-01 -2.042802974280759354e-01 -2.389113090868317246e-01 -5.139670769339099027e-02 1.596984484944624248e-03 -8.898677036357664077e-03 4.214036971853455521e-02 -1.017898310068129780e-01 7.813435962218660824e-02 -2.590458527902285771e-02 1.657185062909715123e-01 -9.099970192478207265e-02 2.291551456154890601e-02 -1.069135586642400854e-01 -2.466400154073761231e-01
-7.301976426900332051e-02 6.203596292845858784e-02 4.614253628432612997e-02 7.394563086956668259e-03 -2.869785899888976574e-02 -1.951438599955226602e-02 -1.535759945717750201e-02 1.721098158506426459e-02 -4.656665273834964536e-02 -2.505039472883834051e-02 -9.925187582557518096e-02 -2.739189699861082489e-02 -2.028657397925658079e-01 7.874068414328630472e-02 7.376184235214608420e-02 -4.327000174004790728e-02 1.535486254616355295e-01 8.219103777814121270e-02 -5.508197605229986187e-03 3.266147758557987058e-02 -2.530611977891602041e-02 5.310683720955935300e-02 -9.273917662719115274e-02 9.320301701706014408e-02 7.081745997760646727e-02 9.820892898272087779e-02 -3.348505735467887648e-04 7.219179527382434125e-02 -3.684428586462232258e-02 8.908833039420821498e-02 1.240237972442262832e-01 7.317896795973075075e-02 -3.305673881007470394e-02 -7.549524683735953090e-02 1.565200259953387352e-01 3.352706511889860103e-02 -5.918036775311931452e-02 1.412911486210750023e-01 -4.407149007165929444e-02 -6.251733534726706953e-02 2.534123431852136066e-01 1.236577555879210671e-01 9.054304791051638254e-03 -3.259641667351500377e-02 -1.476739920060329003e-01 -6.529695512848650296e-02 -8.232258475230605499e-02 1.102844737403162190e-02 -6.726586111239352128e-02 -3.983381702424469706e-02 -6.453345374150384374e-03 3.190211333079578243e-02 1.442959234869485574e-01 -1.357221683230117326e-01 -1.391599818676926732e-02 1.215475634281697331e-01 1.234991509786599051e-01 -1.584034902583071960e-02 -2.648316916219974407e-02 7.457985309959014320e-02 -3.822385768530543043e-02 2.008983046422120264e-02 -2.051876755750806774e-02 -4.665188178301550581e-02 1.588194867387361375e-01 -7.718155571244374180e-02 -1.541449220734799064e-01 2.781373920796870874e-02 -2.220928835622958814e-02 9.565377962445310855e-02 8.448173568815213474e-02 -1.138932851558961679e-01 5.846691424883405236e-02 -8.891938951532327162e-02 1.376667673647255508e-01 -9.995686486360347983e-03 3.957007393008953738e-02 -4.414669917785406239e-02 8.542300423825491262e-02 7.829200491538544637e-02 -7.536576872256525728e-02 -4.264910084817329083e-02 9.746981776500589223e-02 -5.635684057112830964e-02 -3.402609936400170093e-02 -8.149719758601124686e-02 1.817396489773165716e-02 -2.126850854955982320e-02 -1.022498023724532634e-01 -1.062826759984397962e-01 7.053537397116696472e-02 -4.170541582234916361e-02 5.263087857718467405e-02 1.059946285834611479e-01 2.578746460979381983e-01 -5.477252845166454692e-02 -8.358131737362234359e-02 -4.394577435974033990e-03 -1.176674282369430391e-01 2.488514758424643369e-01 -3.435235337085086604e-02 -6.923033838149658670e-02 -1.790579417235661497e-01 -2.984952352986740623e-02 1.079499522087365992e-01 -1.979380113454874343e-02 9.387291919676407637e-02 -9.524610076158626648e-02 1.453659012951741547e-01 -7.192174901656543662e-02 -2.547086992421854559e-02 8.760649180452495521e-02 -3.008053856729892700e-02 2.596000597095874177e-02 1.239237339774236363e-01 -5.189155068183706060e-02 9.142336403939828327e-02 -6.546627245396639816e-02 -7.929171952803298895e-02 5.440488496690083775e-02 1.113368177177758850e-01 1.037784568788583800e-01 5.785311969743529847e-02 -8.756661745130081553e-02 -6.419355391264314203e-02 4.899701289686517885e-02 1.917543525571997233e-04 -5.341404000722875869e-03
5.692967236574229990e-03 9.347804108156444747e-02 -1.012807789532987335e-01 8.324106299382751095e-02 1.844048294467725280e-01 2.662934064835303927e-01 1.348729137649390120e-01 1.649641596106627209e-02 1.029195762616355869e-01 -1.340571507700395737e-01 -2.313613096827875359e-02 -3.539555163771317403e-01 -5.386037527420858284e-01 -1.195021230262934830e-01 4.702859618521555984e-01 -1.575677540798172196e-02 -4.592243748958425853e-02 -5.489432538871280576e-02 -4.430593344421068086e-02 1.687988971440640695e-01 -2.917848933551348556e-01 -1.426127346892036053e-03 1.356512525381239620e-01 -3.651134242184630313e-02 2.260387815968898095e-01 6.371084684643968377e-02 3.373017606430211424e-01 1.278879685269174692e-02 -9.064516316070178603e-02 -3.451464046316333190e-01 8.963488141723047198e-02 2.602555223250304084e-01 -1.547786055556050859e-02 2.067931573263651242e-03 -3.846137456788407127e-01 -2.339546411740599796e-01 8.421766772665928436e-02 5.631992917619314809e-02 1.437724406971153945e-01 -1.007174185164202117e-02 -1.115886906341299542e-02 1.889777357104734656e-01 -4.333716886712093291e-02 4.362577353394602071e-03 -5.667340020111343302e-01 8.021585748862763987e-02 6.456168628221502226e-02 8.251723631537134784e-02 1.050727305778328541e-01 2.900391189370834372e-02 -1.069390837920936171e-01 2.561770139004823088e-01 7.338315571085678515e-03 -1.020226573627393135e-01 1.606514589444850427e-02 5.495358637070976021e-02 1.452303467909212518e-02 1.242371311565707154e-01 5.847945482860647526e-02 2.775772414496085472e-01 2.349828128155468376e-01 -1.990968301867163462e-02 -4.610191686061921451e-02 -1.304051678267169057e-01 -9.150555203258992076e-02 -5.773176173531331667e-02 -2.628278687381699896e-01 1.170557774169272008e-01 2.749716057483734058e-02 -5.825478362283074280e-02 1.470317508436578061e-03 1.331888585443393724e-01 -1.720170341594358665e-01 -1.081205659572666705e-01 2.550173955376644486e-01 -1.046561551545323668e-02 -1.575638670925525939e-02 -1.966378214863771789e-01 8.390954047089410617e-02 -1.209639155695349660e-01 1.404670717884477504e-01 1.762737413677984144e-01 -3.690088738802019958e-02 6.434581213257931087e-02 7.705148533043629233e-02 -3.800680378724343167e-01 -1.430355538849151509e-01 2.762393768771614910e-01 1.354168050756349162e-01 -2.545764427384648032e-01 1.928000110695019531e-01 -1.662241526868913633e-01 2.142893982255623594e-02 1.114065446448121444e-01 -1.612949251625092964e-02 2.214185499467295239e-03 1.306280586522224896e-01 1.220952756650151849e-01 -3.383633312285785344e-01 -1.137117296171847036e-01 -1.331672997191796215e-01 -7.972271973332373252e-02 -5.513892185048533540e-02 -6.861383966428774572e-02 -5.926600221396378237e-02 1.616026634171034426e-01 3.171951162420432596e-02 -6.912411542676530352e-02 4.490534780152585781e-02 -8.199270975148495455e-02 9.685540287587710018e-02 8.688806071390321739e-02 -8.082310090341511544e-02 -9.068364487547347919e-02 4.784787944419830602e-02 8.830961266714323910e-02 -8.393444316422607465e-02 -5.315434238588295085e-02 -3.798917158361757307e-02 1.400764131982281113e-01 4.598584101054471740e-02 2.329511545102249878e-02 1.761589302868023788e-01 1.307061622901149467e-01 3.275834357156971570e-03 1.380850108616651570e-02 -1.429792942923474863e-01 -9.181633537220958152e-02
-4.978679619650654836e-02 -6.034214970839654746e-02 1.155200973631011069e-01 -4.868549029123071803e-02 -2.132426805493003452e-01 1.155179909151748535e-01 8.447935351135039961e-02 -1.058402397468415496e-01 1.405384534202639979e-01 -5.192328505022489327e-02 -1.602337730513198333e-01 -6.066478165416435905e-03 1.883711348084557702e-01 -1.022626230532753394e-01 1.092686085387838124e-01 -3.038411287586178025e-02 -2.203723370088978700e-02 -1.936995163440362972e-03 -1.947009887978581877e-01 -2.450191243772924243e-01 -1.413663731741570395e-01 3.277780447159387572e-02 1.294295290912316765e-01 3.391830785891286615e-02 -2.384857194741264730e-02 -4.591250210128592496e-02 2.322503163388411201e-02 5.475661502785347107e-02 3.883835938726228239e-03 2.091012771299319631e-02 7.884901317496240125e-02 5.384040732269468332e-02 -1.317702369318668291e-02 -2.512000735508107020e-03 -1.456340809761889621e-01 -3.462946483646574952e-02 9.098668236031827450e-02 -2.618753343687248852e-02 -1.376639825322348853e-01 3.257735525196210624e-03 -1.395029277273101553e-01 1.138191891700166512e-02 -1.448279574681038684e-01 -1.359020352831429579e-01 -1.659782798928313013e-02 -6.585812909206074928e-02 3.704838278419190362e-02 8.729465152805078454e-02 -8.155155398360616759e-02 -6.389779788123664539e-02 -3.334311153174042419e-02 1.989531701849799328e-01 9.097236607130397557e-02 -8.439325936735617151e-02 -5.781725314156669487e-02 2.162245591998122538e-02 5.421561990102148794e-03 -4.955021757627406549e-03 -5.894192634081911464e-02 -7.942631328322317941e-02 -1.253462819476137136e-01 -1.871610471828025202e-02 -7.699655578837051595e-02 2.711749503786217708e-02 -2.687800525612785846e-02 9.033379368574739887e-02 1.850765246323870516e-01 -1.374299607233932796e-01 5.687444719609107552e-02 1.457320069879538826e-01 -1.599684763413190824e-01 -1.061440204191297677e-02 1.056569669076808937e-01 -2.283681877076517430e-01 5.186977145962244629e-02 1.195818019283474004e-01 8.238186037025023445e-02 1.330785989142813791e-03 2.562793377952874915e-02 -7.334884477617989451e-02 -1.191384258025633830e-01 -5.209734927286356621e-02 -3.222183038072630457e-02 6.089578255337622925e-02 6.987068978619262460e-02 -7.568151243503375147e-02 -1.429770421785318824e-02 1.272392810270243646e-01 -7.263981345772398124e-02 -3.188981152171082439e-02 2.641896557761277183e-03 -8.183229904576357072e-02 4.503228614938028368e-02 1.647894121555120578e-02 -1.258611380590619888e-01 -3.362035515263219615e-02 -3.827539120590058019e-02 -5.658873161828185255e-02 -6.067791490367249740e-03 -1.603872053447404633e-01 -1.380078452666461675e-01 -4.140352293798812977e-02 -1.021748309969352370e-02 5.052843586374579365e-02 -1.140186933439232657e-02 1.186880889308977588e-01 1.880113319575826836e-02 -8.454700166206696732e-02 7.987194918705993463e-02 -6.111965342645479804e-02 4.670780004067111302e-02 3.189641187870104894e-02 -6.916963630468379691e-03 1.480598789511676267e-04 -1.953277259814875932e-01 -5.650633325832028764e-02 2.491225359912057485e-02 1.452336479742141195e-01 3.052980414967290668e-02 1.448850716594258792e-01 3.905713121505203361e-02 1.361017896326328358e-01 3.147993353874880412e-02 -1.223073537906527869e-01 -1.398888467111801259e-01 -7.290103860566644889e-02 4.198384821660680610e-02 -1.896462193168743371e-01
3.793581895921302460e-02 4.974701452684415076e-02 -6.827701636691495268e-02 1.185851352934458175e-01 2.566591491272314784e-01 1.698651785348032767e-02 3.063729028066533230e-02 1.176472069642499202e-01 1.176833496980849922e-02 1.645460922625776312e-01 3.921516586625262701e-01 -1.032096873817022475e-01 1.253795591961060288e-02 -1.595993088618219424e-01 3.707248355011449892e-01 -1.041463572051381722e-02 2.842372713677319973e-02 1.026667756857759933e-01 9.326598977512910726e-02 1.760121181143672886e-02 1.143671167982183295e-01 1.085281204672199906e-01 -2.210964236119987783e-02 -1.887863156118936916e-02 -1.718108927093782712e-01 -1.956573181956351715e-01 8.393430639060414297e-03 1.664007557975184792e-01 6.563111890387700320e-02 1.146303972749298239e-01 -9.054913567078826109e-02 5.860042186191231905e-02 -2.124762114932099086e-02 1.434951178744247047e-01 1.449068161691811352e-01 -4.456871524639770960e-02 -4.554753205906763441e-02 -1.379611777810570150e-01 -1.874287541715566330e-01 -4.189173077976166004e-02 -1.745519206009982782e-01 3.769990198703400061e-03 1.529260165220097667e-02 -1.287221441220932072e-01 -2.302803357975440057e-02 2.852679791044177861e-04 -1.721460187409389053e-01 7.600655484104539006e-02 -2.214088323814624761e-03 -4.315135044116572005e-02 -2.847939096190967717e-02 2.119108329672881597e-01 -3.671445489482303426e-01 9.121651414641910802e-03 -1.451268999875009180e-01 -1.600465387024860575e-01 1.401152416848491788e-01 2.318871183788675794e-01 -1.205845478344954105e-02 -2.098230953898222798e-02 1.543308346563265487e-01 -6.419102954253126658e-02 -5.014696882243675075e-02 6.797955156028721857e-02 1.650429540236576231e-01 -2.040311936499425785e-02 1.895905718463658796e-01 1.431906830384434282e-01 1.060025233218896551e-01 6.497473383560598004e-02 1.080303370006241437e-01 -1.086173586540149782e-01 1.533591877212869825e-02 -1.492648604581090985e-02 2.211044615051045714e-01 -1.044952742280127328e-01 -6.388771972200371074e-01 -2.936985815554627594e-02 -2.405025217064115650e-01 5.630704157339552068e-02 -1.946218949899958250e-01 8.834062114503517249e-02 2.539079424268237545e-02 1.073122622840156082e-01 1.372149536622931792e-02 -6.184612482119841020e-02 1.470452692766741620e-01 1.444645893961147287e-01 1.052726839433174993e-01 -5.490438054412508095e-02 -1.523076800425886002e-01 9.786932158477411325e-02 3.520320863750530521e-02 8.834970575057553288e-02 -1.329931363390914056e-02 2.642355064300634312e-02 -4.384973450371341952e-02 -7.357057517357662446e-02 1.269768088542083395e-01 1.223830831184155449e-01 1.034722318147326126e-01 -2.062802473584809393e-01 -1.236547754383435921e-01 1.098480872169245587e-01 5.937891990961655098e-02 -1.427535374113385325e-01 4.335097846723854481e-02 -4.430091976301466783e-01 9.567843386549045037e-02 -5.311177540761519156e-02 -1.458276154938313862e-01 -8.848850092023811953e-02 -9.481931842960171497e-02 1.510408208774084160e-01 1.948778702942321750e-01 -1.495856398659219100e-01 2.143075315234443251e-02 1.027876861123686036e-02 2.185788388504976421e-02 3.954690062478904977e-02 -7.228600871646570503e-02 -8.451135311114972570e-02 8.169506463747482072e-02 1.963336571528670471e-01 -1.029705605528259821e-01 -3.938659573967970978e-02 -1.787851058855350062e-01 -1.262376540964561984e-02
2.262040707745231402e-02 -8.034367463407095233e-02 -1.197614334221650395e-01 -1.704141405835563339e-01 1.719352684809119514e-01 -3.610012798955938157e-02 6.798900192296931932e-02 4.599606937234064497e-02 -3.241451597765011017e-01 1.020044343840416368e-01 2.265440351138361397e-01 -8.040653534826754101e-02 -1.749913911826507518e-01 -1.433359221191079780e-01 9.745671425179731895e-02 -8.290042940473880961e-02 -4.083496708394961927e-01 1.053650991083587667e-02 1.154174170756349371e-01 -2.150143650107157467e-01 2.409616028293934398e-02 -1.409226130507214847e-01 -8.443650241312106175e-02 8.594166099937960990e-02 -3.726370471790818595e-02 -3.755641038705374579e-01 -4.604131571047406779e-02 -9.267767010338363864e-02 -8.311145350848374302e-02 3.147546692381535810e-02 2.113769350194062355e-02 -2.047187523392019481e-01 -2.618551513323382970e-02 -5.060138382165185050e-02 2.160526993799283535e-01 -1.697147570823261675e-01 1.540665864670501088e-02 1.518062012638662639e-01 -4.124055736675584505e-02 9.452295285621770040e-04 1.433799658827111800e-02 -1.789107971448120615e-01 -6.137786493542740640e-02 -1.373451230203868723e-01 -1.062301740870161132e-01 -3.951054919626705020e-02 -3.385770112790331132e-01 -1.901040997673489052e-01 -3.895803953744465115e-02 1.393677868666159253e-02 3.606773074460111980e-04 -8.155551256571053065e-02 1.099407317442735038e-01 6.980923315957494879e-02 1.349447926099211492e-01 7.336495857931885078e-02 4.990943886907488886e-02 -4.408714561548403993e-02 -8.756419732371759079e-02 -3.487360514735892564e-02 -1.710501881447115125e-01 -1.013739686241295485e-01 1.420912178108049706e-01 1.412733950218162948e-01 -2.219114155563796376e-01 1.022492071946058817e-01 4.713152175313303077e-02 -1.912931172807903479e-01 -7.157226601941378726e-03 -1.661565546468230237e-01 7.218208133223562306e-02 2.400164764356087915e-02 -4.534567714386167347e-02 -1.351584392002995183e-01 -2.682774850894454333e-01 -2.687762212721691024e-01 -4.068967706813375780e-03 -2.559811595330345746e-01 -3.989556646022887065e-01 1.697261861874314144e-03 3.793590167957387738e-02 -1.201536187994460547e-01 4.088494407795594671e-02 1.658683367390461072e-01 -8.835084686205113558e-02 -2.403600169375671169e-01 -9.288822531184054432e-02 1.612911786010282067e-01 -1.334726696982308503e-01 1.372126830214656645e-02 -1.803891866174578071e-02 6.724148646852744216e-02 1.695495834215609426e-02 -1.068785942658184024e-01 7.032205342329554687e-02 -2.311572045231045577e-02 -1.059761592309745211e-02 1.167649059838195974e-02 -9.972094315458221100e-03 -5.527426245322817483e-02 1.955979918393362105e-01 5.209451894273121192e-02 1.726329316753783261e-01 2.537263101603293158e-01 -1.017179717989273868e-01 -3.582632628807334574e-01 -1.284024042838755042e-01 1.545271551235595231e-01 -2.449876376507990061e-01 -9.164846679203508817e-02 -8.945381449606003288e-02 8.814859255154107454e-02 -1.304142868893424789e-01 -4.252476772119083703e-01 2.456683544598018132e-01 -2.405761638382853396e-01 5.262156250274066527e-02 -8.367362477522322095e-02 -1.177745300554637053e-01 1.260792331014815582e-01 -2.530713109617738765e-01 -9.412275670358073720e-02 -6.363137569803159477e-02 3.402515601789515148e-02 3.722273689531909596e-02 2.757607218034436106e-02 2.604065976749114220e-01 2.803907537128352279e-01
2.603526550916887561e-02 -4.299468847087908885e-02 1.686318378537388640e-01 -5.709906550811093186e-04 2.800738261784208039e-01 1.262145592905747002e-02 -2.788375430390787058e-01 1.874118276147702933e-01 1.661569538742534158e-01 2.164331622065331917e-01 -2.700039706670371298e-01 -2.336779040349339642e-01 1.770058670624130928e-02 9.208150496411243724e-03 -2.916120284733374479e-01 -3.669483371357761675e-03 1.736838738766118828e-01 -2.490698056226518797e-01 2.216262203476162262e-01 9.325316365458544143e-02 -4.486312411404655420e-02 8.095839339911684029e-02 -7.575965093956994745e-02 1.643577448283750353e-01 -2.071435293115269916e-01 1.674327190951397093e-01 -1.988716548262778328e-01 1.894728114814828446e-01 4.110625150198015526e-02 -3.489124708638213779e-02 -3.143058142184469717e-02 -2.292442875113304412e-01 9.575413736557301936e-02 1.454787005819372647e-01 1.470607660426140884e-01 2.768022688578537505e-01 3.274182460488486018e-02 -4.992470866804933627e-02 1.046745609940130523e-01 1.283776211821401406e-02 -4.588227650082564169e-01 5.733033197625332644e-02 -2.421550004752987331e-02 2.329157109750150390e-02 -3.875001194086501091e-03 4.268855089867047703e-02 1.911898673632338869e-02 -2.752161269081310202e-02 -4.822876543612331091e-02 -7.642749519375904854e-02 -2.597211451037436114e-01 -1.703581854120243266e-01 8.153584263494842443e-02 -4.992809898370488553e-02 1.931012373564421625e-01 1.666892151233777819e-01 4.792325575146230698e-02 2.010925464052374934e-01 1.145365256074155624e-01 -1.801712562259525086e-01 -2.283527434983090298e-02 7.399293452069016785e-02 2.440136862151930791e-02 -3.253795526076605493e-02 -1.456756927663489798e-01 -4.127041846826650512e-02 -2.107817591307220850e-01 2.764034976959059420e-01 1.349743157409282954e-02 1.642276645333025642e-01 5.839080123659094040e-02 1.399823658036921936e-01 5.082967630907451323e-02 4.021053418422030346e-01 6.380187728315311890e-02 1.480583338676782212e-01 -1.518026922738937960e-02 1.029755630860137300e-01 2.870501506551468296e-01 6.273724974604852345e-02 -1.209982665204191281e-02 -9.495662048328815108e-03 3.529089485079162092e-02 -4.239977237148949418e-02 2.374101697914900166e-01 3.420223572445527799e-02 -1.557882402820370653e-02 1.036129765586882995e-01 -2.877455788271133727e-02 2.685182369637781341e-01 -9.889996890890696835e-02 -8.409581351392939053e-02 -1.931284778751799283e-02 -6.619071842859561294e-02 -3.303830084337304185e-01 -8.659824581612962646e-02 3.970700749996483592e-02 1.475124794122648075e-01 -1.552711007842835500e-01 -1.905208282573953027e-01 -1.388424146701361384e-01 7.940390521945275837e-02 -3.234639109425693215e-01 -2.291798072330509806e-01 -2.103121053242944672e-03 -2.321869772068544877e-02 1.244818999145545259e-02 2.241320534711390977e-01 2.477150925068323795e-01 8.601865300674914339e-02 2.269875661626886143e-01 4.499929303258319579e-02 9.348509766598355614e-03 1.818126326019216532e-01 1.682852612563176531e-01 5.877654889877918093e-02 -1.284044347884111537e-01 -2.166211561659012741e-01 1.579350602803066828e-01 1.006308303882393895e-01 3.670520105552977502e-02 -1.668380237995278556e-02 -1.480840420812783442e-01 1.090500633613250003e-01 1.390105262490730353e-01 -9.176864563466165248e-02 -2.782549407543698505e-01 -3.075612227879676377e-02
-9.296795527241848156e-02 -1.905965907293122596e-01 -3.767276365680767847e-01 -9.255399535545046769e-03 -1.805321297714233275e-01 2.607319205451982813e-01 3.077747088745675375e-01 -1.624010385490798625e-01 -3.062900696106372889e-02 -3.328633910807866914e-02 -3.020499630732857059e-04 3.735447211000807455e-01 7.246696548022638074e-02 -2.142708007555790481e-02 1.373546994741208296e-02 -1.472869845077912909e-01 -1.988438845566175561e-01 2.559474342598504482e-01 -2.622465727762815328e-03 -2.895848969950496343e-01 8.004223971492180345e-02 -2.095928195254512516e-01 6.803631110544616778e-02 -1.288351243396361201e-01 2.497254596697243145e-01 -1.592821318779351902e-01 2.311998921100519994e-02 -2.217858635405521861e-01 1.130811920238760510e-01 1.393715089477038371e-01 -8.930702722609658306e-02 -1.694621057666965969e-01 -2.230905260128522860e-01 -1.091762171266180692e-02 3.740180841304106829e-02 1.198580553544903032e-01 -4.597480379808704248e-02 2.062225763632501846e-02 3.832045946193836372e-02 -5.113601438380622338e-02 5.012758561768092952e-02 -4.456166907859175907e-01 1.553874496363497892e-01 -1.338937522400426572e-01 3.268441093750404369e-01 1.133872003892581574e-02 -1.489630605059639734e-01 7.213502942942605356e-02 2.275774539164248378e-01 -5.126182141945741927e-02 1.998283036441975136e-01 -1.529726173588299154e-01 -9.749672867847045121e-02 6.377455268339557448e-02 -7.885106909811422093e-02 -3.757699387356971954e-01 -1.959694770756625730e-03 -8.233879599716967257e-02 -2.486131003227601624e-02 2.537697911278212204e-01 2.263441050106919372e-02 -9.193565794441598341e-03 -5.628507643818519979e-02 4.311562434650507286e-02 -2.081645701352819455e-01 7.600467162040942803e-02 1.653293754976349356e-03 -5.927729120770704879e-02 4.512533751967738593e-02 -1.356177478355938826e-01 7.817578845920716835e-02 1.141272659199656231e-01 -8.695841886992497494e-02 -3.154341742539387011e-02 1.042862418704449817e-01 -3.551142893864029509e-02 -6.021994461251272551e-02 1.523803983765530390e-01 2.093385773974547337e-02 4.998538659872786560e-02 1.194236058790669602e-01 -2.162961207406589870e-03 -1.131743330214387278e-01 -3.011803140839776349e-02 1.562566423800534204e-02 2.562405028775062155e-01 2.939873940980481520e-02 -1.564524759886622984e-01 6.785359027550333030e-03 -9.574060144802871986e-02 5.675575326040980390e-02 -1.360393686644658555e-03 -2.408438500979459551e-01 -1.407049191819242373e-01 1.670887029188458939e-01 -1.292854560705578582e-01 2.881922933110960677e-02 -9.358495059593091581e-02 1.409648083335391100e-01 -8.500975465365027961e-02 2.026802575837338971e-01 3.681246100960144929e-02 6.184680998257648804e-02 2.774888834711449204e-01 -8.237691600679780332e-03 1.576874390600666032e-01 4.662824911104514886e-02 -9.378190294776757308e-02 -4.258033654789198375e-01 -9.006159245617907649e-02 -5.348292884158321187e-02 7.368798445039054235e-02 -4.892280485749512381e-03 -2.745723757402583898e-01 -1.729914875066375091e-01 -5.904283720621655157e-02 -7.151803803453816999e-02 9.791382104898592453e-02 -8.019416964937889358e-02 -3.512090779773991561e-02 7.489656158126828389e-02 -4.961839342665071151e-02 -4.062413224439885839e-01 -2.323645574496437938e-01 -1.376057104356248062e-01 -4.677438156760926891e-02 1.522406968114079773e-01 1.288416038344365189e-01
2.791085226885589923e-02 -5.398425014763424956e-02 -2.815967738006940405e-02 8.224362704338127050e-02 -5.740446144404864892e-02 -1.702303583948722443e-01 -2.251242840217891061e-01 1.450005235626590332e-02 5.969404000487905926e-02 1.773556105529360272e-01 6.799190928736087436e-02 -1.312183762569956724e-01 -1.979770259869322382e-02 6.298585384111446417e-02 6.616777999674866573e-02 5.734059448722492180e-02 1.210889471232226566e-01 -8.171805724610099742e-02 -5.717985793234895558e-02 -1.042853840040955382e-01 3.249308361008897139e-02 6.745810833243526261e-02 6.587013470678759752e-02 1.870601219246288693e-02 -1.614165095817889778e-02 -4.069885285715610368e-02 -7.362688976228298765e-02 1.040519559069724292e-01 2.212244842118959651e-02 4.900004257214239656e-02 3.042563889579190384e-02 4.635939240848693105e-02 -4.229552797632336186e-02 3.396743981758701403e-02 2.350878822002913648e-02 1.445821723524504665e-01 1.728952878857961672e-02 -1.722707593575343032e-01 -4.933643829089930793e-02 4.986415371240917466e-02 6.661443376324366339e-02 7.583307265442951195e-02 -3.374944307940029586e-02 1.664003850109216087e-01 -3.440410711624377477e-02 2.089038819897397203e-02 2.515690604373337080e-02 1.085603973680005496e-01 7.683338058779095800e-03 -3.532713180507684320e-02 -1.113294246717004277e-01 5.560463280179399337e-02 6.495894271588395497e-02 -2.501088113864516349e-02 6.641002384133264103e-02 1.459393395030068596e-01 -9.580462359667447914e-02 9.325130990952541776e-02 4.238738962093371865e-02 -6.192520901250913451e-02 -1.064042598642490622e-01 1.978026995383537663e-03 -4.519038969984355385e-03 2.803557272926794977e-02 1.178851584848133460e-01 6.709798938476757568e-02 5.002957096726135672e-02 1.157381520345440729e-01 4.271099846312491344e-02 1.284578535909362274e-01 -7.483023587426611278e-02 -6.711852796112277586e-02 1.752059354525562981e-02 -1.034648765659478553e-01 -7.523280026497448578e-03 2.204431985555504181e-01 1.534645448389313771e-01 -2.964232766388328125e-02 1.806336527371232015e-01 1.315970706596893691e-01 -1.665191900084709298e-01 -1.268326021717533225e-01 4.001443056810143062e-02 -3.387983011735939964e-02 1.020913441556831197e-01 -1.047151824247341267e-01 -2.773088300252459990e-02 -2.752895634686470736e-02 -8.458841967069301304e-02 3.831878121680851179e-02 -5.485983775529371803e-02 1.660607349710404787e-02 1.153628840189759031e-01 3.614351936217975129e-03 -1.224503760459997731e-01 3.447013987535542390e-02 -7.645227056081901895e-02 -3.860129047668767275e-03 1.142143119760444525e-01 -2.353572708080957643e-01 -1.154162897368923302e-01 -4.827940212671397169e-02 -2.173964334671987242e-01 -4.290818829997639777e-02 -4.898655201474375748e-02 3.241108986830534139e-02 -1.049621736457887616e-01 -9.914228612010281272e-02 9.842455411159241330e-02 4.367767650000041468e-02 5.229722674364546686e-02 -8.610058819566393518e-02 1.671711038655224746e-01 2.001441562719983303e-01 -7.315654848404604116e-02 -2.695209712978105434e-03 2.984695368731180715e-02 2.130879113131036451e-01 -8.963999877918673795e-03 -3.285341418997087676e-02 -9.385806186428796716e-02 -2.555973964386911573e-02 -7.506323429834202594e-03 -2.644101868183691348e-02 1.094474905661401709e-01 -1.002522007835197487e-01 -1.027064473664075911e-01 -1.364674969167221918e-01
-8.263204625754483335e-02 -1.128005126990491158e-01 -7.912656727028233306e-03 7.235161413736755295e-03 1.015157333166891683e-02 1.459493570690959530e-01 6.004368354634990329e-02 -7.902419227214931008e-02 -1.232736567233837406e-02 2.305486860641069516e-02 -1.814145944922474982e-02 3.834978841358030466e-02 -9.425037479365025450e-02 -6.901544141569199153e-02 -2.636401902452908952e-02 -8.388042295153159966e-02 -3.601098466055879105e-02 -6.508814330027358486e-02 5.918373488631432228e-02 -1.604651365362666504e-01 -2.893029834716722912e-02 1.798616325175839484e-02 7.189912698887505893e-02 5.220049453526595662e-02 1.515411938157216198e-01 -9.731171266577531842e-02 -8.705945431087978859e-02 9.153207659397309681e-02 -8.112388778470047690e-02 1.057894336678397683e-02 2.975571846364961567e-02 -9.324449040210142786e-03 -1.310457930722890574e-01 4.691025075433826429e-03 5.962287345148384321e-02 -5.608372581870896961e-02 8.487802060195046017e-02 2.027125705036900236e-03 7.288490140442248355e-02 -8.059400052778592505e-02 -1.562462183784437721e-02 -1.210076997076706268e-01 2.183597267121753852e-02 4.074894513906801574e-02 -8.601452048338055489e-02 -6.423484087366544693e-02 1.104092946165650541e-01 2.707877486625883540e-02 -5.272606006434864268e-02 2.368687278295601717e-02 1.247370636174920666e-01 -7.301335484967362566e-02 -7.693806779550402264e-02 -7.135612536902147252e-02 1.058113912711727833e-01 -1.190954440943891718e-01 -2.341813431779191101e-02 -4.588622046556696532e-02 -3.081303924643893216e-02 -6.511013412914272436e-02 1.490131519440415254e-02 2.104829512261339325e-02 2.845074500410456342e-02 5.237467401629106872e-02 1.244442356147979628e-02 1.258923957378493309e-02 -4.975082369055796455e-02 -1.964082241852817615e-02 1.277881642463854321e-02 -7.024682863171606215e-03 -5.519538975334552233e-02 2.813973068193025007e-03 3.246549094962569541e-03 -4.173874772094937624e-02 8.369935993470806190e-02 -1.360205487657692724e-01 1.957370601473179886e-02 -1.122903372059628341e-01 3.229944840157721736e-02 -2.549104808978274253e-02 6.206355778858948374e-02 -8.933822257452952997e-02 1.133072151072349668e-02 5.487967656353906487e-02 -2.702801241612135322e-02 1.863357218833457118e-02 1.970051628817488451e-02 -1.478504697852958683e-01 -1.486648229281247423e-02 5.379128463422810924e-02 -1.617623847564072792e-01 6.271757076604413117e-02 4.202641786454043571e-02 7.146659954016736094e-02 -6.609779216817254777e-02 5.002520407134186664e-02 -3.228732975142890871e-02 3.158625842684867346e-02 5.227111696916695444e-02 -2.588993794784335070e-02 -6.320077642443975088e-03 5.389152580917178775e-02 8.182759270895159642e-02 8.841320709381676746e-02 7.040628106983973233e-02 -1.429421149292520524e-02 3.433821846935908653e-03 1.785061020500068553e-03 2.343252204639601974e-02 -6.739897384410827030e-02 -5.378995074571368828e-02 -6.240426147252558370e-02 9.548406549389865106e-02 -1.670114471209586393e-01 9.592885919317482857e-02 -6.307254903659295642e-02 5.991436219844138711e-02 -1.686388043654254987e-02 -6.216148793409552453e-02 4.755501541907973767e-05 -1.376800921193012568e-02 -1.037819968639299567e-01 -3.253492918586988608e-02 -1.134594023271102287e-01 -7.200832089751017275e-03 9.914632425131780086e-03 1.138959473841205106e-01 4.306839704357675463e-02
3.692589056406316017e-02 -8.734503521381185853e-03 -1.124912532209469407e-01 -5.001770369534756094e-02 -6.676286476315761598e-05 3.105993388581802100e-02 1.533283414598934080e-01 -1.187150355665401169e-01 -4.699722478871770637e-02 -2.497602333651374046e-02 2.897852055368076857e-02 -2.386705104116533804e-01 6.512152748877597652e-02 -6.782765385672347158e-02 -1.637289003447303937e-01 6.734981532736925014e-02 1.882685468863674327e-01 -2.706621476972764784e-02 -1.283093411357022484e-01 -9.396589063190709246e-02 3.897449721346071122e-02 1.347180999942269690e-02 -6.683347318147039862e-02 -5.150422746146297859e-02 7.229086848708000945e-02 -1.197017391633284356e-01 6.651644495860781214e-02 -1.089934530545403624e-01 4.647278138047991614e-02 1.605980926836766964e-01 -7.188559253100454405e-02 -2.091960955271478934e-02 -3.398645044147695360e-02 -5.031719625043811622e-02 -8.065935679601898833e-02 -3.200114572079536535e-01 -8.471119461471285361e-02 4.480467344673909336e-02 -1.334629400545769007e-01 3.601898822442094195e-02 3.006377197138894730e-01 -1.449450475728646659e-01 -5.983303607975638816e-02 -1.608310073397762607e-01 2.521275638828233134e-01 -1.006460082380116333e-01 3.813188032299872493e-02 8.732364922734629775e-02 7.397056610224936324e-02 -4.059251173008862623e-02 -2.092477375495565006e-01 -4.288650001965464698e-02 2.423441260176235727e-03 -1.767315975418303764e-01 -3.964934931028332027e-02 7.469521785607523279e-02 -4.191017531665785362e-02 1.686655349829117578e-01 -1.217077603051466839e-01 -7.057121903785798511e-02 -2.940275916744765697e-02 1.208018383952824265e-01 3.552323185688741058e-02 1.267442128845386873e-01 5.825173637868568538e-02 9.458419900592141688e-03 -2.488965605195003761e-01 -6.899295581994710491e-02 2.715838714852943699e-03 -8.593649942990279345e-02 -2.831418648625765727e-02 -2.759730092537604484e-02 1.591709440219078731e-02 -2.191214743457374214e-01 -3.654478078622138554e-02 -1.649799336197918243e-01 -5.916497128434897862e-02 -2.207621432807968520e-02 -1.839118698282332931e-01 7.397571732842229963e-02 7.436894778848152088e-02 -1.259412258704402550e-02 7.962183462815204671e-02 2.637507206992066935e-02 -5.224199691001985696e-02 -9.890340891473224649e-02 1.450424623056572604e-01 3.069441233858322127e-01 1.741990798600892218e-02 -2.779566399432941825e-03 1.394155543697686850e-01 -3.376615897591896814e-02 1.693238081424333907e-01 9.883093173007798105e-02 -2.226413388257803272e-01 7.852100616862184301e-02 -7.050843150581781460e-02 1.334081834839954787e-02 1.692195613084296613e-01 2.078370648355259420e-01 -2.222897231410188301e-01 -1.218286270912145308e-01 1.462267684423398939e-01 -2.586853583830111755e-02 -3.140652604856093710e-02 -5.476153862222210567e-02 5.395552066677075653e-02 -1.459446927572438379e-01 1.649098064920093976e-01 -1.135969801829813698e-02 6.160161861428539720e-02 -2.625900902061062969e-01 -7.440233922600614225e-02 1.154619312984803692e-01 4.529215566058180514e-02 -7.490276568366432963e-02 3.443551230956652665e-02 1.765872127417495441e-01 -3.049185467999870197e-02 9.452034154673709387e-02 1.030803807004008338e-01 1.403120790835021836e-02 -1.919937585159803631e-02 2.069937471461318346e-01 -1.474781596432009068e-01 -3.321473675809007153e-02 1.488755327180293075e-01 1.402831730459513648e-01
-1.732324965348599685e-02 -6.160837646489430997e-02 -4.532617042614033032e-03 1.642427836177870124e-02 -1.269498480701345688e-01 -1.900019933757088053e-01 -1.749586090714128073e-01 8.147334375393841532e-02 -3.557229510888443302e-02 7.837237082704387459e-02 1.748627953571761096e-01 -2.982529457712742582e-01 2.405990313620118629e-02 -8.964560520971348589e-02 1.776652290828935610e-01 -1.967440857608399318e-01 -8.386183708322542943e-04 1.135864067472013295e-01 2.367529729854500886e-01 1.465722076286833375e-01 -2.604182462028346162e-02 -6.949076176301569041e-03 -5.035409801265386398e-02 -9.992624890289603101e-02 -1.037788474377201314e-01 2.088941639416463658e-01 -6.745896158066884592e-03 -1.143815230693281670e-01 5.306032687132396924e-02 1.548668011336838679e-01 8.681300307417597756e-03 -1.388519202123037269e-02 1.285868835243036967e-01 4.075058825558265652e-02 1.094082778412121537e-01 -2.762883223979793745e-02 2.714884282133606108e-02 2.756813972958820427e-02 -1.329257383667073467e-01 1.258510904260135288e-01 1.058731726239605687e-02 2.128371976520504749e-01 -1.190984025804807042e-02 -1.653845214955801390e-01 1.735052917567206365e-01 7.088783015950449184e-02 -1.290482687658704164e-01 6.199522716981723837e-03 6.201475731598614372e-02 -4.532289895750973505e-03 3.221865469233856777e-02 3.318983768935949152e-01 2.815735190926978854e-02 1.496454690769654650e-01 1.678715071614383936e-01 -1.640932945063278137e-01 7.394898258996029927e-02 6.939104656154070072e-02 -1.059007476135700732e-01 -9.728112096220058527e-03 1.071246371298796990e-01 -7.965443532514646097e-02 8.638099696696538432e-02 -1.104438166930445525e-01 -6.256126122516078580e-02 -1.121778087786980405e-01 -1.217436485900394855e-01 4.622318637615287218e-02 -5.073144554958086694e-02 -2.549925505839431561e-01 -5.172878610675267497e-02 -1.204398243500175159e-01 3.938041023754551562e-02 -1.118511899218989497e-01 -5.283324168609099258e-02 5.499893212588310987e-02 -2.109639725951336503e-02 -9.827917807280803220e-02 -1.721143768004616825e-01 -1.083886147613730144e-01 4.090411258414679285e-02 -2.601215126242249487e-01 -1.022803627865876419e-01 5.713502398701540697e-02 -1.336552382284511009e-01 -1.961123326872022538e-02 8.789446931759134496e-02 1.331376453165791507e-01 -8.488590810661968133e-02 -8.023986470826799389e-02 -6.683227603734026578e-02 -1.067741383376049208e-01 -1.186891081845677376e-01 -5.263129183595602334e-02 1.191113034632731854e-01 1.199784617619519961e-01 6.420429869913420184e-02 -1.387985775766444746e-02 -6.520409677981225949e-02 1.629074734487435394e-01 2.009339538572175732e-01 1.650055681170295441e-01 1.216870273899229721e-01 8.730644933588363465e-02 -7.104350984080412545e-02 3.737884954889412331e-02 -9.256516208306979354e-02 4.752267062846952592e-03 -1.263667890188991394e-01 2.274610025426039572e-02 -4.091902922635350104e-02 9.133808179672829597e-02 -1.338490559727541218e-01 -2.155984353562068745e-01 -1.150252665341291829e-02 -6.776613550702274835e-02 -4.047660285591554025e-02 -1.816839103742836636e-01 1.080774316080221203e-01 -1.213736862065072225e-01 -2.337836527996482450e-01 -3.311328479458352375e-02 -7.149180799271320774e-02 1.563223063953111946e-01 -1.285518097221947653e-01 6.849640969221125475e-02 3.297141242660351496e-02 -5.952791124238030612e-02
-5.418454449678192231e-02 8.295889349746465857e-02 -1.058643926663254131e-01 3.722319339873151472e-02 -1.696755131710147788e-02 -1.013212222049366257e-01 1.045603494050630355e-01 -6.323193441122275382e-02 -1.072715254003598212e-01 1.171973804577806783e-01 1.119048423863446273e-01 -9.026622812072201962e-02 1.846175863987075672e-01 -8.950606301304957213e-02 -6.260263878022724604e-02 9.813965609595738659e-02 1.364408201888706595e-01 -7.914039322557386846e-02 -5.011092220441169115e-02 9.393669663800169323e-02 1.134502971241258124e-01 1.510476394151367419e-01 1.725565019756401808e-02 8.681932313258009654e-03 -5.651418664509821194e-02 7.430467033923093823e-02 -1.569085019156555572e-01 -5.374394630873162958e-03 1.242860935722259613e-01 -1.133915927951540115e-01 -9.874859499846218303e-02 -1.482783677464344363e-02 -8.859209805478482358e-02 -1.855606254564516611e-01 -1.663745832134866931e-01 -9.632587023004376969e-02 -2.093593376016656890e-02 3.745982873056669105e-02 -1.875863664163210931e-01 1.765026115541956046e-03 1.258530266016553434e-01 1.004519520771823271e-01 5.933676433966708630e-03 -1.026665474531648498e-01 1.089985001987056057e-01 4.464744090838541901e-02 4.198090102049835404e-02 -7.335320449803153786e-02 -1.810984652685570795e-01 5.231683049935848678e-02 -7.975752275652041312e-02 -3.927718346355062867e-02 -2.453285727898535861e-04 -7.619926575166184601e-02 -8.654310787606045441e-02 1.985093288696732627e-01 -5.573312416314279982e-02 -3.719357734843844326e-02 -4.324816838910005429e-02 -1.887244536142165807e-01 -7.333509702468511693e-02 1.369234517976927745e-01 -1.432697825053419749e-01 -6.075636553304552406e-02 -7.186913963838453823e-02 -3.773716627919671690e-02 6.718416713151961761e-02 1.152000022203783780e-01 1.105260467426602139e-01 3.090123454011722490e-02 1.311692744922231778e-02 2.438150165679186035e-02 4.471566232219720272e-02 -7.106958422581893808e-02 -5.422759561270664580e-02 -2.404523056339059328e-01 -8.364374165595965527e-02 9.665641497071213173e-02 -3.200710063179267872e-01 -9.526180175312085052e-02 -1.306374819683432664e-02 3.047940161154157404e-02 2.697915225774496009e-02 -9.032491116229413031e-02 5.346764512713197276e-02 3.304063593643942476e-02 6.169382830794029049e-02 -7.922339161159173970e-02 1.644683719440111561e-02 -2.961236821475216746e-02 -1.440144036551974926e-01 -3.176384646879404621e-03 -1.421819787184846751e-01 9.739294108266602357e-02 -1.375812885871931790e-01 8.036546063460718592e-02 -9.571104746602231150e-02 -5.845589268661227633e-02 2.132716554584471527e-02 5.257254444398680449e-03 1.516967759069317578e-01 1.143616475237536900e-02 1.402174751684992782e-01 -1.701954256791882863e-02 9.792934072449092919e-02 -4.013049824833104379e-02 1.037734760568007064e-01 1.270730774359425108e-01 -7.654078093159846774e-02 -9.317079327918767473e-02 -2.133017684188506097e-02 -1.409900945304612130e-01 6.916184156154155105e-02 1.459744903580037501e-02 3.650365690137047370e-02 8.856335536482690118e-02 7.241342883956214393e-02 6.763118649720505082e-02 7.695561232813233343e-02 -2.866114651353468198e-02 3.130703777731361215e-02 -3.431979102025096984e-02 7.748435516945585688e-02 -6.731788192392096359e-02 -7.656138511027298088e-02 1.385256379280062899e-01 2.279395110027365376e-02 9.179147899023770707e-02
1.259289160986023365e-02 -4.100211325653206618e-02 1.321303609293286718e-01 9.383751422507372042e-02 -1.198899744894356134e-01 4.425414774548636077e-02 -1.105770942156849707e-01 -5.023264795232234604e-03 1.281335733319069470e-01 9.030184683658096234e-02 -1.450336934192166805e-01 -9.719162552230556362e-02 1.019702336342051541e-01 9.043910550957358352e-02 -1.443642755315404855e-02 -4.716461219566445151e-02 7.184033968171933682e-02 -1.513249639395981838e-01 -1.476543342119811530e-01 -6.734382490528449151e-03 -8.474358842514269352e-02 -1.277981119957081468e-01 5.405190520177155511e-02 -5.267555397577028745e-03 -3.056558707042513964e-02 -2.696969697460804144e-02 -1.164254108568135021e-01 8.751457097617999781e-02 1.354601306659826143e-01 6.687390068181314762e-02 -8.203029941568287797e-02 1.396191420194122790e-01 3.554783411191397933e-03 1.374287756803568572e-01 5.695061155947156450e-02 -6.839013397187508614e-02 -3.055790529067334282e-02 4.207807558373295037e-02 -2.228301407694994740e-01 -7.649220794833303319e-03 2.040249861106948823e-02 8.819929914156904305e-02 2.722889083169617586e-02 1.079491876844044032e-02 -7.649004473146917005e-02 6.817847088193927999e-03 -5.653877377279234451e-02 -5.480912423396373800e-02 -1.824357791487726532e-01 -4.090453255325918885e-02 -9.581666246012253071e-03 1.015228440988185099e-01 1.050436470924549087e-01 -6.172401732887824316e-02 -5.167850724596483036e-02 1.192834457957351740e-01 2.275223386442496235e-02 3.487340374904335932e-02 -2.313708411866597855e-02 -1.319419647448747401e-01 -3.090994790423165495e-02 -7.289186040984273196e-02 -8.180976455079949639e-02 -4.672384903488199098e-02 -1.716166652648254062e-02 -4.933569633014847633e-03 7.186045906513452907e-04 3.408648189372200099e-02 -9.683879413871512853e-02 -5.644785380231412582e-03 -1.095327398044140116e-01 4.693699112136558160e-02 -3.657163872882311650e-02 -5.145609055802241594e-02 -6.876248094112384635e-02 9.014991122169901949e-02 4.357363930930301110e-02 1.016700661214174489e-01 -4.359099491864863729e-02 -5.147427308003558327e-02 -1.917599287234312833e-01 1.463291927491399726e-02 5.063223103445379375e-02 7.446873773548262632e-02 1.298596159663455429e-01 2.175825933294708511e-02 5.857918079844199460e-02 -3.093349594854900853e-02 3.378391439408123115e-02 1.308467785604898737e-01 7.942590800135146401e-02 -4.067544348461431952e-02 6.269060608027708648e-02 5.208763741796471058e-02 -7.448127782759571269e-02 5.623367179421721179e-02 -4.946549039085135213e-02 -4.461942484780612866e-02 1.820138599761888382e-02 -9.252530583752802129e-02 -8.252625796308918349e-02 -3.778157805200146879e-02 -2.184123549200626957e-01 -6.866549015021615465e-02 1.781296090316612443e-02 -6.920012023765834130e-02 6.823539149051420505e-02 3.441654549319565076e-02 1.310942314454993651e-01 -3.390471756758485500e-02 -1.584705749174196154e-01 -4.394226735523747152e-02 3.970326929125992006e-03 1.115897032225124097e-01 7.894156370602568862e-02 3.049842702607656261e-02 8.996757294562485185e-02 1.489535225115694028e-01 4.971179386890121205e-02 -1.995709664895614632e-02 4.251588466083084522e-02 -6.218587284681961758e-02 2.702721347683228678e-02 -2.939583067990575102e-02 4.501728761212986721e-03 -9.825155797067858243e-02 -1.593407994042926046e-01 -1.502356102235962720e-01
-4.038458336464344212e-02 2.079547048232916473e-01 -8.776585387759541779e-02 -3.532318034779118043e-02 -1.240303709378153124e-01 -7.494538447001219961e-02 4.094150024529823184e-02 -4.778139108163995813e-02 4.480207721113516062e-03 2.952998704704832070e-02 -1.120616021610596896e-01 -1.648357986726731450e-01 -1.467007745251499573e-01 -7.358881038742560998e-02 3.496654396776731066e-01 1.153965760065714663e-01 2.059832701750668738e-01 1.110614278796579063e-01 -5.043060438551283386e-02 -4.014897396463178170e-02 4.049616926065965211e-02 -1.264654496379726267e-01 7.085581546903595151e-02 -3.455741967490258415e-02 2.677463278603343239e-02 1.669015099380822750e-02 4.646289417553591677e-02 -3.365589446254507178e-01 -4.072415332817633238e-02 -1.164111523508497698e-01 -1.176022780034561566e-01 -1.324380703153973243e-02 -1.128023954420427633e-01 -1.371029393049061178e-02 1.323940586491227367e-01 -3.066131940617878443e-02 -6.754293989799598809e-03 1.318457380765446774e-01 -1.170128763358864454e-01 -3.445190964388833866e-03 1.506249701899194660e-01 -7.208583929070631890e-02 3.448148526962921401e-02 -5.823515074944803777e-02 2.494911731172230751e-01 2.663259116693427603e-02 -1.334298654861938715e-01 -5.808806429989051695e-02 -2.369203054076943205e-01 -9.924586642502851441e-02 -9.817243876436235195e-02 2.261484203954599315e-01 -1.075249536578442994e-01 1.605296478981293740e-01 4.168021299591071621e-02 -4.048454848095245917e-01 -6.332953957231132747e-02 -2.404793353450631818e-02 -6.693242198073923177e-02 1.709908650187027257e-01 -8.891074637065904396e-02 -8.464827336314603712e-02 6.641683922825936115e-02 -1.140595340707057093e-01 -5.812907122445701985e-02 5.284265287508937980e-02 -5.037119768148948240e-02 -8.672534332435839766e-02 7.063872527537924662e-02 -6.290011237395214116e-02 6.026604812583097326e-02 -3.878635061446691901e-02 -9.491698875170638539e-02 -4.848304413928260920e-02 -4.842860943921851180e-01 4.507936313116772675e-02 -9.953234234683680515e-02 -4.493126679534911044e-02 -2.746990550694526356e-01 -1.353098821629712678e-01 -9.411302871059042119e-02 1.038334643287859849e-01 8.408571744390950023e-03 -6.029105213468461538e-02 -1.757411516219660741e-01 5.187758927485613264e-02 -1.424882314645241621e-01 -4.540332135692912857e-02 -8.091862948129442679e-02 -1.933288840867300115e-02 8.326240236758031266e-02 -2.406032341250545839e-03 -3.099591628885147165e-01 6.999467797555122828e-02 1.574560681949031815e-01 4.236283373045997974e-02 -1.175447531277047930e-01 1.324939863787803485e-01 -1.626196098353400177e-01 1.743873934507940426e-02 2.230636835307965304e-01 -3.551047561564257132e-02 3.679771520889688619e-01 -1.868046575729093509e-02 1.169135408243105745e-01 -4.535557572628895473e-02 -9.469527772335135235e-03 1.083548035705107770e-01 2.205480778403491257e-02 8.430014043312107630e-02 2.618736144685974640e-02 2.694273158242730393e-01 1.071783282518816265e-02 2.561091622861054184e-01 -4.150247132732048927e-01 1.289179664886130894e-01 1.470818794770635540e-01 -1.292305423223649163e-01 8.034706437437319493e-02 -3.512591168261528507e-01 -5.205177034918878620e-02 -1.148619767544230147e-01 -1.777825519685578837e-01 6.119964756221209917e-02 -5.733017795227814128e-02 -8.361766169181310271e-02 3.431671442053736976e-01 -3.431514090275341045e-01
-1.041272664474027741e-02 -2.865984027875380091e-01 -5.315745389225129403e-01 1.507211662316719769e-01 -5.648067522048593608e-02 2.444347082023221041e-01 2.478022131987126786e-01 -1.511068581836857716e-01 1.674886118964342696e-01 -1.631669114109181307e-01 5.432245378272348990e-02 1.938270821334583116e-01 4.361482454659428021e-02 8.423778977501984733e-02 2.213812281515907326e-04 -2.072254298156522845e-01 -2.332523649010555533e-01 2.813732418830391935e-01 1.060965331929349803e-02 -4.619525559514779944e-01 -7.492160251924147307e-02 -2.713777364819717208e-01 9.026384097995522604e-02 -2.200039417871559044e-01 2.368083215775903527e-01 -7.405292427977753014e-03 2.434110673575364536e-01 -2.549598979908522800e-01 3.409744333360340690e-02 1.586158943137022104e-01 -2.293501687782521503e-01 -1.150935458135887365e-02 -4.270466870396692066e-02 1.727966932942716360e-02 1.787859237904980136e-01 3.306989707238078835e-01 -7.345637403459291670e-02 2.188224559975979200e-02 2.592035032298934394e-01 9.328339470158478197e-02 2.289848457288646763e-02 -5.748681661086483263e-01 8.210582577673478100e-02 -3.590036589895816421e-01 2.708550454781318839e-01 -1.665665679417898185e-02 -3.412571961606591930e-02 7.327404082966368186e-03 4.165263324675170242e-01 4.443712922068033394e-02 2.874113107372621712e-01 3.678517914434659142e-02 -9.234660806480513018e-03 1.019628108592787741e-02 -4.569007733888398592e-02 -2.346704935891372468e-01 5.060047143831050004e-02 -8.233333133982212448e-02 -7.579256278627852228e-02 2.921860234063655692e-01 -9.140736406685058546e-02 -1.336331799159531653e-01 2.715131615654043859e-02 4.748906021398804911e-02 -4.679279072139095885e-01 1.190433969293118871e-01 -6.555115405872824486e-02 -3.039349126399849485e-02 2.182976884138039531e-02 -2.279496897368280262e-01 1.365332712849255670e-01 1.633997846313946234e-01 -3.446500586158827983e-02 6.041754343038225478e-02 4.788035984691199620e-03 -2.201764680073465263e-01 6.890472726780591528e-02 2.238035263649337803e-01 1.578840213806105564e-01 1.145979659542566281e-01 2.018850949173441323e-01 -1.266227627521365195e-01 -1.571951413179639712e-01 1.587210918477851285e-01 3.097593233901326307e-02 1.962576410501489510e-01 9.634737557379799422e-02 -2.077884627649050631e-01 -8.740188684442002504e-03 -2.272461344491816804e-01 1.628777177614025573e-01 -1.011540448107223766e-01 -3.427125816094447330e-01 -1.775238896272604283e-01 1.714248102604953305e-01 -7.315364793585571457e-02 -1.939013663703239784e-02 -6.864230405856591721e-02 1.369715295183519532e-01 -1.360229024691832385e-02 1.819308499832393566e-01 -5.068993407924037367e-03 -6.359406726601340987e-02 2.381268077438613295e-01 -7.640759338545333179e-02 1.828015018193842600e-01 8.409720143122944788e-03 -1.400864160253325053e-01 -5.774253014732547706e-01 9.570774518123496832e-02 2.289542028110238825e-01 1.360969579006304775e-01 -1.089709909043559688e-01 -5.310491004947811566e-01 -2.481629945016284866e-01 -3.392110013312002459e-01 9.343749147109127462e-02 -1.092288068377151970e-02 -1.101205914429114752e-01 -2.429934898890996273e-02 7.353231200646556665e-02 -2.067625271293026257e-01 -4.359208645173035523e-01 -3.036457045902490881e-01 -8.879522505718880077e-02 -2.003146453904618238e-03 -7.081222803067048488e-02 2.343864461351033157e-01
-1.010671870468712735e-01 -1.448743831128060378e-02 -5.011465382211000366e-03 7.237192823536275910e-02 -7.265934505741061811e-02 -6.267336891900167350e-02 -1.783151513502052588e-01 -7.397747311000946180e-02 -7.516820505158922951e-03 2.489382060219849299e-02 2.535631807111593874e-02 -3.152233135181962964e-02 1.545143014287807259e-01 -2.229368511843424217e-02 8.641989726027931445e-03 1.163778958079037668e-01 1.879217494673141309e-01 -3.614397459406921975e-02 -8.161796260939191069e-03 -1.077250235938660428e-01 5.715075958961957775e-02 9.535764023868300091e-03 -1.046023751438869276e-01 7.463542288218243115e-02 -1.785912137805341915e-01 3.191567251701105112e-02 1.413031984917562101e-01 3.919155896334813871e-02 1.423297962024013159e-02 -5.735536631843228192e-03 2.326043556955527739e-02 -1.764032071130294810e-02 -2.057905372699015550e-02 4.224679469283934563e-02 -1.495143975859901941e-01 1.268671613221231294e-02 -8.727998180539260631e-02 1.285196167374171722e-02 1.696516114284335741e-01 -8.763576759610564038e-02 -1.557777628802351974e-02 -2.448082215353320542e-03 2.053033801591059443e-02 1.192931080064155158e-01 -1.055378447443927059e-01 4.444380404969546124e-03 9.348137704619352562e-02 1.789516088014973111e-02 -1.154998455318351352e-01 8.974025496310723826e-02 -8.356988770481195428e-02 2.436866882330696385e-02 9.676945317689543413e-02 -1.800280296036821659e-01 6.898720525677799753e-02 9.895896359269089337e-02 1.628409228848258158e-02 3.919358032402352199e-02 -8.870921882901816602e-02 -7.964091065642978085e-02 -9.655444931664985964e-02 4.688650131173587032e-02 -2.346420131042163681e-02 1.109171177978767742e-01 6.669894582738206124e-02 -3.868064938065533809e-02 5.684983674493426786e-02 1.199007854008157514e-01 3.947955530525378703e-02 9.156781974765547394e-02 -9.650307385512212066e-02 -1.388517544924079972e-01 5.006058853079974752e-02 -2.578837106025001075e-02 -1.255057839231128736e-01 3.577042175215630615e-02 -6.018271037487502029e-02 -5.999623467428291668e-02 4.600695241603167118e-02 1.542430971178416488e-01 -1.100959710219108142e-02 -1.471279691597097428e-01 -7.091861583317411732e-02 -5.715334221269537107e-02 5.700443722240532141e-02 -1.514481492139672647e-01 -5.639788570496419816e-03 2.011479358254228411e-02 7.498828083841869128e-03 1.262920494071005928e-01 1.966357135533913433e-02 -7.135170346762147175e-02 6.746598947374252142e-02 6.114637361069386046e-02 -2.908070603620133143e-02 8.523853657587026136e-03 -9.401672789533022101e-02 6.244118369640443145e-02 1.121491468991066970e-01 -2.145095974094157754e-01 -4.483337975986112500e-02 1.067681426270131045e-01 -1.056615594797731955e-01 -6.115346678235240776e-04 5.052834194045786875e-02 6.159888504870517090e-02 3.820579379388867186e-02 2.401713536722346193e-02 -8.672665997317144382e-02 -8.702220880245752077e-02 9.411121701593311295e-02 1.279683078217018211e-01 3.887172642540515088e-02 1.435944514619949541e-01 5.355629412267962075e-02 -6.889485989520353904e-02 -1.941983337049952435e-02 -2.966761488789565818e-02 3.403504144377224316e-02 4.911242916654757346e-02 1.407351440585251530e-02 1.528315694102834596e-03 5.126491021873710169e-02 4.189898731982880792e-02 1.061902308118446714e-01 -2.324736661081389794e-02 -5.477509752158851025e-02 7.194025930721019424e-02
7.966002516367987063e-02 -1.100552794758895142e-01 -1.608480719594833630e-01 8.939339521869507643e-02 -1.021539215607697032e-01 7.785914317564451848e-02 1.625902617809117101e-01 2.342578913514069272e-02 -6.778977835208431328e-03 -1.408906764062068002e-02 -8.416749032953738108e-02 1.080132632503445073e-02 -1.155748489767907256e-01 -6.421358764750861002e-03 4.005482775462764627e-02 -9.510352221034498732e-02 3.735871976031801545e-02 4.537176401322600555e-02 5.223096087609709059e-02 -1.734390459904273651e-01 2.665969275077796283e-02 4.562712326777632749e-02 -1.469032622262520515e-01 5.579965597192090149e-02 4.561296154889651205e-02 -5.173249833263916797e-02 -2.866194708672733515e-01 -1.172138674540124242e-01 6.284198647272962179e-02 -1.049115309204879387e-01 -6.893184552328060488e-02 -1.234138589659046353e-01 -1.801252526123028053e-01 -5.110966820404395233e-02 5.786102163909795371e-02 -2.238372007866283597e-01 -4.469518363431329577e-02 6.490995749969516448e-02 -1.310214030113760475e-01 9.665344640582151925e-02 1.549518187316761830e-01 -1.492600600742766681e-01 -4.361247965765512047e-02 6.386776998604541677e-02 -4.832844572911167841e-02 8.367696763475737654e-02 1.315940378269346567e-02 -5.550258202592951023e-02 -6.295064943798474311e-02 -2.378079108409329734e-02 -1.764461678481090041e-03 -5.684020231239314547e-02 -4.577941595175267662e-04 -5.909014603677112398e-03 -4.324203322175509262e-02 7.826648941078870325e-02 -1.125933612172670129e-01 8.608841363837363425e-02 3.953629072275174905e-02 3.737743159506028579e-03 -1.331489031193647254e-02 1.387968002282378710e-01 7.999270194161304387e-03 9.115146982552461453e-04 1.726222427320801556e-01 -6.117292051412794723e-02 9.120796181791759188e-04 -1.978076476721981891e-01 -3.098106647241166342e-02 8.546552250727591782e-02 -8.437183889861503069e-03 9.007335680798882194e-02 -7.099820370318447871e-02 -3.542987047806826079e-02 -2.399747828490631785e-01 1.005546541258182935e-01 6.226266322457316149e-02 5.531874307205297868e-04 -1.997506175977988296e-01 -5.494538274459761368e-02 2.080371899071323805e-01 8.181476762774643474e-02 3.231203807846379228e-02 1.143927157962595503e-01 -5.058999540770596492e-02 8.154262794634259404e-02 -9.131865495169157187e-02 -2.934284453872004761e-03 1.874933127716612441e-02 1.318208737425633978e-02 -3.808431208913281435e-02 -4.150483287150472794e-02 -5.493774656925668473e-05 4.012697127683967531e-03 -6.060841273686230768e-02 3.638870038850175459e-02 -1.123314749922526834e-01 -2.906657853983144607e-02 -1.742621852628062698e-02 -1.520133752203510213e-01 -1.552688287797647677e-02 -2.487995170132081477e-02 -3.314369638800645362e-02 5.684294618645940877e-02 -1.917140375151341752e-02 -1.281457614525376675e-02 -1.322101760661015951e-02 1.474049552280989051e-01 5.394405316246336096e-02 -4.933877614060311854e-03 -1.080383279446348183e-01 4.177858039827109238e-02 8.310985064281010970e-02 -6.545859068810890025e-02 3.327637327785427229e-02 -1.319152033425655471e-02 8.073863502138518833e-02 9.178962353410248520e-02 -3.914066785017626671e-02 -6.603861194661439504e-02 1.975805248882314333e-02 -7.553979934025650822e-02 1.055469554722868464e-01 -2.081826177153393853e-01 6.912652330947879897e-02 -1.036441313744200093e-01 2.223614910266358546e-01 1.186945731432417356e-01
7.796106119354075104e-02 -5.036205873302968677e-02 5.661045660413575875e-02 -3.572775669468251925e-02 3.771146904124954985e-02 -5.959906089331856033e-02 1.305779174637561324e-01 -9.460034890648524875e-02 -1.201444237944175250e-02 2.734674849840266694e-02 -4.176284922885540318e-01 1.832091102587706244e-01 -4.123728780140774319e-02 1.024945977699534029e-02 -2.348248300616151418e-01 -7.874466288277857939e-02 3.719960410242796611e-02 1.532828251206115773e-02 -5.520476391148849971e-02 -3.850092881034092862e-01 -7.456018418818758341e-03 1.544435870201893990e-01 -6.187558044991558343e-02 8.644502981364145244e-02 -2.631978918367435805e-01 -1.207851442087800875e-01 -2.282532552206703036e-01 1.139135172803901544e-02 9.845168052755441657e-02 1.135475470347400567e-01 -7.030338659792194356e-02 1.638094535284695119e-01 -8.855779988307797834e-02 6.635084392104392825e-02 1.267729370012768697e-01 -2.457773351995237443e-01 -5.544233996243071172e-02 6.774767533980350503e-03 -2.551374666381486245e-01 5.410519263568010911e-02 -7.888521315110771925e-02 -3.384910155239737733e-02 -1.342069026846363644e-01 -1.777602458921382078e-01 -1.542708218744225368e-01 -6.354301126123500232e-02 7.835978945532391660e-02 1.378220610351991171e-01 3.867470894314764627e-03 -1.625605364727617311e-02 7.466245914820006380e-02 1.436579642820767222e-01 5.649030106918125071e-02 -1.496782754818132277e-01 -7.462167693462723461e-02 -1.665854160187365540e-01 -5.824095096238134268e-03 3.024406890177642332e-02 -3.917213115170356530e-02 -2.166625863677735242e-01 -1.133882760788540583e-01 -6.789688440497844424e-02 4.551245054202029267e-02 5.249061211723462378e-02 1.537411207507258515e-01 -4.940677325880310500e-02 -6.861625263326130708e-02 -5.889138790754111508e-02 4.318679532544592026e-02 -2.844199957372471957e-02 -6.711551835906674757e-02 -1.231956921646829434e-01 1.464140473003151255e-01 -2.601162600590095630e-01 1.113160247393785163e-01 -1.239167286149459035e-01 -1.120833031176721589e-01 4.713675827822733089e-02 -2.962667614562479734e-01 2.777569699685209989e-02 3.363484352155548390e-02 -1.310559890139935679e-01 5.056723130440370084e-02 6.336464566060534542e-02 4.821368128019137139e-02 5.606483405729584257e-02 1.439059316797129846e-02 2.479570466480896518e-01 -8.347055176555397138e-02 2.192048696831286891e-01 -1.670973047099419129e-01 -9.570482074458608324e-02 2.087412430052791867e-01 -6.444907265589351619e-02 -2.166550291733298703e-02 -9.137839034819096595e-02 -1.224826319770876693e-01 2.116557100773945599e-02 2.963028041155566297e-02 -2.175237553746994443e-02 -2.439646938419854916e-01 8.872364502592092195e-02 1.948892018822836192e-01 3.532363062491652994e-02 -4.263324452530826286e-02 -7.122698174674192695e-02 -5.297442614394862886e-02 2.466184379863474441e-02 3.219023407696352534e-01 -4.450357172951824314e-02 3.127807388277183132e-02 -1.240731616835950429e-01 -1.616159605623800066e-02 -2.393750427606819442e-02 1.549649980573265251e-01 -2.847726571262620965e-01 -2.095617527239764313e-02 -7.019280421633068701e-02 -4.214268958009290134e-02 9.986683928573408808e-02 -1.099258041305214428e-01 1.798677187235717401e-01 -7.735299536196449388e-02 -1.121850134948241123e-01 -3.258989231181483870e-01 -1.961818003560421020e-01 1.794905991568836456e-01 -1.222070271825876492e-01
-3.784296130386168716e-02 5.641550087025590243e-02 1.056061231268322353e-01 -1.287133860429171550e-01 -6.433940709006778780e-02 1.520921665677777979e-01 1.452947417314117730e-02 -1.072702770480608164e-01 8.364901512655156801e-02 -1.119586519922948775e-01 -1.388951661098037360e-01 -6.283860450886787075e-02 1.150106047170876972e-01 5.590974070435688476e-02 -7.929794428176852039e-02 -4.214521860503483985e-02 7.211474763660216669e-02 -8.830443384186276168e-02 1.154488705364579149e-01 -1.490785791946273586e-01 2.593310925410070855e-02 1.288715183773630479e-01 9.965989664233540490e-02 -1.135352499624471684e-01 2.601036629154398344e-02 -1.057396019903592416e-01 -3.735272869617733277e-02 5.625245760855578786e-02 4.796669556640776461e-02 6.540998582548422646e-02 5.349094918538494642e-02 -1.127208048264785184e-01 -1.380605951679996501e-01 5.769907403769124893e-02 4.920676222743231541e-03 -2.729449544193028876e-01 -7.826681121501290195e-02 1.378854425851996912e-01 -1.069555511066918874e-01 -1.014099137095345465e-01 -2.652613576204428808e-02 -5.743470664132542536e-02 -4.483954573935911014e-02 -9.878282891721801295e-02 -1.305041882798281816e-01 -9.077440700609080981e-02 -8.688527824429369967e-03 -4.436043625019534670e-02 -1.468526735474113831e-01 -9.073324449481214027e-02 -1.497438712142924906e-02 4.255153077713978715e-02 -2.533060460105112863e-02 -4.924986456396950041e-02 -3.336049267707715260e-01 5.605287513347764761e-02 2.440310706481298164e-03 -1.349892825165809884e-01 1.134367801360110090e-01 -2.487213693619843430e-02 -5.608747707127228338e-02 1.043290316882956592e-01 -1.104770399941674974e-01 -1.305150810103390402e-01 2.293318554347984484e-01 -2.564271845719040196e-02 1.612564765063178029e-01 1.283876103906480548e-01 1.502168901542441128e-02 2.060514019949724433e-03 -9.160066945439940267e-02 -1.038519812664165515e-01 3.534944988841472180e-02 -6.986739041462171340e-02 -2.398103248362299170e-02 -1.290421574722293574e-01 -1.300751266039675280e-01 -9.113071145007217710e-02 -3.257236112727777133e-01 6.609459465367988062e-02 4.082880008883702644e-02 -2.672415780061060050e-02 3.094154707381813890e-02 -4.128054339469078987e-02 5.331993398657456501e-02 -7.957705811090001746e-02 -4.320397051953869284e-03 1.521285326390950932e-01 -1.015141072689531047e-03 -1.094293218157283976e-01 -5.166892869887763223e-02 -1.274310727788161186e-03 -7.352123794636011844e-02 -7.616774885476604307e-02 -8.399844284414607898e-02 1.216763251940591699e-02 -6.573304573530343309e-02 -6.208282117796547206e-02 -7.559893133356823669e-02 -5.803547453553434265e-02 3.944632229814023366e-02 -2.606387850671526216e-02 1.968118369068679596e-01 -2.358858661266641926e-02 1.100178947100216922e-02 1.456428366685841025e-01 -4.726619729040745788e-03 -5.741989865964736151e-02 9.825794833111628490e-02 -6.450651879708908798e-02 -2.044865530887130523e-01 9.946104928092426578e-02 -3.575727210986238275e-02 1.202619729947806970e-01 1.525655188928125424e-03 -1.755744708034063031e-02 6.343714428068349120e-02 -5.192489479049027662e-02 -5.132142425668945879e-02 1.265879379822340278e-01 -5.531788366742169255e-02 5.721187124300543270e-02 8.434522898240782995e-02 -1.883646246004468117e-01 -2.742700372599485292e-01 -2.082078141600537946e-02 2.357874633481598092e-01 1.008534555283920747e-02
6.455082129879934072e-02 -2.634513026832122767e-02 6.366914283769689598e-02 -1.463945271860729869e-01 -3.154079972692162559e-01 6.842776268216198277e-02 6.232561351885439367e-03 -2.534746421334376776e-01 1.183811890426491736e-01 -5.629575302633691575e-02 -9.064799126059742973e-02 -9.339221583816223471e-02 4.057034764311812092e-02 6.872269896116195431e-03 -5.297710372379588889e-02 8.701652312482432983e-02 1.420977984371952774e-01 -1.239426849617830950e-01 -2.399660056353873083e-01 -1.409330375615346631e-01 -6.027994953694624375e-02 8.843071934636025089e-02 -1.071091239988715242e-02 -4.638802122051375459e-02 -4.469496627652570081e-02 1.501699689826737349e-01 -5.386417004425926580e-02 -4.175248527323566911e-02 -9.677382866076456036e-02 2.906603413976295916e-02 -1.652399601867487848e-03 1.325927589758611469e-01 -1.598674795157485062e-01 -3.538675417195190354e-02 -2.195953973971014328e-01 8.737960524336824131e-02 -1.496025308911110713e-02 4.178982472952651878e-02 -3.277656012241901562e-02 -9.445651276105450356e-02 -2.144594252360275746e-02 2.291743041083842483e-02 -9.743947305338687692e-02 -4.999049974337082397e-02 8.592054907493637539e-02 -1.279476833697848204e-01 1.001684822613382458e-01 -5.841329887901987317e-02 -1.590481215287158773e-02 7.716134478156370935e-02 1.264097082087577983e-01 1.774502784137558797e-01 7.889748475670610439e-02 -6.867705176267772937e-02 -2.080191823962968534e-01 -5.578881840625806582e-02 -2.153979737894674562e-01 -6.835770249847195057e-02 -2.867713344839720180e-02 -4.893010958804635407e-02 -3.141579368418082746e-02 5.375253278344303831e-02 1.753333533231379512e-02 3.611690860711755380e-02 1.313434011417298312e-02 -2.587366999842414042e-02 -9.846110031066701226e-03 -1.514280589903376217e-01 -7.058840198064589289e-02 1.229120406997049469e-02 -1.427769150226441686e-01 -6.092653400813889675e-02 1.057368053270396971e-02 -2.043002784657381443e-01 2.655917796372720893e-02 -4.586770745424521151e-02 7.723575981546741687e-02 5.033445004291593750e-02 7.821221958244715944e-03 -8.004723213272453564e-02 -3.238767589253493950e-02 2.228769576930425197e-02 9.445265914249709183e-02 7.055130814102955616e-02 7.015892992558395158e-02 -4.324058296054791167e-02 -1.136783842696421076e-01 2.592598593099187942e-01 -8.671306316513498202e-02 1.671239637909207459e-02 -7.592301871662707202e-02 -4.840232894183384149e-02 4.560539840222586905e-02 6.239834035741604647e-03 -4.582122410844084032e-02 7.375711873878480762e-02 3.862486915294084926e-03 -5.012429302661289797e-03 1.256103289233782318e-02 -8.535952505475100094e-02 -2.090716348859636142e-01 3.667619646017977048e-02 1.892764436076245851e-02 -3.797376175991725583e-02 1.451733284354722424e-02 4.989851996144244184e-02 -3.257557525650062180e-02 -8.846226632770914922e-02 1.246435203498885008e-01 -5.561005658507111454e-02 -6.305311949492994894e-02 -4.859114643847375903e-02 1.189678858490957059e-01 1.497930382105105707e-01 -1.435723774974141387e-01 -1.163457871832325186e-01 -9.685976753744503231e-03 1.699638976972207283e-01 -3.015055359286377898e-02 1.040524132969054272e-01 -8.997781378399136165e-02 -1.551335528735944651e-02 1.369095713499639266e-01 1.466547033807633592e-02 -6.966839160591686841e-02 -1.337253866233341637e-01 1.217813119790303461e-01 -2.064046730013753272e-01
7.500704636636354450e-02 3.861215719507027355e-02 -1.041583782969368252e-02 8.046477730215274848e-02 -1.787800183106552365e-01 1.644554679514682594e-01 -5.058643138033855347e-02 3.175455631793124012e-02 -2.166654930016958039e-02 4.440547868820329813e-02 1.733081424997792719e-01 1.018170644858618218e-01 1.019619324925534476e-01 -1.620123175462530665e-02 -7.280743642956975792e-02 -4.621760669302288349e-02 -2.748543994761690201e-02 1.370089128001913403e-01 -3.551069466543453346e-01 1.506264177304095508e-01 1.392239628043999700e-01 -2.459217708540180625e-01 1.538541935122302029e-01 -1.738734648253639492e-01 2.388292548596306353e-01 -1.591237944922777384e-02 6.561679970181749644e-02 -2.058861683581496571e-01 2.339072969759912191e-01 -2.618727586073227864e-01 -3.800206292247405165e-02 -1.350570535384963133e-01 -5.999000084193553683e-02 -1.295786199267611183e-01 1.235429138680977923e-01 -1.828728007447159298e-01 4.176041910525026685e-02 -5.839851368928047903e-02 -1.182323213505730025e-01 -1.332409537774031094e-01 -2.230381212085896514e-01 -2.526798543782249884e-01 1.531699330842782314e-01 -2.268469777809318730e-02 -1.135546891107244716e-01 -4.669598818141047075e-02 3.774611346860626965e-02 4.841089113156410439e-02 4.130548054051173118e-02 -1.839074563957990294e-02 1.206055065184638217e-03 -2.920261366538307729e-02 -1.838302398272825267e-01 2.853663807740963385e-02 1.117159617548017930e-01 -4.401205352562981288e-01 -3.048952147487905551e-01 -3.596673243022377453e-02 1.884364338271929049e-02 -4.460164280068236453e-02 -6.573343434364459226e-02 -6.632406548491712184e-02 1.922322806240715429e-02 -6.221116335148966364e-02 -1.097576197893902206e-01 6.920616876635352077e-02 1.008556384539287670e-01 -1.254971124517735015e-01 -5.673783774007977454e-02 1.355067842577569251e-02 -9.864153564183309950e-03 -6.000032616249501710e-03 -6.370053779402493066e-02 -2.147371242607779840e-01 -4.058907227801859530e-01 -1.474095757260316941e-01 -1.379612537886903134e-01 -1.012293084273284405e-01 -1.011702067300398467e-01 -1.553437968775553055e-02 1.064035857849782579e-01 -5.368301076402687971e-02 -1.261785728625879899e-01 3.551825559722333187e-02 -9.953860281163287582e-02 4.264860623329673472e-02 2.170153320445272066e-02 -1.751999534741870701e-01 -6.736743265852399021e-02 -1.041695142898496768e-01 -2.203306113752222847e-03 5.819146878461275291e-02 -4.419126416616838554e-02 9.726905779070663116e-02 1.007605818856771723e-01 -2.942433396879457624e-02 -5.549311137136159894e-02 -6.553906677199018704e-02 -1.364293874576183174e-01 -2.059785882209135000e-02 1.059333750796444540e-01 -6.231827288327925233e-04 2.940537145442055633e-02 1.618298122988532650e-01 7.813293780179142445e-02 -6.519320447152754383e-02 3.611187233897757837e-02 -1.988053924107615333e-01 -2.058044126837569113e-02 -2.616361497452195095e-02 -5.607137571418122773e-02 5.608698449621138133e-04 -9.949729058421066807e-02 -1.625933288891479311e-01 -2.939002824795938773e-01 2.433493424227025081e-01 -2.420980209075513159e-02 -4.882172808921752399e-02 -1.199648399552773470e-01 -2.162189350878332417e-01 -7.008987833392502087e-03 1.980684997048827098e-02 -1.449598927637154033e-01 -1.244455590676109141e-01 -5.179901522791086760e-02 -2.858072798598161254e-03 2.189129487107546179e-01 -2.621172244422992903e-01
-2.938316809519086678e-02 -1.415163392613039833e-02 -1.941270755000969184e-01 -1.661654827018698155e-01 3.797887904256652680e-01 1.760636177700484195e-01 -1.760917974668552710e-01 3.872675957481871295e-02 -1.528786968388074208e-01 3.630799453904435398e-02 -1.852486646350940958e-01 1.571382283913469458e-01 -6.654957438639129419e-02 4.948633544592974387e-02 5.316917225508251132e-02 -9.251045594245886627e-02 2.416797731490533674e-01 2.383540659213229107e-03 3.927652050372574255e-01 -3.211562854003114920e-01 5.390006339996878532e-02 -2.623685874530254369e-01 -8.700024492064303838e-02 -4.971804030466507596e-02 1.294970122156266779e-01 -3.977665374510368224e-02 5.107218634410942010e-02 5.150292764681495099e-03 1.759978723370969889e-01 -1.780332844771858117e-02 4.474204890797311984e-02 -1.356934974532086891e-01 -1.937953766599212480e-01 1.453303105980944254e-01 -1.817897635678243917e-01 -1.601811130440205372e-02 5.141830437650112690e-02 -5.016936981417209618e-02 -1.797429319114005331e-01 5.978517539508519663e-02 -2.877037648583111087e-03 -6.626853417175877781e-02 -1.392795205109084999e-01 -6.619176460206555035e-02 5.691339301246430699e-02 -8.079406394194570129e-03 -6.103385975297086208e-02 7.204150306421838734e-02 1.376488948603967477e-01 -6.003858359327842592e-02 3.494449198723428296e-01 -1.928160453393117368e-01 5.640835358703428365e-02 1.271998786468072906e-01 -1.750200556316054146e-01 3.201076505505295322e-01 1.371316964724602350e-01 -2.171749518123355371e-01 5.527933607586106059e-03 5.712955431725792732e-02 6.570409123916701177e-02 1.944684423447421706e-01 -3.866958299697357410e-02 -7.646032034784883136e-02 -8.067907189303021032e-02 1.771579967684116770e-03 1.653958427115890528e-01 1.210037839240039464e-01 7.415138055415378127e-02 1.855990896651283917e-01 1.758258227248220285e-01 1.163650950464886202e-01 -1.716379753664066254e-01 2.255415968760975387e-01 4.457887505683065799e-01 -1.991345262327901822e-01 -2.882881960959517986e-01 -2.524664033699277124e-03 -1.615199261235555628e-01 8.169677328047411646e-02 3.514381160369436929e-02 3.405751059697222360e-01 -9.732251694161540845e-02 4.424538483401054684e-02 2.119345042587794381e-01 8.931878558262075496e-02 -1.710874484627561698e-01 -9.089636762794228719e-02 -7.521637554654733715e-02 -1.302651836244157584e-02 9.137722505633437062e-03 8.934575982187001331e-02 -9.645154284242286880e-02 4.605241972911482823e-02 -4.354958168492777115e-02 1.160308276774283803e-01 -5.790121715554861354e-02 -5.092169188941659402e-02 -4.624362048355529220e-02 -9.991862854523200776e-02 2.479785359024219982e-01 -1.762324407707760721e-01 -5.782658350842898032e-02 -5.560216100422095322e-04 1.217325497896429159e-01 7.762551543906499874e-02 1.583463003276597324e-03 -1.127344384477291933e-01 -6.086535175817496535e-02 -3.813517537988747597e-02 -2.662076425079397055e-02 1.388617905056929724e-02 2.366286850451018026e-02 -3.013238989624922315e-02 3.456350617007956649e-01 -1.757060895259909272e-01 4.507264456999880188e-03 3.531106190282908286e-01 -1.025537869685545500e-01 1.334875429098218158e-01 5.816154092505678580e-02 -3.884227342012536721e-01 9.451468702689386214e-02 -3.085088494432000616e-01 -7.584261314674360654e-02 -2.605275511422781506e-02 1.121769751360421619e-01 5.206048611865411457e-01
-6.377147678158934241e-02 -1.492288924651302695e-01 5.542477686383252833e-02 -1.663711286333123818e-01 -7.111630799598540886e-02 -3.626605236878239352e-02 2.377489094891039323e-01 -1.808648488242259322e-01 6.532371996081887122e-02 -2.453404969186409601e-01 4.921872650875808164e-02 -1.147370690693889639e-01 2.926918090803710959e-02 -2.316390900473962178e-01 -1.110694401629354344e-01 -4.123556641534075612e-02 -2.974390186501628119e-01 5.673098966206603991e-03 -1.115805514795458198e-01 -7.187127246016979110e-02 1.341825763265118952e-02 1.118461905917012972e-01 -4.129104970685824189e-02 -6.861947434860342365e-02 -2.128250889891634967e-02 6.443134174977091511e-02 9.193918174812421018e-02 -1.339341369548256722e-01 1.170756564671133620e-01 -1.675950053417685492e-01 -2.396896131333004724e-03 -4.906807539706261462e-02 1.044048146276542605e-01 -1.178986200117435393e-02 -2.740678653902862971e-02 3.497138770792796586e-02 -1.443720244688214208e-02 -1.721715413543591922e-01 6.617567816279873449e-02 -8.688444343081420940e-02 -1.617448362250932872e-02 -5.274039749140661815e-02 1.623986650783758312e-02 -1.706997501358940295e-01 3.678001286208203435e-01 -1.386585856469280988e-02 6.088335033101328897e-02 9.807369679379510097e-02 7.209768165482596455e-03 1.798489672937621797e-01 1.882653960412284666e-01 -2.505634252237516901e-01 4.436765214635737115e-02 1.080067271275884783e-01 3.887011534689388537e-02 2.794736805281603509e-01 -6.218474318347971125e-02 -1.028456239785237175e-01 -1.831182194067916894e-02 1.599745846367409408e-01 -3.952293112262354052e-02 -1.843103242531531072e-02 1.203028168659863728e-01 -1.042831320471129981e-02 -1.732604686416114592e-01 -4.956030421268782515e-02 1.944978640180534124e-01 -1.277679694946620703e-01 2.747075351782243477e-02 1.341588093639403401e-01 -2.104107802874709623e-02 -1.943294171916660207e-01 -1.028349672050984515e-01 -4.014705579988754880e-01 1.339218940455524365e-01 4.699737943826379216e-02 3.954285111663890379e-02 -2.411748290752859791e-01 9.241308519868300653e-02 2.411582000182982757e-02 8.540707911466875746e-02 -2.027535148633198003e-01 -5.619842168907579483e-02 -1.734116917593411453e-02 2.468502600823411774e-01 1.883572721309506592e-01 -9.368139295484621820e-02 9.609113496555282685e-02 -1.870087384709173406e-01 -7.983447426606225805e-02 2.004383837515224739e-02 -1.478593943874857985e-01 2.899705090810596533e-02 -1.009891882303920324e-01 -2.634853283473766183e-02 -1.201415409165518602e-02 6.364027970462714234e-02 -1.056619432536368315e-02 5.364555130854381515e-02 -1.557216081167509814e-01 -1.027211094389426926e-02 8.968432231037166968e-02 2.018274609997624050e-02 -5.909958624186326809e-02 -2.397299150985822760e-02 -3.744848306801948357e-02 -7.314017229482047688e-02 2.750312969120423737e-02 1.694494377129188286e-03 7.232318230727259600e-02 1.430000155502754167e-01 -5.594634600553748463e-03 4.381278912813516696e-02 -4.304599957335453198e-01 5.200904064058778364e-03 -7.303067342791645655e-02 3.798883409757528029e-02 8.290690759141472466e-02 -1.755601319126132986e-01 -2.337867713778970374e-02 -4.825691146911956220e-02 1.189578127063258967e-01 7.882169334577072278e-03 3.246718754940107476e-02 2.629915008755619177e-02 -8.863296949074514486e-02 1.215777121805820260e-01 2.359555452015006938e-01
2.325443559860695605e-02 6.502339777094877371e-02 -3.082516916806465890e-01 3.613661045757096679e-02 2.311402371652274135e-01 1.605100820503001235e-01 -7.701842843779496683e-02 -1.769904037706513666e-01 -1.754201786645019079e-01 -2.244407130112033300e-01 4.314668586462063193e-01 3.272373268862839579e-02 -2.804226538359155252e-01 -1.024041047622045730e-01 2.834379676193243824e-01 -1.329144587353499052e-01 -2.281970226207416796e-01 4.506301338199254942e-03 5.668080202202029766e-02 -5.625848613325506314e-02 -4.639172761189581939e-02 1.966374750158705886e-01 7.190617534314275305e-02 -8.840895524319282439e-02 8.138948872292792180e-02 2.072203634633903724e-01 -5.124254595316367344e-02 5.174470496630820260e-02 5.234744288266963974e-02 -3.760677198898045720e-02 7.406586182102001259e-02 -3.704306166157614322e-01 -7.206395219678250752e-02 7.252594839273317218e-02 -2.709522388397759274e-01 6.029265371319803696e-02 -5.300760710925402075e-02 1.376563418717487997e-01 3.342955431050392834e-02 -3.560970238128794568e-02 4.270555004898999307e-01 2.376611564807402099e-01 -1.050596717466067698e-01 -2.927132224237566360e-01 -2.146115769064711742e-01 -1.317541098997531968e-01 -9.749662834675668077e-02 -8.430845235200688098e-03 -3.007210832345253576e-02 1.317842174989538595e-01 -2.047272579597653880e-02 -2.001964465647242467e-02 -4.674180279201994165e-02 -4.607181569624647921e-02 -1.459858464841428116e-01 2.297341215519831670e-01 -8.885774253079313512e-02 -2.947942966082388039e-01 -7.023387701741996836e-02 2.616812652486526767e-04 1.277674167191677201e-01 9.764090616898919717e-02 2.571697582815709454e-02 -2.415132918502108095e-01 -1.836535768570107807e-01 -2.840555082518875230e-02 4.058483252941295083e-01 3.932530860388478572e-02 -4.269070564436122650e-02 1.424655280024151975e-02 -2.616782428380914211e-02 -3.865964825716821512e-02 7.048691332237383422e-02 -3.584322673173654522e-02 1.284458179933322952e-01 2.355313008748416426e-02 6.276453947529543609e-02 6.577978590662314495e-02 -1.768045779015064989e-01 1.319968804012144892e-01 1.581748340794741359e-01 -7.606054290842570453e-02 -1.451193450777853999e-01 2.877347772156576070e-02 1.711263941874325567e-01 -1.307163313221845480e-01 7.842611254152910549e-02 6.572010243106518601e-02 1.543528574048857738e-01 -3.900999864310791126e-02 -9.062596644359723064e-02 -1.489088714647062162e-01 1.801006154902747708e-02 -3.056157943129399895e-02 -2.246839172144612096e-01 -8.081456140795138451e-03 5.738047428649932502e-02 1.754334340089821198e-01 1.348627243947660426e-01 -8.481119717593864349e-02 3.302648841952308678e-01 -2.954482210337007128e-02 5.983671404985266978e-02 7.795821088559250212e-02 -3.682858996332051549e-02 1.114112529870557242e-02 -3.520717061800070213e-02 3.069757244267579122e-01 -2.484785082943060386e-01 -6.782161518351691176e-02 1.414334670973512176e-01 7.268358425302891279e-02 -9.198123064586710695e-02 -3.030994929480521627e-01 2.982047311191983185e-01 -1.091988307033133765e-01 -2.291076428927497216e-02 -1.525458809899249424e-01 -2.372040716124374296e-02 1.687375135076568944e-01 1.764421541708947050e-01 -2.209201834166985012e-02 4.783872212878746699e-02 -2.566786150708062486e-01 1.026850599064120101e-01 -4.361588383594391938e-02 5.156943373615254823e-03 3.075021556211971485e-01
